december clarion 0.1428571
december december 0.9285714
thinking NULL 0.0000122
thinking if 0.0011905
thinking part 0.0050251
thinking we 0.0002231
thinking notion 0.1428571
thinking not 0.0004713
thinking alerts 0.1666667
thinking trap 0.0833333
thinking audience 0.0454545
day afternoon 0.1250000
day midnight 0.1428571
day however 0.0030395
day spending 0.0500000
day literal 0.0625000
day incident 0.0833333
day door 0.0263158
day intensifying 0.3333333
day wayward 0.1111111
day reading 0.0085470
day date 0.1428571
day execution 0.0232558
day very 0.0156863
day event 0.0270270
day conversation 0.0294118
day back 0.0056497
day cleared 0.2000000
day bad 0.0087719
day shone 0.3333333
day on 0.0022346
day better 0.0090090
day specific 0.0277778
day memorable 0.3333333
day apr 0.0400000
day someday 0.4000000
day january 0.1111111
day sofa 0.1250000
day reflection 0.0476190
day morning 0.0344828
day rooms 1.0000000
day later 0.0038911
day long 0.0162162
day the 0.0000699
day certain 0.0235294
day NULL 0.0004638
day desperation 0.5000000
day sundown 0.1250000
day itself 0.0625000
day time 0.0045045
day shoulder 0.0526316
day daily 0.1475410
day timely 0.1428571
day gary 0.2000000
day outcome 0.0454545
day pearl 0.1666667
day forward 0.0158730
day service 0.0045455
day come 0.0047170
day occasion 0.0263158
day activities 0.0086207
day temporary 0.2000000
day vow 0.0352941
day point 0.0098039
day ago 0.0333333
day some 0.0024067
day &#91; 0.0125000
day fail 0.0222222
day once 0.0198020
day trusted 0.0384615
day except 0.1428571
day memorial 0.0097087
day day 0.3816254
day sober 0.1666667
day end 0.0416667
day undertone 1.0000000
day ongoing 0.0555556
day threatened 0.0344828
day sacred 0.0204082
josé NULL 0.0000122
josé offer 0.0166667
josé mid 0.0714286
josé tony 0.2000000
josé observed 0.0333333
josé helped 0.0056818
josé josé 1.0000000
josé case 0.0102041
josé had 0.0029791
josé their 0.0007072
testimony card 0.1111111
testimony testimony 0.0588235
10 ; 0.0019417
10 impossible 0.0588235
10 productively 0.1428571
10 enemy 0.0294118
10 assurance 0.0476190
10 noemi 0.3333333
10 context 0.0625000
10 10 0.9189189
10 customary 0.0714286
10 . 0.0000532
10 handling 0.0909091
10 sense 0.0098039
10 poured 0.0526316
10 NULL 0.0003295
10 impending 0.2500000
10 definitely 0.0555556
10 miles 0.0294118
10 75 0.2500000
10 provides 0.0153846
10 awake 0.0303030
10 none 0.0500000
10 scrptr 0.0017783
pretend exposed 0.0588235
pretend more 0.0016722
pretend if 0.0011905
pretend NULL 0.0000122
pretend tainted 0.6666667
pretend or 0.0008150
pretend we 0.0004462
pretend veneer 0.2000000
pretend render 0.0526316
pretend counterfeit 0.2000000
pretend wearing 0.0714286
pretend deception 0.1111111
pretend love 0.0013441
pretend hypocritical 0.0833333
pretend hypocrisy 0.0952381
pretend unrepentant 0.0714286
pretend ones 0.0028169
pretend than 0.0025840
pretend selfishness 0.0555556
pretend impostors 0.2500000
pretend appeared 0.1000000
pretend hypocrites 0.1666667
pretend mask 0.2000000
pretend not 0.0004713
ice ice 0.5000000
ice swiftly 0.1000000
ice runs 0.1666667
ice god 0.0004762
ice hail 0.5000000
waterside over 0.0030395
waterside arid 0.5000000
waterside an 0.0011249
waterside region 0.0333333
waterside half 0.0384615
upper upper 0.3333333
upper NULL 0.0000122
upper bronx 0.1428571
farmworker pottery 0.3333333
farmworker petitioner 1.0000000
farmworker on 0.0005587
farmworker farmworker 0.3333333
farmworker plea 0.2857143
farmworker was 0.0004340
farmworker which 0.0030769
farmworker s 0.0003034
farmworker written 0.0133333
farmworker shard 1.0000000
pray joyful 0.0285714
pray opportunity 0.0119048
pray my 0.0013717
pray times 0.0044248
pray courageously 0.0666667
pray touch 0.0416667
pray through 0.0044643
pray NULL 0.0002685
pray meditate 0.0111111
pray prayerfully 0.2857143
pray consideration 0.0789474
pray years 0.0025974
pray for 0.0003124
pray seek 0.0434783
pray daily 0.0327869
pray hopefully 1.0000000
pray regularly 0.0104167
pray prayers 0.2325581
pray resolved 0.0416667
pray begged 0.1666667
pray prayer 0.3636364
pray guidance 0.0285714
pray regular 0.0135135
pray fervently 0.6666667
pray pray 0.5510204
pray bed 0.2000000
pray wanted 0.0082645
pray praying 0.5714286
pray especially 0.0129870
pray your 0.0009107
pray pleas 1.0000000
pray earnest 0.0967742
pray while 0.0053476
pray supplication 0.2000000
pray request 0.0909091
pray christian 0.0020080
pray brother 0.0036900
pray prayerful 0.2580645
pray make 0.0030960
pray respond 0.0135135
pray then 0.0024691
pray upon 0.0250000
pray concerning 0.1111111
pray remember 0.0063694
pray offers 0.0294118
pray relying 0.0833333
pray prayed 0.6410256
pray hope 0.0053763
pray approaching 0.0454545
pray looking 0.0256410
pray communication 0.0625000
pray approach 0.0769231
pray ask 0.0104167
pray heartfelt 0.0370370
pray creator 0.0153846
pray supper 0.5000000
pray concerns 0.0333333
pray asking 0.0294118
pray supplications 0.1111111
pray started 0.0121951
pray turned 0.0408163
pray speech 0.0392157
pray obligations 0.1666667
dakota dakota 1.0000000
nichols went 0.0099010
nichols into 0.0030211
nichols billie 0.5000000
nichols nichols 1.0000000
organisation rather 0.0066667
organisation instrument 0.5000000
organisation than 0.0025840
yearbook according 0.0136986
yearbook include 0.0138889
yearbook yearbook 0.6666667
yearbook commented 0.0769231
yearbook account 0.0144928
truth interested 0.0172414
truth casualty 0.2500000
truth precious 0.0144928
truth understandably 0.0588235
truth truths 0.2266667
truth endearing 0.5000000
truth teen 0.2500000
truth christians 0.0023981
truth however 0.0182371
truth though 0.0044444
truth honesty 0.0333333
truth granted 0.0512821
truth but 0.0009285
truth honestly 0.0769231
truth admittedly 0.1666667
truth sooner 0.0909091
truth aroused 0.1666667
truth ignorant 0.1666667
truth honesthearted 0.0909091
truth opposers 0.0454545
truth divine 0.0156250
truth honest 0.0238095
truth fact 0.1257143
truth no 0.0018797
truth true 0.0053619
truth others 0.0013928
truth faith 0.0017391
truth programs 0.1428571
truth beliefs 0.0400000
truth frankly 0.2500000
truth cherish 0.0454545
truth food 0.0081301
truth let 0.0034602
truth majority 0.0714286
truth changes 0.0163934
truth figure 0.5000000
truth properly 0.0400000
truth any 0.0045455
truth facts 0.0487805
truth taste 0.0666667
truth value 0.0222222
truth show 0.0042283
truth amazing 0.0588235
truth breadth 0.5000000
truth fear 0.0147059
truth trial 0.0238095
truth source 0.0200000
truth continue 0.0052083
truth stabilized 0.3333333
truth NULL 0.0004516
truth knowledge 0.0320513
truth really 0.0090090
truth accurate 0.0487805
truth testifying 0.1666667
truth has 0.0015152
truth course 0.0405904
truth guiding 0.0588235
truth wisdom 0.0048077
truth against 0.0051813
truth actual 0.0714286
truth vital 0.0204082
truth spiritual 0.0030769
truth truth 0.2176656
truth teachings 0.0263158
truth point 0.0098039
truth warrants 0.2000000
truth harvest 0.0769231
truth basic 0.0227273
truth actually 0.0357143
truth wavered 0.3333333
truth enrich 0.2000000
truth light 0.0166667
truth yes 0.0192308
truth admit 0.1000000
truth indeed 0.0559441
truth children 0.0027248
truth sincerity 0.1428571
truth doubt 0.0108696
truth survivor 1.0000000
truth contrary 0.1052632
truth four 0.0140845
truth loyally 0.0500000
truth empathy 0.0555556
truth embrace 0.1428571
truth pressures 0.0454545
hair your 0.0009107
hair wool 0.3333333
hair NULL 0.0000244
hair grooming 0.1304348
hair conversations 0.0333333
hair head 0.0192308
hair numbered 1.0000000
hair all 0.0009398
kyrgyz as 0.0004764
kyrgyz kyrgyz 0.5714286
kyrgyz their 0.0007072
kyrgyz mother 0.0071942
kyrgyz spoke 0.0158730
parkinson ’ 0.0002468
parkinson diagnosed 0.1428571
parkinson with 0.0004615
parkinson was 0.0004340
parkinson s 0.0003034
parkinson parkinson 0.3333333
peter proved 0.0181818
peter reminding 0.1666667
peter boat 0.0833333
peter him 0.0022989
peter two 0.0088889
peter in 0.0012420
peter did 0.0019685
peter reinforced 0.1250000
peter stumbled 0.0588235
peter urged 0.0163934
peter NULL 0.0000610
peter s 0.0033374
peter ’ 0.0002468
peter affected 0.0333333
peter saying 0.0108696
peter error 0.1250000
peter denial 0.1666667
peter rabbis 0.1428571
peter peter 0.8170732
peter toward 0.0086957
peter same 0.0095238
peter developed 0.0416667
peter alleys 0.2500000
peter , 0.0003818
peter outspoken 0.2500000
peter lost 0.0200000
peter spoke 0.0317460
peter illustrate 0.0135135
peter no 0.0018797
peter general 0.0322581
peter apostles 0.0260870
peter continued 0.0175439
peter the 0.0000699
peter judgment 0.0185185
4 fourth 0.0588235
4 baptisms 0.1000000
4 NULL 0.0004272
4 . 0.0003722
4 recall 0.0188679
4 9 0.0169492
4 read 0.0023866
4 pleased 0.0208333
4 those 0.0012330
4 4 0.7692308
4 unfaithful 0.2000000
4 eventually 0.0149254
4 impossible 0.0588235
4 distressful 0.0909091
4 symbolized 0.0833333
verde verde 1.0000000
1990 ’ 0.0009872
1990 1990 0.7000000
1990 s 0.0012136
naira well 0.0035336
naira over 0.0030395
naira $ 0.2500000
naira worth 0.0185185
chemical market 0.1428571
dominican dominican 1.0000000
felix who 0.0007610
felix trial 0.0238095
felix told 0.0056818
felix before 0.0032154
felix felix 0.3333333
graz boarding 0.2500000
graz graz 0.2222222
graz austria 0.1250000
leeward leeward 1.0000000
fortune fortune 0.5000000
select NULL 0.0000244
select pick 0.0833333
select method 0.0666667
select chosen 0.1200000
select more 0.0016722
select vessel 0.1666667
select witness 0.0082645
select choose 0.0298507
select bear 0.0142857
select selective 0.5000000
select forms 0.0526316
select associate 0.0303030
select systematic 0.2000000
select impartiality 0.1250000
select selected 0.3333333
select this 0.0007018
select showed 0.0097087
select mainly 0.1000000
select embark 0.5000000
select select 0.0909091
select generosity 0.0909091
select had 0.0009930
stones from 0.0006553
stones is 0.0003148
stones up 0.0021186
stones stones 0.1666667
stones raise 0.0588235
stones these 0.0021142
stones able 0.0080000
draw myself 0.0454545
draw there 0.0017730
draw friends 0.0094340
draw been 0.0020408
draw attract 0.1250000
draw self 0.0058480
draw close 0.0102041
draw drew 0.2173913
draw all 0.0009398
draw well 0.0035336
draw interest 0.0113636
draw saw 0.0200000
draw took 0.0076923
draw draw 0.0506329
draw has 0.0015152
draw NULL 0.0001098
draw keen 0.1428571
draw know 0.0036765
draw in 0.0001553
draw closer 0.0163934
draw lovable 0.2000000
draw personal 0.0046296
draw cannot 0.0060976
draw one 0.0009588
draw true 0.0026810
draw graham 0.1666667
draw find 0.0038462
draw get 0.0048309
draw associate 0.0606061
draw that 0.0001938
draw pull 1.0000000
draw drawn 0.1034483
draw tasted 0.0714286
draw when 0.0007321
draw tattooed 0.3333333
draw way 0.0021097
draw christians 0.0023981
draw representations 0.3333333
draw - 0.0009132
draw closely 0.0400000
draw push 0.1250000
draw sacrificing 0.0416667
draw take 0.0028011
draw fortifies 0.1666667
draw spirit 0.0026110
mature sometimes 0.0120482
mature related 0.0192308
mature be 0.0004322
mature age 0.0120482
mature reasonably 0.0714286
mature already 0.0158730
mature spiritually 0.0103093
mature scold 1.0000000
mature starts 0.1428571
mature respects 0.1250000
mature developed 0.0416667
mature toward 0.0260870
mature sound 0.0487805
mature mature 0.1379310
mature advance 0.0400000
mature measure 0.0322581
mature courage 0.0143885
mature may 0.0011416
mature an 0.0011249
mature off 0.0121951
mature needs 0.0105263
mature maturity 0.3125000
mature NULL 0.0000122
mature disciple 0.0166667
mature progress 0.0240964
mature immature 0.3333333
mature advisable 1.0000000
mature older 0.0684932
local otherwise 0.0384615
local design 0.2000000
local local 0.0181818
news ministers 0.0434783
news urgency 0.0909091
news elements 0.1666667
news witness 0.0165289
news endurance 0.0161290
news scope 0.0555556
news highlights 0.0714286
news has 0.0015152
news governmental 0.2000000
news neighbors 0.0434783
news reached 0.0384615
news outcome 0.0454545
news news 0.3559322
news widespread 0.0952381
news listening 0.0357143
news farthest 1.0000000
news story 0.0068027
news NULL 0.0001953
news ruler 0.0434783
news heartfelt 0.0185185
news result 0.0133333
news message 0.0723684
news today 0.0034965
news the 0.0000699
news crewmates 0.5000000
news respect 0.0087719
news preaching 0.0049751
news initially 0.0357143
news media 0.0714286
news general 0.0322581
news faith 0.0017391
news authorities 0.0312500
news complimenting 0.2500000
news kingdom 0.0096386
news mercy 0.0108696
news reports 0.0416667
news given 0.0065789
news comforting 0.0222222
news entails 0.1000000
news organizations 0.0192308
news peaceful 0.0454545
news or 0.0016300
news fulfillment 0.0277778
news reporters 0.1428571
news overseeing 0.2500000
stretch grasp 0.0285714
stretch stretching 0.1428571
stretch something 0.0091743
ways between 0.0117647
ways similarities 0.5000000
ways are 0.0005875
boy ​ 0.0005679
boy NULL 0.0000244
boy eyewitnesses 0.1428571
boy consider 0.0016181
boy boy 0.5000000
boy brought 0.0138889
boy shunem 0.1250000
boy denmark 0.1111111
boy kept 0.0094340
boy child 0.0196078
boy ” 0.0002850
boy along 0.0158730
boy corpse 0.2000000
boy grasping 0.1250000
boy son 0.0055866
boy villagers 0.1000000
guard jailer 0.2272727
guard guard 0.0857143
guard had 0.0009930
guard relate 0.0303030
treatment appointment 0.5000000
treatment received 0.0102041
treatment chemotherapy 0.5000000
treatment medical 0.1538462
treatment patients 0.1666667
treatment treatment 0.0588235
treatment NULL 0.0000122
sokuluk near 0.0212766
sokuluk sokuluk 0.3333333
w16.07 w16.07 0.5000000
erie hats 0.2000000
erie feathered 0.3333333
domot threshold 0.3333333
noise train 0.0217391
noise noise 0.5000000
noise busy 0.0333333
noise notice 0.0238095
noise longer 0.0129870
noise station 0.2000000
noise newspapers 0.2500000
job principles 0.0044444
job trial 0.0476190
job did 0.0019685
job NULL 0.0000488
job faithfulness 0.0689655
job pattern 0.0500000
job elevate 0.2500000
job took 0.0076923
job patriarch 0.1111111
job into 0.0060423
job under 0.0116279
job marital 0.0555556
job invisible 0.0769231
job claim 0.0370370
job was 0.0004340
job use 0.0046296
job scrptr 0.0005928
job cruel 0.0555556
job dig 0.1428571
job straightforward 1.0000000
job leading 0.0294118
job searched 0.1111111
job acquired 0.2000000
job integrity 0.0487805
job thoughts 0.0166667
job counsel 0.0071942
job godly 0.0107527
job insults 0.3333333
job attacked 0.1428571
job had 0.0029791
job launched 0.5000000
job outstanding 0.0270270
job afflict 1.0000000
job truthfully 0.1666667
job word 0.0024510
job he 0.0033445
job s 0.0015170
job contrasting 0.2500000
job ’ 0.0017275
job accused 0.0555556
job depths 0.1250000
job wealthy 0.0769231
job ; 0.0019417
job deeply 0.0400000
job spoke 0.0158730
job man 0.0066225
job ? 0.0002765
job threw 0.1111111
job book 0.0125000
job job 0.6714286
job such 0.0029369
job personally 0.0188679
job asking 0.0294118
job adhere 1.0000000
job union 0.0588235
job experience 0.0054348
job god 0.0004762
job the 0.0001398
job regain 0.0714286
job challenges 0.0097087
job gain 0.0112360
job insight 0.0333333
days stressful 0.1000000
days later 0.0038911
days national 0.0666667
days additional 0.0526316
days ancient 0.1604938
days failing 0.0714286
days tangible 1.0000000
days end 0.0138889
days provide 0.0082645
days published 0.0370370
days gone 0.0416667
days days 0.5346535
days admittedly 0.1666667
days mornings 1.0000000
days very 0.0039216
days anywhere 0.1111111
days reveals 0.0454545
days considerable 0.0769231
days reasons 0.0178571
days is 0.0006295
days times 0.0265487
days sunny 0.5000000
days 18th 0.2500000
days evidence 0.0106383
days time 0.0015015
days live 0.0062500
days aboriginal 0.2500000
days NULL 0.0001709
days keen 0.1428571
66 passed 0.0454545
66 showed 0.0097087
66 66 0.1666667
66 away 0.0074627
66 remorse 0.2000000
klaus klaus 0.5000000
flag the 0.0002097
flag salute 0.5000000
flag flag 0.7142857
flag hebrews 0.1428571
flag image 0.0434783
gold nugget 0.2727273
gold valuable 0.0158730
gold NULL 0.0000488
gold nuggets 0.0909091
gold found 0.0050505
gold smaller 0.1000000
gold find 0.0076923
gold much 0.0045872
gold speak 0.0106383
gold gold 0.6444444
gold concentrations 0.3333333
gold divine 0.0156250
gold worth 0.0370370
gold prospector 0.2727273
gold gemstones 0.1666667
gold scriptural 0.0086207
gold as 0.0004764
gold better 0.0090090
challenge challenge 0.0163934
challenge resist 0.0333333
fit cooperate 0.0952381
fit able 0.4000000
fit discreet 0.1320755
fit dangerous 0.0967742
fit fosters 0.2000000
fit unqualified 0.1666667
fit occasionally 0.1538462
fit motivate 0.0500000
fit overcome 0.0289855
fit pleases 0.1111111
fit striving 0.1176471
fit unfruitful 0.2500000
fit victim 0.0833333
fit uses 0.0185185
fit requests 0.0909091
fit indications 0.1111111
fit done 0.0117647
fit beyond 0.0675676
fit rituals 0.2500000
fit unexpected 0.0333333
fit disappointing 0.1111111
fit supporters 0.1111111
fit evidently 0.0909091
fit prevents 0.2500000
fit induce 0.2857143
fit limitation 0.3333333
fit fill 0.0416667
fit surpasses 0.0689655
fit enter 0.0400000
fit sets 0.2666667
fit easily 0.0645161
fit uproot 0.2222222
fit features 0.2000000
fit deity 0.1000000
fit benefit 0.0631579
fit use 0.0324074
fit tugs 0.5000000
fit established 0.0434783
fit theocratic 0.0363636
fit counter 0.3333333
fit about 0.0043908
fit consequences 0.0317460
fit interchange 1.0000000
fit for 0.0024992
fit include 0.0138889
fit conquest 0.5000000
fit alcoholic 0.2000000
fit unlocked 0.1666667
fit arise 0.0434783
fit cubit 0.2500000
fit pure 0.0454545
fit abusing 0.2000000
fit doubt 0.0326087
fit anyway 0.1666667
fit died 0.0126582
fit tested 0.0303030
fit deprive 0.0833333
fit harms 0.1111111
fit refuge 0.0423729
fit childlessness 0.2000000
fit amazingly 0.1111111
fit grounds 0.1428571
fit english 0.0357143
fit spiritual 0.0076923
fit consider 0.0113269
fit property 0.0869565
fit foregoing 0.0833333
fit blended 0.2500000
fit basic 0.0227273
fit understandable 0.0833333
fit glorious 0.0714286
fit offer 0.1000000
fit a 0.0008361
fit hoped 0.0526316
fit causes 0.1428571
fit persuasion 0.2500000
fit maybe 0.4285714
fit qualify 0.0769231
fit prohibitive 0.2500000
fit reason 0.0136986
fit position 0.0526316
fit fruitless 0.1666667
fit invite 0.0555556
fit may 0.4497717
fit imagination 0.0625000
fit literal 0.0625000
fit effectively 0.1052632
fit treasures 0.0303030
fit emotional 0.0370370
fit designs 0.0666667
fit hardly 0.1333333
fit forgives 0.2000000
fit dreams 0.5000000
fit circumstances 0.0990099
fit skip 0.3333333
fit power 0.0866142
fit raising 0.0625000
fit males 0.2000000
fit learn 0.0217391
fit stigma 0.1111111
fit move 0.0636364
fit course 0.0147601
fit reconsideration 0.2000000
fit healing 0.1428571
fit lose 0.0192308
fit defeat 0.0476190
fit basis 0.0208333
fit breath 0.1666667
fit play 0.0740741
fit to 0.0311729
fit badly 0.0833333
fit not 0.0009425
fit fitted 0.2000000
fit examples 0.0062112
fit nor 0.0153846
fit psychological 0.2000000
fit dollars 0.0909091
fit accomplished 0.0322581
fit functions 0.0769231
fit override 0.2500000
fit lead 0.0303030
fit covering 0.5000000
fit qualified 0.1176471
fit even 0.0174520
fit hinders 0.2500000
fit lining 0.1111111
fit often 0.0104167
fit generation 0.1000000
fit endure 0.0431034
fit offers 0.0294118
fit unlimited 0.0909091
fit mandated 1.0000000
fit posting 0.1666667
fit cannot 0.2926829
fit extract 0.3333333
fit having 0.0057143
fit result 0.0088889
fit looks 0.1333333
fit 1800 0.1111111
fit suicide 0.0833333
fit deal 0.0581395
fit bedridden 0.2000000
fit arises 0.1111111
fit reassure 0.0625000
fit slope 1.0000000
fit urge 0.0909091
fit fight 0.0181818
fit making 0.0150754
fit lean 0.1666667
fit limitations 0.1320755
fit control 0.0817610
fit NULL 0.0087390
fit possibility 0.1250000
fit careful 0.0303030
fit solve 0.0555556
fit distrust 0.2500000
fit sing 0.0357143
fit promote 0.0357143
fit seat 0.1666667
fit conserve 0.3333333
fit entrust 0.1818182
fit prolonged 0.3333333
fit instructors 0.0526316
fit hinder 0.0625000
fit be 0.0903198
fit might 0.5530547
fit irrelevant 0.2000000
fit probably 0.2173913
fit appoint 0.1250000
fit cowed 0.2500000
fit stress 0.1176471
fit support 0.0121212
fit we 0.0008925
fit everlasting 0.0175439
fit prevent 0.1600000
fit devote 0.1250000
fit accumulates 0.3333333
fit enjoys 0.1818182
fit appropriate 0.0555556
fit transfer 0.2307692
fit expand 0.1200000
fit gain 0.0898876
fit slaved 0.3333333
fit egyptian 0.1250000
fit apt 0.2000000
fit likely 0.2537313
fit adequately 0.5000000
fit parental 0.0555556
fit responsible 0.0344828
fit without 0.0136986
fit acquire 0.0555556
fit pale 0.2500000
fit affects 0.1111111
fit face 0.0397727
fit painful 0.0476190
fit joyful 0.0285714
fit complete 0.0160000
fit single 0.0322581
fit injure 0.2500000
fit street 0.0434783
fit future 0.0061728
fit absorbs 0.2500000
fit try 0.0326087
fit keys 0.1250000
fit best 0.0797546
fit measures 0.1250000
fit highlight 0.0588235
fit begin 0.0789474
fit us 0.0011554
fit stumbling 0.1250000
fit failing 0.0714286
fit some 0.0168472
fit inadequate 0.2857143
fit productivity 1.0000000
fit seeing 0.0555556
fit win 0.0625000
fit possesses 0.2000000
fit potential 0.3125000
fit heave 1.0000000
fit possibly 0.2142857
fit is 0.0097576
fit outlook 0.1666667
fit capacity 0.3333333
fit or 0.0252649
fit serge 0.2500000
fit frustrate 0.2500000
fit good 0.0035587
fit fulfill 0.0909091
fit share 0.0952381
fit so 0.0009294
fit minimum 0.1428571
fit fund 0.1666667
fit risky 0.2500000
fit residents 0.1111111
fit consistent 0.0769231
fit exclusively 0.2500000
fit vans 0.2500000
fit that 0.0003877
fit weaknesses 0.0256410
fit commenting 0.0833333
fit stands 0.1818182
fit inherit 0.0370370
fit unable 0.0833333
fit well 0.0035336
fit possible 0.3046875
fit of 0.0010246
fit in 0.0006210
fit trustworthy 0.2000000
fit say 0.0113636
fit loud 0.0769231
fit does 0.0096154
fit ability 0.2380952
fit effective 0.0181818
fit nazirite 0.1666667
fit planning 0.0833333
fit propaganda 0.1212121
fit certain 0.0235294
fit strive 0.0298507
fit barren 0.1250000
fit intentional 0.1666667
fit emotionally 0.0400000
fit dominate 0.2857143
fit safety 0.0800000
fit presumably 0.2500000
fit limit 0.0666667
fit efforts 0.0224719
fit provide 0.0578512
fit too 0.0516129
fit preservation 0.3333333
fit subtle 0.1666667
fit losing 0.0526316
fit makes 0.0190476
fit break 0.1481481
fit rely 0.0222222
fit takes 0.0169492
fit lasting 0.0188679
fit conduct 0.0259740
fit could 0.4065934
fit sense 0.0392157
fit danger 0.0571429
fit connect 0.5000000
fit physical 0.0500000
fit contagious 0.2500000
fit expended 0.1250000
fit rhythms 0.5000000
fit risk 0.3571429
fit saved 0.1538462
fit securities 0.1666667
fit bring 0.0560000
fit dam 0.3333333
fit should 0.0152284
fit unlovable 0.5000000
fit preserving 0.2000000
fit contempt 0.1666667
fit citizenship 0.2000000
fit strictly 1.0000000
fit apparently 0.2500000
fit valuable 0.0158730
fit disagreements 0.2000000
fit access 0.0555556
fit need 0.0018939
fit help 0.0372960
fit contained 0.1428571
fit give 0.0163934
fit principle 0.0185185
fit promoted 0.0555556
fit paraguay 0.1666667
fit discerned 0.3333333
fit fear 0.0441176
fit oaths 0.0909091
fit lingua 0.5000000
fit more 0.0117057
fit impatient 0.1666667
fit rule 0.0405405
fit problem 0.0208333
fit abilities 0.0638298
fit iud 0.1250000
fit psalms 0.3333333
fit become 0.0306513
fit accomplishing 0.0714286
fit are 0.0276146
fit signs 0.1000000
fit divide 0.1052632
fit it 0.0048387
fit returning 0.1176471
fit suggestions 0.0571429
fit conscience 0.0270270
fit alternate 0.1111111
fit flagrant 0.5000000
fit institutions 0.1666667
fit christian 0.0060241
fit comfort 0.0052083
fit voice 0.0606061
fit accept 0.0319149
fit refreshments 0.1764706
fit rejuvenate 0.1666667
fit fitting 0.0800000
fit acting 0.0714286
fit steps 0.0172414
fit absolute 0.0434783
fit happen 0.0370370
fit eliminated 0.5000000
fit unfaithfulness 0.0909091
fit approaching 0.0909091
fit beautiful 0.0263158
fit take 0.0084034
fit coins 0.1666667
fit concern 0.0200000
fit grapple 0.2000000
fit lifesaving 0.0555556
fit absolutely 0.0333333
fit unwanted 0.2500000
fit dangers 0.0588235
fit utmost 0.2666667
fit make 0.0603715
fit fanatic 0.2000000
fit rust 0.6000000
fit pursue 0.0487805
fit feel 0.0173410
fit undesirable 0.1666667
fit infinite 0.2000000
fit interests 0.0123457
fit hiding 0.1000000
fit sustain 0.0833333
fit diverting 1.0000000
fit fatal 0.3333333
fit get 0.0144928
fit resist 0.0333333
fit fertilization 0.1111111
fit farmer 0.1250000
fit potentially 0.0833333
fit landscape 0.3333333
fit implications 0.1428571
fit this 0.0007018
fit bringing 0.0625000
fit presents 0.1111111
fit principles 0.0844444
fit helps 0.0480769
fit imitating 0.0454545
fit regard 0.0200000
fit own 0.0143885
fit incomparable 0.2222222
fit undo 0.1666667
fit thinks 0.0909091
fit practical 0.0504202
fit have 0.0426336
fit succeed 0.0263158
fit caught 0.0714286
fit you 0.0035367
fit traits 0.0370370
fit distinct 0.2222222
fit positive 0.0769231
fit appointment 0.1666667
fit oversaw 0.3333333
fit short 0.1219512
fit getting 0.0196078
fit ministry 0.0035587
fit want 0.0043668
fit unbreakable 0.2500000
fit start 0.0263158
fit falter 0.1666667
fit reachable 0.1428571
fit perhaps 0.2571429
fit do 0.0210112
fit assist 0.0588235
fit success 0.0476190
fit worst 0.3333333
fit challenge 0.0163934
fit find 0.0346154
fit unreal 0.1666667
fit journey 0.0800000
fit rival 0.1000000
fit lesson 0.0470588
fit draw 0.0253165
fit submit 0.1250000
fit can 0.3677783
fit into 0.0151057
fit brings 0.0208333
fit confront 0.2000000
fit loosening 0.2500000
fit cash 0.3333333
fit ways 0.0248756
fit impress 0.0526316
fit provides 0.0153846
fit respiratory 0.2500000
fit obtain 0.0769231
fit roof 0.1111111
fit suggests 0.1250000
fit breaks 0.2500000
fit reach 0.1052632
fit enough 0.0256410
fit allows 0.1200000
fit effort 0.0366972
fit would 0.0327696
fit your 0.0018215
fit will 0.0268692
fit mates 0.0526316
fit smile 0.0416667
fit unemployment 0.1666667
pavel were 0.0009699
pavel born 0.0200000
pavel pavel 1.0000000
wilderness wilderness 0.4117647
92 92 1.0000000
alabama alabama 1.0000000
ministry attend 0.0144928
ministry ministry 0.0427046
short very 0.0039216
short ours 0.1000000
short talks 0.0454545
short effects 0.1666667
short soon 0.0136986
short short 0.0975610
short reflect 0.0102041
short thereafter 0.0277778
short shorter 1.0000000
short our 0.0004398
short positive 0.0192308
short love 0.0013441
short an 0.0011249
short easy 0.0136986
short span 0.5000000
short bald 1.0000000
short genuine 0.0185185
short fact 0.0171429
short few 0.0090090
2003 in 0.0001553
2003 2003 0.5000000
way expressions 0.0400000
way aspect 0.0333333
way added 0.0147059
way expectations 0.0625000
way distinction 0.1250000
way experienced 0.0116279
way mabel 0.5000000
way franz 0.0714286
way upright 0.1111111
way upbringing 0.1052632
way moabitess 0.1250000
way comments 0.0250000
way faultlessly 0.3333333
way step 0.0303030
way impressed 0.0344828
way how 0.0023460
way avenues 0.1428571
way imitation 0.0666667
way attending 0.0125000
way personal 0.0046296
way work 0.0018657
way worship 0.0039841
way disposition 0.0526316
way reminds 0.0588235
way arrangement 0.0166667
way concerns 0.0333333
way method 0.1333333
way examining 0.1666667
way corinth 0.0243902
way fate 1.0000000
way just 0.0098039
way dominant 0.1250000
way particularly 0.0434783
way overwhelming 0.0434783
way source 0.0200000
way organizational 0.0833333
way order 0.0064516
way end 0.0138889
way examples 0.0062112
way readjusted 0.2500000
way problem 0.0208333
way why 0.0012240
way view 0.0049261
way adjustment 0.1666667
way initiative 0.1428571
way suggestions 0.0571429
way noting 0.1666667
way commands 0.0555556
way deep 0.0312500
way among 0.0054054
way transform 0.1666667
way according 0.0273973
way demonstration 0.0769231
way always 0.0059524
way uses 0.0370370
way moments 0.0666667
way cooperation 0.2000000
way staff 0.1428571
way boaz 0.1111111
way progress 0.0120482
way kindnesses 0.1666667
way equal 0.1000000
way sustaining 0.5000000
way purity 0.1250000
way injustice 0.0104167
way antonio 0.0769231
way greedy 0.3333333
way by 0.0027082
way lift 0.1250000
way mannerisms 0.3333333
way handsome 0.5000000
way characterize 0.2500000
way weaknesses 0.0256410
way of 0.0020492
way moon 0.5000000
way main 0.0333333
way affect 0.0246914
way merchant 0.0833333
way knowledge 0.0064103
way does 0.0064103
way improve 0.0535714
way about 0.0032931
way amazingly 0.1111111
way resolved 0.0416667
way steadfast 0.1250000
way admonition 0.1153846
way guidance 0.0285714
way renderings 0.2500000
way tack 0.3333333
way acceptably 0.2000000
way point 0.0098039
way decided 0.0144928
way hospitality 0.0093458
way adjusted 0.1428571
way guide 0.0625000
way given 0.0065789
way way 0.1202532
way preteen 0.2000000
way matters 0.0089286
way victims 0.0666667
way anatomy 0.1428571
way support 0.0060606
way taste 0.0666667
way riveting 0.5000000
way respect 0.0087719
way differs 0.1000000
way do 0.0006566
way one 0.0009588
way true 0.0053619
way job 0.0071429
way from 0.0006553
way correct 0.0322581
way principal 0.0666667
way my 0.0013717
way display 0.0384615
way large 0.0425532
way planets 0.1666667
way ways 0.1492537
way answers 0.0196078
way universe 0.0222222
way expression 0.0344828
way thinking 0.0104167
way highlight 0.0588235
way doctrinal 0.2000000
way integral 0.2500000
way plants 0.1428571
way unfailing 0.3333333
way rendering 0.0312500
way approval 0.0200000
way your 0.0009107
way much 0.0091743
way very 0.0039216
way revised 0.2500000
way deceptive 0.0769231
way trained 0.0606061
way state 0.0243902
way as 0.0080991
way deeper 0.1666667
way unmatched 0.2000000
way worthily 0.3333333
way standards 0.0100000
way solomon 0.0204082
way than 0.0051680
way brochure 0.0714286
way viewpoint 0.0769231
way ineffective 0.2000000
way methods 0.2068966
way meaning 0.0416667
way impartial 0.2000000
way negative 0.0400000
way legionnaires 0.2000000
way shows 0.0142857
way important 0.0071174
way baptized 0.0125786
way experiences 0.0188679
way walk 0.0454545
way example 0.0068493
way NULL 0.0014524
way stand 0.0140845
way an 0.0011249
way powerful 0.0416667
way gives 0.0092593
way instinct 0.2000000
way heartache 0.1428571
way own 0.0035971
way polluted 0.3333333
way exists 0.0588235
way elevated 0.2000000
way loving 0.0074074
way spontaneous 0.5000000
way opportunities 0.0400000
way nighttime 0.1000000
soviet soviet 0.6666667
soviet western 0.1428571
lansing lansing 1.0000000
boys were 0.0009699
boys NULL 0.0000122
boys boys 0.4000000
boys bigots 0.2500000
new adjustment 0.1666667
new borough 0.2000000
new exotic 0.5000000
new discovery 0.2500000
new developments 0.0833333
new newer 0.5000000
new greatest 0.0178571
new renamed 0.2000000
new relatively 0.0714286
new yours 0.0769231
new paradise 0.0243902
new ones 0.0056338
new formed 0.1304348
new uncommon 0.2500000
new joyfully 0.0769231
new baseball 0.1666667
new translations 0.1250000
new terrible 0.0666667
new theocratic 0.0181818
new recognized 0.0454545
new local 0.0545455
new newly 0.2173913
new NULL 0.0003906
new covered 0.0555556
new do 0.0006566
new transition 0.1000000
new prompted 0.0588235
new change 0.0123457
new bigger 0.2000000
new fit 0.1428571
new sprang 0.1666667
new 2001 0.0833333
new assignment 0.0425532
new quicker 0.1428571
new a 0.0031773
new reward 0.0188679
new new 0.5528701
new golden 0.0625000
new foreign 0.0202020
new apprehensive 0.1111111
new celebrations 0.0909091
new adjusted 0.0952381
new coming 0.0172414
new fresh 0.3333333
new adjust 0.0857143
new several 0.0156250
new 2,000 0.0909091
new someone 0.0086957
new understandably 0.0588235
new newcomers 0.0333333
new concessions 0.2000000
new small 0.0142857
new relevant 0.0833333
new make 0.0077399
new common 0.0163934
new were 0.0009699
jennifer she 0.0017606
jennifer after 0.0024938
jennifer canceled 0.1250000
jennifer one 0.0009588
jennifer got 0.0106383
jennifer jennifer 0.5000000
jennifer flight 0.2500000
jennifer another 0.0033670
agag disobedient 0.0909091
agag showed 0.0097087
agag what 0.0004456
agag he 0.0008361
agag felt 0.0069930
agag have 0.0005397
agag when 0.0007321
agag may 0.0011416
89 89 0.7500000
89 135 0.3333333
reign fashions 0.2500000
reign automobile 0.2500000
reign latest 0.3333333
reign expensive 0.1111111
kiana perspective 0.0476190
kiana kiana 0.2000000
coat coat 0.3333333
coat ’ 0.0002468
coat pocket 0.1428571
coat s 0.0003034
coat into 0.0030211
hot admits 0.0434783
hot NULL 0.0000488
hot blazing 0.5000000
hot rage 0.1428571
hot an 0.0011249
hot then 0.0024691
hot humid 0.5000000
hot door 0.0263158
hot hot 0.4444444
hot raging 0.5000000
hot influenced 0.0303030
hot it 0.0005376
hot summer 0.1250000
hot aggressive 0.1000000
hot judgment 0.0185185
hot climates 0.2000000
hot background 0.0243902
hot embers 0.4000000
hot she 0.0017606
hot and 0.0004145
tablet instances 0.1250000
tablet NULL 0.0000122
you contender 0.1111111
you exercise 0.0400000
you tenderhearted 0.3333333
you why 0.0134639
you respected 0.0625000
you are 0.0546416
you bus 0.0937500
you ! 0.0026954
you combat 0.0625000
you it 0.0053763
you lord 0.0161290
you overlook 0.0714286
you friction 0.5000000
you actually 0.0178571
you unnecessary 0.0800000
you plan 0.0714286
you teach 0.0192308
you attached 0.2500000
you crime 0.0416667
you revenge 0.3333333
you resource 0.3333333
you has 0.0015152
you turn 0.0121951
you determined 0.0707071
you help 0.0093240
you restraining 0.2500000
you seek 0.0144928
you permitting 0.2000000
you advantages 0.0454545
you live 0.0125000
you comes 0.0128205
you continue 0.0104167
you meditate 0.0333333
you play 0.0370370
you zedekiah 0.0666667
you ‛ 0.1250000
you reaction 0.0344828
you errors 0.1111111
you uncontrolled 0.1666667
you dealing 0.0400000
you how 0.0023460
you personal 0.0370370
you visitor 0.0833333
you heartwarming 0.1666667
you teased 0.4000000
you comparison 0.0454545
you exalted 0.1666667
you education 0.0163934
you keep 0.0071770
you opens 0.0625000
you personally 0.1320755
you they 0.0019157
you requires 0.0434783
you appeal 0.0952381
you putting 0.0243902
you soothed 0.2500000
you dejected 0.1666667
you details 0.0434783
you endeavor 0.0714286
you advisers 0.1428571
you drawn 0.0689655
you rely 0.0444444
you pressure 0.0377358
you could 0.0141287
you oneself 0.5000000
you rests 0.3333333
you someone 0.0173913
you location 0.0714286
you experienced 0.0232558
you may 0.0102740
you then 0.0271605
you covers 0.3333333
you exhortation 0.1818182
you compare 0.0476190
you surely 0.0634921
you doubt 0.0108696
you refreshing 0.1428571
you goals 0.0333333
you guidance 0.0285714
you deposits 0.5000000
you trigger 0.1666667
you vow 0.0588235
you entitled 0.0769231
you commendable 0.1111111
you prescribes 0.3333333
you condemn 0.1000000
you drained 0.5000000
you ill 0.0833333
you uphold 0.0400000
you selected 0.1111111
you thoughtless 1.0000000
you believing 0.0500000
you yourself 0.3235294
you knowing 0.0428571
you adulthood 0.1333333
you ever 0.0458716
you say 0.0056818
you blessing 0.0336134
you fond 0.5000000
you rejoice 0.0370370
you listening 0.0714286
you delightful 0.0769231
you calls 0.0357143
you involved 0.0098039
you accurate 0.0487805
you arise 0.0217391
you ability 0.0158730
you recall 0.0188679
you requests 0.0909091
you quiet 0.0833333
you unexpected 0.0333333
you offended 0.0500000
you lovable 0.2000000
you ask 0.0156250
you ridicule 0.2142857
you blessings 0.0065359
you supporters 0.1111111
you complaint 0.1428571
you centering 0.1428571
you convey 0.1250000
you strength 0.0500000
you past 0.0125000
you think 0.0267857
you reminding 0.1666667
you lightly 0.0666667
you jw.org 0.0697674
you alive 0.0294118
you worries 0.0625000
you motivate 0.1500000
you crash 0.2500000
you discipline 0.0253165
you share 0.0204082
you nuggets 0.1818182
you skirt 0.5000000
you if 0.0261905
you situation 0.0208333
you listener 0.5000000
you die 0.0238095
you challenging 0.0181818
you imagine 0.0612245
you wonderful 0.0263158
you involve 0.0322581
you uneasiness 0.5000000
you pray 0.0408163
you angels 0.0156250
you day 0.0070671
you stumbling 0.0625000
you effort 0.0275229
you goal 0.0736842
you would 0.0433404
you will 0.0087617
you your 0.2650273
you thankful 0.0357143
you despised 0.3333333
you smile 0.0833333
you each 0.0048544
you unbeliever 0.1111111
you caregivers 0.1666667
you into 0.0030211
you beg 0.1428571
you background 0.0487805
you fester 0.2000000
you can 0.0136214
you approachable 0.0769231
you valid 0.0555556
you glorified 0.0625000
you faithfulness 0.0344828
you confidence 0.0186916
you evil 0.0967742
you one 0.0057526
you long 0.0108108
you do 0.0774787
you appreciation 0.0095238
you remain 0.0227273
you taste 0.0666667
you wholehearted 0.0370370
you realistic 0.1250000
you realm 0.2500000
you key 0.0204082
you find 0.0307692
you responsible 0.0344828
you whose 0.0153846
you composure 0.2000000
you forgiveness 0.0526316
you elaborate 0.0476190
you like 0.0028329
you probably 0.0434783
you whereas 0.1250000
you courage 0.0287770
you unwillingness 0.1250000
you nehemiah 0.0434783
you divinely 0.0833333
you might 0.0096463
you hospitality 0.0093458
you outstanding 0.0270270
you yet 0.0038314
you discernment 0.1428571
you sakura 0.0909091
you offering 0.0270270
you prayerful 0.0645161
you politely 1.0000000
you perhaps 0.0357143
you joining 0.2500000
you responding 0.3333333
you relevant 0.0833333
you earns 0.2000000
you plans 0.0238095
you own 0.0107914
you mind 0.0043668
you prospectors 0.5000000
you you 0.7020336
you patiently 0.0161290
you unworthy 0.1111111
you pause 0.2000000
you have 0.0167296
you religiously 0.0714286
you verses 0.0312500
you entrust 0.1818182
you ratio 0.2000000
you opportunities 0.0600000
you gratefully 0.1111111
you highlighted 0.1333333
you suggesting 0.2000000
you be 0.0038894
you richly 0.2000000
you peer 0.0555556
you recommend 0.0869565
you glance 0.1250000
you jan 0.1111111
you fret 0.3333333
you reflect 0.0204082
you forbade 0.2000000
you easier 0.0975610
you showing 0.0363636
you individual 0.0208333
you optional 0.1111111
you patient 0.0338983
you making 0.0050251
you petitions 0.0909091
you impelled 0.2000000
you NULL 0.0097398
you applying 0.0784314
you lofty 0.1428571
you information 0.0377358
you riverbank 0.2500000
you notice 0.0238095
you person 0.0075188
you feel 0.0144509
you brochure 0.0714286
you pride 0.0121951
you replenish 0.2500000
you intricacies 1.0000000
you interests 0.0123457
you unloving 0.2222222
you disputes 0.0434783
you deceived 0.0714286
you accompanying 0.1111111
you enjoyment 0.0476190
you overreacting 0.3333333
you voice 0.0303030
you rewards 0.0222222
you deeper 0.1666667
you hug 0.1250000
you as 0.0028585
you practicing 0.0909091
you last 0.0106383
you take 0.0056022
you yield 0.0769231
you sickbed 0.2500000
you teaching 0.0291971
you wondered 0.0555556
you forms 0.0526316
you realizing 0.1666667
you apart 0.0476190
you make 0.0030960
you remember 0.0382166
olympus olympus 0.2000000
19 event 0.0270270
19 similarly 0.0097087
19 describes 0.0312500
19 desperate 0.1111111
19 lesson 0.0117647
19 19 0.9833333
19 transferred 0.0588235
19 . 0.0001063
19 unworthiness 0.1111111
19 wifely 0.2000000
19 teenager 0.1176471
19 teenagers 0.0909091
19 attend 0.0144928
19 then 0.0024691
19 esteemed 0.2500000
19 NULL 0.0002807
19 command 0.0144928
19 uzziah 0.0714286
wave be 0.0004322
wave wave 1.0000000
wave as 0.0004764
wave may 0.0011416
wave able 0.0080000
theirself reactions 0.3333333
theirself each 0.0242718
theirself rulership 0.0370370
theirself advancement 0.0500000
theirself struggle 0.0222222
theirself of 0.0001281
theirself filled 0.0270270
theirself segregation 0.2000000
theirself humbled 0.0769231
theirself gratification 1.0000000
theirself tend 0.0454545
theirself earth 0.0042735
theirself protection 0.0350877
theirself chairmanship 0.2000000
theirself concerned 0.0500000
theirself NULL 0.0003173
theirself themselves 0.2189781
theirself taken 0.0172414
theirself control 0.0691824
theirself other 0.0194175
theirself examples 0.0124224
theirself financially 0.1111111
theirself lovers 0.0869565
theirself own 0.0179856
theirself mind 0.0043668
theirself view 0.0049261
theirself exclusive 0.0416667
theirself divides 0.1428571
theirself garden 0.0833333
theirself ones 0.0028169
theirself loving 0.0074074
theirself their 0.0084866
theirself privately 0.2000000
theirself recounted 0.2500000
theirself rightfulness 0.1111111
theirself self 0.0292398
theirself associated 0.0526316
theirself bad 0.0087719
theirself among 0.0108108
theirself guesswork 0.5000000
theirself weakens 0.2500000
theirself comfort 0.0052083
theirself peacefully 0.1428571
theirself reason 0.0068493
theirself selfish 0.1136364
theirself - 0.0018265
theirself good 0.0035587
theirself reaped 0.1666667
theirself submission 0.0769231
theirself claiming 0.1000000
theirself results 0.0158730
theirself despair 0.2500000
theirself qualities 0.0052083
theirself appropriate 0.0138889
theirself experience 0.0054348
theirself selfishness 0.1111111
theirself human 0.0068027
theirself action 0.0128205
theirself another 0.0067340
theirself anxious 0.0256410
theirself settled 0.0909091
theirself serving 0.0051813
theirself learn 0.0036232
theirself freely 0.0303030
theirself wash 0.2500000
theirself determination 0.0370370
theirself ethnic 0.0769231
theirself from 0.0006553
theirself court 0.0384615
sirach sirach 0.5000000
3,700 over 0.0030395
3,700 3,700 1.0000000
111 111 0.5000000
romania romania 1.0000000
shares stocks 0.1111111
shares NULL 0.0000122
contribute still 0.0041152
contribute labors 1.0000000
contribute generous 0.0200000
contribute voluntary 0.0322581
contribute invites 0.1428571
contribute cash 0.1666667
contribute projects 0.0434783
contribute making 0.0050251
contribute gave 0.0056180
contribute support 0.0181818
contribute contributes 0.1111111
contribute share 0.0136054
contribute NULL 0.0001465
contribute sources 0.0909091
contribute period 0.0370370
contribute donated 0.2857143
contribute tithe 1.0000000
contribute past 0.0125000
contribute generously 0.0384615
contribute donations 0.2285714
contribute olive 0.1666667
contribute times 0.0044248
contribute donating 0.2000000
contribute use 0.0092593
contribute property 0.0869565
contribute anonymous 1.0000000
contribute donate 0.5000000
contribute privilege 0.0259740
contribute funds 0.1851852
contribute contributing 0.4285714
contribute ministration 1.0000000
contribute servants 0.0047170
contribute circumstances 0.0099010
contribute financially 0.1111111
contribute financial 0.0454545
contribute resources 0.0909091
contribute donation 0.4000000
contribute varied 0.2000000
contribute regular 0.0135135
contribute finance 0.2500000
contribute contributions 0.0833333
contribute personal 0.0046296
greet inappropriate 0.1111111
greet readily 0.0833333
greet considered 0.0135135
greet us 0.0005777
greet waved 0.3333333
greet greet 1.0000000
greet insisted 0.1666667
greet simple 0.0222222
greet daughters 0.0370370
greet sent 0.0112360
greet greetings 0.1538462
greet go 0.0105820
greet warmly 0.0666667
greet saying 0.0108696
greet used 0.0071942
greet criticize 0.1428571
greet unnoticed 0.1666667
greet meet 0.0175439
greet often 0.0052083
greet inclined 0.0625000
greet say 0.0056818
greet greeted 0.5555556
greet underestimate 0.0909091
greet offering 0.0270270
greet so 0.0009294
greet NULL 0.0000610
greet greeting 0.3125000
pope popes 0.1428571
pope pope 0.5000000
maxim maxim 1.0000000
maxim was 0.0004340
once endeavors 0.0909091
once embrace 0.1428571
once nor 0.0153846
once scriptural 0.0086207
once transplanted 0.0909091
once transition 0.1000000
once one 0.0019175
once immediately 0.0465116
once banner 0.1428571
once manslayer 0.0625000
once once 0.0495050
once peasants 0.2000000
once turned 0.0204082
once ; 0.0019417
once come 0.0047170
once large 0.0212766
once throughout 0.0161290
once easily 0.0322581
once because 0.0022124
once NULL 0.0000854
once overwhelming 0.0434783
once overnight 0.3333333
once simply 0.0142857
once instead 0.0081301
once instantly 0.2500000
once more 0.0016722
once chunk 0.2500000
once asa 0.0188679
once passages 0.0714286
once quickly 0.0192308
once verse 0.0322581
watch on 0.0005587
watch unnoticed 0.1666667
watch watch 0.4600000
watch saw 0.0100000
watch awake 0.0303030
watch 1895 0.3333333
watch observe 0.0500000
watch entertainment 0.1645570
watch NULL 0.0001098
watch observing 0.0666667
watch remember 0.0063694
watch the 0.0003496
watch careful 0.0303030
watch watching 0.2727273
watch looking 0.0256410
watch watched 0.2727273
watch vigilance 1.0000000
watch directors 0.1666667
watch disobedient 0.0909091
watch alert 0.0416667
watch somewhat 0.0769231
watch monthly 0.2000000
watch whiteboard 0.5000000
watch watchful 0.1428571
watch reluctant 0.1428571
watch viewing 0.2727273
doctors - 0.0009132
doctors mental 0.0312500
doctors experts 0.2000000
doctors health 0.0151515
opportunity arose 0.0769231
opportunity advance 0.0400000
born ; 0.0038835
born privileged 0.0555556
born 1473 0.2500000
born birth 0.5666667
born overlapped 0.1666667
born brother 0.0036900
born papparizos 0.1666667
born leah 0.2500000
born ought 0.0526316
born him 0.0022989
born populate 0.1666667
born baby 0.0714286
born dare 0.3333333
born youngest 0.1111111
born gave 0.0224719
born childless 0.0769231
born size 0.1428571
born child 0.0065359
born kevin 0.0526316
born sinaiticus 0.1428571
born obed 0.5000000
born reproduce 0.2500000
born bore 0.1111111
born raising 0.0625000
born multitudes 0.1428571
born satisfied 0.0555556
born any 0.0136364
born fifth 0.1250000
born neither 0.0238095
born irina 0.2500000
born grandchildren 0.1428571
born method 0.0666667
born reigned 0.0833333
born rachel 0.0476190
born brought 0.0138889
born creatures 0.0277778
born sinful 0.0294118
born childbearing 0.1428571
born was 0.0095486
born born 0.4800000
born humans 0.0062500
born affects 0.1111111
born hatch 0.5000000
born raised 0.0508475
born son 0.0055866
born echoed 0.1250000
born NULL 0.0003784
born begun 0.0769231
born lifetimes 0.1428571
born control 0.0125786
born faithfully 0.0178571
born limit 0.0666667
born childlessness 0.2000000
born have 0.0080950
born produced 0.0263158
born weigh 0.0625000
born customary 0.0714286
born raise 0.0588235
born childbirth 0.2000000
born barren 0.1250000
born children 0.0272480
born unnatural 0.5000000
born daughters 0.0370370
born pregnancy 0.0625000
born affliction 0.2000000
born bear 0.0285714
born offspring 0.0370370
born some 0.0012034
portion share 0.0068027
portion renders 0.5000000
portion for 0.0003124
portion rise 0.0285714
picture materials 0.0909091
picture NULL 0.0000854
picture photographs 0.1666667
picture fired 0.1666667
picture media 0.0714286
picture faces 0.0909091
picture synchronized 0.2000000
picture looking 0.0256410
picture website 0.0769231
picture artistic 0.2000000
picture feature 0.0714286
picture pictures 0.6363636
picture paintings 1.0000000
picture picture 0.5500000
picture image 0.4347826
picture liberally 0.1250000
picture a 0.0001672
picture postings 0.1666667
picture illustrations 0.0606061
picture images 0.2000000
nisan take 0.0028011
nisan nisan 0.7500000
nisan on 0.0005587
nisan effect 0.0178571
1926 1926 0.3333333
1926 year 0.0070423
stubborn favorably 0.2500000
stubborn dignified 0.2000000
stubborn burial 0.1666667
stubborn spirit 0.0026110
stubborn has 0.0015152
stubborn headstrong 1.0000000
stubborn rebellious 0.0666667
stubborn not 0.0004713
stubborn disposed 0.1333333
kant close 0.0102041
kant kant 0.7500000
kant very 0.0039216
kant lies 0.0303030
kant which 0.0030769
138 138 1.0000000
african his 0.0003986
african lifted 0.0833333
african african 0.5000000
african its 0.0061350
african land 0.0128205
african building 0.0188679
african restrictions 0.0769231
rough supremacist 0.3333333
real blessed 0.0129870
real other 0.0024272
real real 0.0705882
real if 0.0011905
real NULL 0.0000610
real deed 0.0800000
real heartless 0.5000000
real blessing 0.0084034
real deprived 0.0833333
real alive 0.0294118
real could 0.0015699
real genuineness 0.1428571
real unselfish 0.1428571
real desire 0.0095238
real very 0.0039216
real without 0.0068493
real because 0.0044248
real freedom 0.0245399
real manliness 0.3333333
real “ 0.0008894
real created 0.0192308
real names 0.0400000
real true 0.0268097
real genuine 0.1851852
real some 0.0012034
real witnesses 0.0031153
real truth 0.0063091
real hypocrisy 0.0476190
real identifies 0.0555556
real gain 0.0112360
real are 0.0011751
real personal 0.0046296
real realities 0.1428571
real unlike 0.0333333
real god 0.0004762
real arimathea 0.1111111
real teaches 0.0416667
real unseen 1.0000000
144 does 0.0016026
144 reflect 0.0102041
144 more 0.0016722
144 whole 0.0172414
144 144 1.0000000
download providing 0.0416667
download responsibility 0.0107527
download downloaded 1.0000000
download spiritual 0.0015385
download entrusted 0.1000000
download channels 0.1428571
download food 0.0081301
colporteur stop 0.0120482
colporteur colporteur 0.7500000
colporteur quit 0.0833333
colporteur resentful 0.1428571
colporteur mixing 0.5000000
pontus pontus 0.3333333
pontus residents 0.1111111
pontus temporary 0.1000000
pontus scattered 0.0769231
pontus about 0.0010977
men males 0.2000000
men spies 0.2500000
men detain 0.2500000
men over 0.0030395
men denying 0.2500000
men demonstrate 0.0232558
men best 0.0061350
men these 0.0042283
men things 0.0043860
men smashing 0.1428571
men baptizing 0.2000000
men entrust 0.1818182
men ones 0.0197183
men stewards 0.3333333
men younger 0.1780822
men handing 0.1666667
men spiritually 0.0051546
men qualified 0.0294118
men 10,000 0.2222222
men faithful 0.0031646
men when 0.0007321
men chiefs 0.2500000
men antandroy 0.1111111
men nabal 0.1333333
men constitutes 0.3333333
men seized 0.2500000
men followed 0.0208333
men cooperate 0.0476190
men NULL 0.0000610
men did 0.0009843
men proper 0.0158730
men taking 0.0111111
men procedures 0.2500000
men excuse 0.2000000
men men 0.1126126
men hope 0.0053763
brian and 0.0001382
brian brian 1.0000000
minutes fifteen 0.1666667
minutes minute 0.1666667
minutes hard 0.0074074
minutes hours 0.0434783
minutes minutes 0.2500000
minutes too 0.0064516
minutes music 0.0500000
minutes not 0.0004713
minutes was 0.0004340
minutes - 0.0009132
simone s 0.0003034
simone experienced 0.0116279
simone ’ 0.0002468
simone simone 0.2500000
simone god 0.0004762
simone word 0.0024510
simone has 0.0015152
hardest probably 0.0434783
hardest greatest 0.0178571
hardest challenge 0.0327869
dannykarl dannykarl 0.4285714
dannykarl view 0.0049261
washing using 0.0131579
washing utensils 0.3333333
escape safely 0.1000000
escape get 0.0048309
escape away 0.0074627
regained regained 0.2000000
ellis ellis 1.0000000
250,000 1,100,000 0.5000000
migraine attend 0.0144928
migraine congregation 0.0019920
migraine meetings 0.0053191
abijah NULL 0.0000122
abijah his 0.0003986
abijah successor 0.2500000
abijah abijah 0.3333333
closing likely 0.0074627
handkerchief handkerchief 0.3333333
handkerchief raised 0.0169492
handkerchief a 0.0001672
diane abroad 0.0144928
diane says 0.0031056
diane to 0.0001645
diane serving 0.0051813
diane adjust 0.0285714
diane diane 1.0000000
w18.04 w18.04 1.0000000
114 114 0.5000000
114 96 0.6666667
gentle includes 0.0256410
gentle optional 0.0555556
gentle fierce 0.1000000
gentle NULL 0.0000244
gentle gentle 0.2500000
gentle mild 0.0882353
gentle needs 0.0105263
gentle wolves 0.2500000
gentle - 0.0018265
gentle “ 0.0002965
gentle display 0.0192308
gentle example 0.0022831
gentle best 0.0061350
gentle patience 0.0252101
gentle tempered 0.0952381
gentle showing 0.0181818
gentle mildness 0.2549020
supply supply 0.0909091
arkansas arkansas 0.5000000
arkansas , 0.0000636
dave dave 1.0000000
rentis day 0.0035336
rentis modern 0.0277778
rentis rentis 0.2500000
rentis - 0.0009132
freezer trees 0.1111111
freezer even 0.0017452
comfort spiritually 0.0051546
comfort refreshing 0.0714286
comfort refresh 0.2500000
comfort soothed 0.0833333
comfort comforted 0.0357143
emma emma 0.2500000
emma wagner 0.1666667
nun nun 0.1250000
nun was 0.0004340
141 141 1.0000000
141 58 0.2000000
80 though 0.0044444
80 70 0.0555556
80 80 0.4583333
80 nearing 0.1666667
warn stress 0.0588235
warn about 0.0010977
warn admonished 0.1250000
warn hear 0.0151515
warn syrians 0.5000000
warn alerted 0.6000000
warn find 0.0038462
warn someone 0.0086957
warn jeremiah 0.0869565
warn showy 0.1428571
warn cautioned 0.3333333
warn fellow 0.0041841
warn warn 0.4444444
warn NULL 0.0000732
warn ample 0.2000000
warn warning 0.1875000
warn warnings 0.2500000
warn warns 0.3333333
warn this 0.0007018
warn clear 0.0259740
warn against 0.0155440
warn give 0.0054645
warn sounding 0.2000000
warn warned 0.4000000
warn properly 0.0400000
escort but 0.0009285
take secure 0.0769231
take dew 0.1052632
take ears 0.1250000
take exalt 0.3333333
take shepherds 0.1666667
take may 0.0011416
take spent 0.0294118
take upbringing 0.1052632
take right 0.0049505
take ’ 0.0286278
take materials 0.0909091
take distinction 0.1250000
take disregarding 0.1666667
take reward 0.0188679
take displayed 0.0384615
take hastily 0.2000000
take commandant 0.5000000
take minister 0.0625000
take blinds 0.1666667
take apply 0.0084746
take worthy 0.0344828
take education 0.0327869
take look 0.0279720
take commercialized 0.2000000
take coincidence 0.1666667
take justice 0.0103093
take helped 0.0113636
take beginning 0.0344828
take ​ 0.0011357
take newfound 0.2000000
take hebrew 0.0113636
take guided 0.0416667
take contrast 0.0579710
take showed 0.0291262
take sivulsky 0.2000000
take rabbi 0.2500000
take tradition 0.2222222
take personal 0.0046296
take eraser 0.1666667
take considered 0.0135135
take unearned 1.0000000
take chairs 0.3333333
take taunt 0.2500000
take defeat 0.0476190
take recognized 0.0454545
take to 0.0059220
take worked 0.0350877
take acknowledging 0.0714286
take recording 0.1428571
take overwhelming 0.0434783
take tobacco 0.3333333
take overtaken 0.2500000
take rereading 0.5000000
take humans 0.0125000
take whisper 0.1666667
take sanctification 0.0833333
take lived 0.0192308
take dominated 0.1428571
take neglects 0.3333333
take visions 0.1052632
take spend 0.0370370
take patients 0.1666667
take follower 0.1000000
take been 0.0040816
take threatened 0.0344828
take view 0.0443350
take student 0.0277778
take dollars 0.0909091
take functions 0.0769231
take salvation 0.0329670
take pulling 0.1666667
take resemble 0.2500000
take set 0.0223464
take care 0.1600000
take s 0.0279126
take cooperate 0.0476190
take with 0.0050761
take magnifies 0.1666667
take persecuted 0.1000000
take able 0.0160000
take maurizio 0.1000000
take cared 0.1538462
take gaining 0.1666667
take origin 0.0588235
take radio 0.1666667
take adopts 1.0000000
take occasions 0.0333333
take done 0.0117647
take supplanted 0.2000000
take value 0.0222222
take insight 0.0666667
take treat 0.0769231
take argued 0.2000000
take for 0.0015620
take involved 0.0490196
take boxer 0.5000000
take engulfed 0.3333333
take preoccupied 0.2000000
take merchant 0.0833333
take and 0.0006909
take affect 0.1358025
take cutout 0.3333333
take herd 0.1428571
take souled 0.1000000
take reflecting 0.0243902
take use 0.0324074
take deter 0.5000000
take equip 0.1000000
take replacement 0.1111111
take activities 0.0172414
take offer 0.0333333
take toys 0.1666667
take building 0.0377358
take had 0.0119166
take renderings 0.1250000
take difference 0.0400000
take addresses 0.5000000
take swearing 0.1250000
take spends 0.2000000
take gave 0.0337079
take support 0.0121212
take firsthand 0.1111111
take chooses 0.0909091
take mclain 0.2000000
take matters 0.0089286
take please 0.0085470
take discern 0.0833333
take seduced 0.1666667
take hardworking 0.1538462
take cultivate 0.0641026
take blessed 0.0389610
take defended 0.2000000
take his 0.0011957
take attention 0.0394737
take kyrgyzstan 0.0666667
take father 0.0076336
take samuelson 0.2000000
take pills 0.3333333
take gabriel 0.1428571
take veil 0.1666667
take from 0.0013106
take fajardo 0.2000000
take bosom 0.3333333
take bless 0.0645161
take cleaning 0.1000000
take accuse 0.2500000
take whereby 0.2000000
take demonstrate 0.1162791
take expand 0.0800000
take constant 0.0800000
take know 0.0477941
take rahab 0.2000000
take caregivers 0.1666667
take acquire 0.1111111
take through 0.0044643
take departed 0.1428571
take complexity 0.1666667
take used 0.0503597
take emphasizing 0.1666667
take bazely 0.2500000
take trust 0.0476190
take hopkinson 0.2500000
take provoking 0.1111111
take wrecked 0.2500000
take humiliating 0.2500000
take cope 0.0425532
take understanding 0.0227273
take came 0.0461538
take try 0.0108696
take built 0.0370370
take feature 0.1428571
take away 0.0074627
take reprimand 0.1428571
take eyewitness 0.1428571
take us 0.0005777
take angels 0.0781250
take changed 0.0576923
take renovations 0.5000000
take captivity 0.0465116
take reception 0.1250000
take evaluate 0.0909091
take shift 0.2500000
take outset 0.0909091
take directs 0.2500000
take deliverance 0.0714286
take spending 0.0500000
take applied 0.0208333
take bicol 0.1428571
take coffee 0.1666667
take dealings 0.0714286
take deal 0.0348837
take incense 0.1666667
take rid 0.1666667
take soothe 0.2500000
take sycamore 1.0000000
take already 0.0158730
take text 0.1538462
take crown 0.0833333
take vastly 0.2000000
take safely 0.1000000
take made 0.0030488
take grips 0.5000000
take patient 0.0338983
take sources 0.0909091
take fulfilled 0.1428571
take taking 0.0111111
take tell 0.0394737
take NULL 0.0055412
take applying 0.0196078
take solely 0.0769231
take precise 0.1111111
take freedom 0.0122699
take walk 0.0227273
take lives 0.0190476
take come 0.0188679
take distributed 0.1111111
take reflect 0.0408163
take benefiting 0.3333333
take dealt 0.1000000
take olive 0.1666667
take restrain 0.1250000
take governed 0.5000000
take perceived 0.1250000
take opportunities 0.0200000
take loving 0.0222222
take stage 0.1000000
take be 0.0056180
take exists 0.1176471
take jehovah 0.0043709
take exert 0.0625000
take comparing 0.1111111
take inspired 0.0357143
take shiny 0.3333333
take explained 0.0322581
take viewed 0.0384615
take parkin 0.2500000
take boundaries 0.0666667
take slander 0.1250000
take christians 0.0071942
take misrepresent 0.1111111
take adapts 0.3333333
take function 0.1428571
take takes 0.0508475
take physically 0.0526316
take tasted 0.0714286
take governor 0.0625000
take fare 0.1250000
take valuable 0.0158730
take method 0.1333333
take translate 0.1250000
take copied 0.1428571
take manage 0.1428571
take disciplined 0.1538462
take fantasizing 0.5000000
take the 0.0017479
take inexpensive 0.1666667
take worship 0.0199203
take strengthen 0.0314961
take kindly 0.0312500
take tool 0.1666667
take how 0.0105572
take figure 0.5000000
take celestial 0.1666667
take dependent 0.0833333
take timely 0.1428571
take austrian 0.1000000
take enslave 0.2000000
take show 0.0761099
take complacent 0.5000000
take impact 0.1000000
take has 0.0136364
take seriously 0.0714286
take implicit 0.1666667
take equipped 0.0625000
take help 0.0337995
take give 0.0355191
take it 0.0005376
take interesting 0.0555556
take suggestions 0.0285714
take copper 0.1111111
take teach 0.0288462
take plan 0.0357143
take exercise 0.0266667
take praising 0.0833333
take conform 0.3333333
take accomplish 0.2000000
take qualifications 0.0689655
take materially 0.0714286
take traitor 0.1250000
take minimize 0.1666667
take varied 0.2000000
take baby 0.1428571
take proved 0.0363636
take vacation 0.1666667
take cooperation 0.1000000
take talents 0.1428571
take count 0.1428571
take discipline 0.0632911
take put 0.0055866
take priscilla 0.2000000
take dedicating 0.1000000
take demonstration 0.0769231
take barak 0.0714286
take expenditure 0.5000000
take cleansing 0.2000000
take numbering 1.0000000
take is 0.0003148
take , 0.0000636
take enable 0.0526316
take adjust 0.0285714
take that 0.0001938
take blessings 0.0326797
take — 0.0011507
take assembled 0.1000000
take listed 0.0625000
take god 0.0038095
take differ 0.2666667
take disseminate 0.2500000
take wealth 0.0370370
take explain 0.0447761
take identifies 0.0555556
take vans 0.2500000
take calories 0.3333333
take cards 0.3333333
take in 0.0017078
take electronic 0.0714286
take obligation 0.0555556
take functioned 0.2500000
take caring 0.1290323
take does 0.0240385
take instructed 0.0400000
take adept 0.2000000
take accurate 0.0243902
take taken 0.0689655
take effective 0.0181818
take inkhorn 0.1111111
take potatoes 0.3333333
take imitate 0.0631068
take carry 0.0833333
take ezekiel 0.0270270
take saying 0.0108696
take wait 0.0259740
take bow 0.2000000
take balance 0.0526316
take dramatic 0.2000000
take of 0.0020492
take efforts 0.0112360
take provide 0.0743802
take punish 0.1000000
take hospitable 0.0625000
take deliver 0.0526316
take publications 0.0263158
take children 0.0027248
take mules 0.3333333
take markin 0.2500000
take compassionate 0.0243902
take between 0.0705882
take displays 0.2000000
take thessalonian 0.2000000
take presumably 0.2500000
take subscriptions 0.2000000
take cows 0.2000000
take voluntary 0.1612903
take valleys 0.2000000
take quest 0.5000000
take areas 0.0222222
take emphasize 0.1111111
take wage 0.1000000
take shown 0.0526316
take explanation 0.1818182
take unreservedly 0.3333333
take representatives 0.0322581
take way 0.0232068
take adjusted 0.0952381
take reveal 0.0769231
take ministry 0.0071174
take protect 0.0816327
take resort 0.2000000
take find 0.0076923
take examine 0.0151515
take one 0.0019175
take do 0.0137886
take nature 0.0400000
take greatly 0.0400000
take influence 0.0232558
take riveting 0.5000000
take almighty 0.0769231
take haters 1.0000000
take manifest 0.1176471
take confront 0.0666667
take answers 0.0588235
take ways 0.0298507
take stretch 0.2500000
take perceive 0.0625000
take illustration 0.0317460
take faithfulness 0.0344828
take waiting 0.0312500
take germinate 1.0000000
take extended 0.1111111
take deceptively 0.5000000
take draw 0.0379747
take leg 0.2000000
take became 0.0052910
take display 0.0192308
take molds 0.0769231
take saw 0.0200000
take drug 0.1250000
take can 0.0032879
take publicize 0.3333333
take intelligent 0.0666667
take peter 0.0060976
take handwritten 0.3333333
take conquered 0.1428571
take determine 0.0312500
take demonstrated 0.0625000
take hybrid 0.2500000
take applaud 0.1250000
take involve 0.0322581
take adapt 0.1111111
take pleasing 0.0526316
take deborah 0.1111111
take vocal 1.0000000
take devoting 0.1666667
take childless 0.0769231
take happen 0.0185185
take take 0.0364146
take escort 1.0000000
take ought 0.0526316
take absolutely 0.0333333
take harmonious 0.1666667
take skill 0.0714286
take make 0.0170279
take patience 0.0084034
take brickell 0.2500000
take grasps 0.3333333
take berdibaev 0.2500000
take accept 0.0851064
take reader 0.3333333
take simplifications 0.1666667
take privileged 0.0555556
take permanently 0.1250000
take weapons 0.1666667
take both 0.0130719
take develop 0.0128205
take benefited 0.1176471
take damascus 1.0000000
take prepare 0.1034483
take prove 0.0545455
take provider 0.1428571
take encourage 0.0373832
take brought 0.0138889
take walked 0.0689655
take militaristic 0.1428571
take means 0.0493827
take such 0.0029369
take zeal 0.0689655
take methods 0.0344828
take steer 0.1428571
take kill 0.0666667
take restoration 0.1666667
take loved 0.0235294
take hand 0.0655738
take replicate 0.2000000
take misuse 0.0714286
take daily 0.0327869
take simplify 0.0625000
take minutes 0.1250000
take swimwear 0.2500000
take needs 0.0105263
take did 0.0226378
take took 0.0384615
take forgave 0.2857143
take raised 0.0169492
take identify 0.0714286
take this 0.0021053
take fluctuate 0.2000000
take kg 0.2500000
take flocks 0.1428571
take important 0.0106762
take distinguished 0.2000000
take opportunity 0.0119048
take burned 0.1428571
take all 0.0018797
take connection 0.1111111
take rate 0.3333333
take devout 0.1666667
take contribute 0.0487805
take own 0.0035971
take undo 0.1666667
take sought 0.0400000
take fernández 0.2000000
take statements 0.0833333
take sinclair 0.1666667
take special 0.0198020
take completed 0.2000000
take stopped 0.0384615
take have 0.0048570
take busying 0.2500000
take psarras 0.1666667
take patiently 0.0322581
asa devotion 0.0243902
asa 1 0.0082645
asa move 0.0090909
asa depended 0.5000000
asa glance 0.1250000
asa promoted 0.0555556
asa asa 0.7358491
asa rather 0.0066667
asa decisive 0.0909091
asa baasha 0.0909091
asa did 0.0049213
asa imitate 0.0048544
asa so 0.0009294
asa NULL 0.0000488
asa s 0.0030340
asa first 0.0020040
asa ’ 0.0027147
asa worked 0.0175439
asa good 0.0017794
asa doing 0.0043478
asa heartfelt 0.0185185
asa react 0.0312500
asa basically 0.1111111
asa god 0.0004762
asa than 0.0025840
asa strategy 0.1666667
asa king 0.0054348
asa syria 0.1666667
asa whose 0.0153846
asa ki 0.2500000
asa ​ 0.0011357
asa zeal 0.0344828
asa — 0.0005754
sam fearing 0.0526316
sam fathers 0.1428571
sam - 0.0009132
sam mind 0.0043668
two rough 0.1666667
two consideration 0.0263158
two NULL 0.0006835
two personalities 0.0666667
two for 0.0009372
two indicate 0.0217391
two second 0.0148148
two mountains 0.0625000
two accounts 0.0192308
two private 0.0454545
two unrelated 0.1428571
two daughters 0.0740741
two them 0.0010858
two requirements 0.0645161
two witnesses 0.0031153
two separated 0.0833333
two four 0.0281690
two closeness 0.2500000
two eyewitness 0.1428571
two pioneers 0.0125000
two otherwise 0.0384615
two doing 0.0043478
two between 0.0352941
two displays 0.2000000
two articles 0.2033898
two twin 0.5000000
two start 0.0131579
two pair 0.1250000
two drowned 0.3333333
two we 0.0002231
two concludes 0.1250000
two two 0.7155556
two both 0.1241830
two thereafter 0.0277778
two visitors 0.0666667
two siblings 0.0625000
two respective 0.3333333
two length 0.1111111
two tying 0.3333333
two wearing 0.0714286
two double 0.1818182
two kinds 0.0909091
two limping 1.0000000
two different 0.0160000
two comparison 0.0454545
two rugged 0.5000000
two spies 0.2500000
two illegal 0.1666667
two soundly 0.2500000
two besides 0.0416667
two these 0.0126850
two reflection 0.1428571
two differed 0.1250000
two clear 0.0259740
two twice 0.3333333
spirit keenly 0.1111111
spirit NULL 0.0004516
spirit holy 0.0643564
spirit physical 0.0125000
spirit minded 0.1000000
spirit creature 0.1111111
spirit spirit 0.5378590
spirit inside 0.0500000
spirit of 0.0001281
spirit second 0.0074074
spirit adult 0.1000000
spirit bad 0.0087719
spirit liberated 0.0769231
spirit course 0.0036900
spirit access 0.0555556
spirit fruitage 0.0612245
spirit produces 0.1000000
spirit anointed 0.0108696
spirit environment 0.0476190
spirit love 0.0013441
spirit means 0.0308642
spirit unique 0.0256410
spirit spiritual 0.0415385
spirit harmonize 0.2500000
spirit varies 1.0000000
spirit present 0.0136986
spirit inspiration 0.1111111
spirit which 0.0123077
spirit inspired 0.0357143
spirit empowered 0.1739130
spirit latter 0.2222222
spirit harms 0.1111111
spirit spirituality 0.0625000
spirit produced 0.0526316
spirit person 0.0225564
spirit result 0.0088889
spirit exploit 0.1428571
spirit body 0.0090909
spirit grow 0.0481928
chile follow 0.0090090
chile assigned 0.0133333
chile chile 0.6666667
kristina reached 0.0384615
kristina adulthood 0.0666667
kristina kristina 1.0000000
kristina discussed 0.0312500
kristina joyful 0.0285714
kristina a 0.0001672
kristina named 0.0090090
kristina became 0.0052910
kristina she 0.0017606
partner lovingly 0.0400000
partner my 0.0013717
partner suggested 0.0476190
partner partner 0.3181818
partner again 0.0120482
partner companion 0.1111111
395 395 1.0000000
tallinn part 0.0050251
tallinn then 0.0024691
tallinn tallinn 0.5000000
tallinn was 0.0004340
tallinn which 0.0030769
tallinn estonia 0.2000000
problem against 0.0051813
problem life 0.0114943
problem problems 0.5420561
problem creates 0.0769231
problem NULL 0.0009032
problem real 0.0235294
problem arise 0.1956522
problem loom 0.5000000
problem control 0.0062893
problem remedy 0.1666667
problem consequences 0.0317460
problem sympathy 0.1666667
problem you 0.0004421
problem downs 0.5000000
problem difficult 0.0162602
problem tested 0.0303030
problem lystra 0.2000000
problem distressing 0.1111111
problem opposition 0.0227273
problem encounter 0.1111111
problem own 0.0035971
problem experiencing 0.0833333
problem affliction 0.2000000
problem them 0.0010858
problem unconquerable 0.2000000
problem fix 0.3333333
problem smooth 0.2500000
problem oppose 0.0666667
problem stage 0.1000000
problem all 0.0018797
problem their 0.0021216
problem disrupted 0.2000000
problem outlook 0.0833333
problem discouraging 0.0909091
problem stresses 0.1666667
problem quarters 0.2000000
problem comfort 0.0104167
problem with 0.0073835
problem differences 0.0625000
problem dangers 0.1764706
problem minimum 0.1428571
problem situation 0.0555556
problem endure 0.0258621
problem difficulties 0.4400000
problem resulting 0.1000000
problem incident 0.0833333
problem barrier 0.1111111
problem or 0.0008150
problem approaching 0.0454545
problem overcome 0.0144928
problem unfaithfulness 0.0909091
problem struggling 0.0555556
problem changes 0.0327869
problem challenges 0.1650485
problem action 0.0128205
problem threats 0.0909091
problem clash 0.2500000
problem beyond 0.0135135
problem suffering 0.0344828
problem such 0.0014684
problem erupt 0.2500000
problem anxiety 0.0090909
problem said 0.0028249
problem strained 0.6666667
problem issue 0.0107527
problem go 0.0052910
problem flesh 0.0131579
problem negative 0.0200000
problem weaknesses 0.0256410
problem individuals 0.0097087
problem disappointing 0.1111111
problem disputes 0.1739130
problem into 0.0030211
problem trouble 0.0666667
problem tribulations 0.4615385
problem face 0.0511364
problem pose 0.1428571
problem impact 0.0500000
problem marriage 0.0254237
problem trial 0.3333333
problem contending 0.0769231
problem misunderstandings 0.1428571
problem faced 0.0483871
problem distress 0.2500000
problem persevering 0.1250000
problem rift 0.3333333
problem smaller 0.1000000
problem more 0.0066890
problem entirely 0.2500000
problem trusted 0.0384615
problem prayer 0.0082645
problem economic 0.0500000
problem pressures 0.2727273
problem problem 0.4375000
problem nor 0.0307692
problem arose 0.1538462
problem weigh 0.0625000
problem see 0.0062762
problem absorbed 0.1666667
problem material 0.0071942
problem discrimination 0.1000000
problem our 0.0004398
problem disagreement 0.2222222
problem cope 0.0851064
problem some 0.0036101
problem difficulty 0.1333333
problem illustrated 0.0909091
problem obstacles 0.0666667
problem when 0.0007321
problem associated 0.1052632
problem facing 0.0937500
problem causes 0.0714286
problem situations 0.0547945
problem way 0.0105485
problem hardships 0.1250000
problem tests 0.3157895
problem anxieties 0.1363636
problem wrongs 0.0714286
problem may 0.0045662
problem conflict 0.0384615
problem during 0.0056818
problem dispute 0.1250000
problem dealing 0.0400000
problem frequency 1.0000000
problem personal 0.0092593
problem reaped 0.1666667
problem evil 0.0322581
problem circumstances 0.0594059
problem do 0.0039396
problem emotional 0.0370370
problem tribulation 0.2407407
problem neither 0.0238095
problem rehoboam 0.0232558
problem hungry 0.1000000
problem solution 0.1428571
problem trials 0.3839286
problem bitter 0.0769231
problem from 0.0006553
problem damage 0.0714286
problem concerns 0.1000000
problem triumph 0.1666667
problem disease 0.0666667
problem spiritually 0.0103093
problem challenge 0.0491803
bribe gifts 0.0232558
bribe accepting 0.0263158
bribe justice 0.0103093
bribe would 0.0010571
bribe bribery 0.5000000
bribe “ 0.0005929
bribe boundary 1.0000000
bribe distort 0.2500000
bribe simply 0.0142857
bribe such 0.0029369
bribe NULL 0.0000244
bribe favoritism 0.3333333
bribe bribe 0.3333333
bribe requests 0.0909091
bribe between 0.0117647
bribe improper 0.2000000
bribe are 0.0005875
bribe corrupted 0.1666667
bribe gift 0.0256410
police officer 0.1052632
police posted 0.3333333
police very 0.0039216
police a 0.0005017
police unnoticed 0.1666667
police policeman 0.2857143
police worked 0.0175439
police right 0.0049505
police retorted 0.3333333
police NULL 0.0000610
police eye 0.0833333
police stood 0.0384615
police kgb 0.4285714
police officers 0.4444444
police prisoners 0.0588235
police police 1.0000000
police sure 0.0085470
police not 0.0004713
police out 0.0023585
police go 0.0052910
police secretly 0.5000000
police agent 0.3333333
police authorities 0.0625000
police differently 0.0909091
police guards 0.2666667
police man 0.0033113
police raids 0.1666667
copper later 0.0038911
copper metal 0.0769231
copper shiny 0.3333333
copper pulling 0.1666667
copper horses 0.1250000
copper that 0.0003877
copper construction 0.0192308
copper include 0.0138889
copper copper 0.5000000
copper NULL 0.0000244
copper excellent 0.0333333
copper quality 0.0163934
conscience clean 0.0625000
conscience permits 0.1428571
conscience ever 0.0091743
conscience an 0.0011249
conscience effective 0.0181818
conscience NULL 0.0000366
conscience bible 0.0019212
conscience consciences 0.0714286
conscience interact 0.1111111
conscience might 0.0032154
conscience trained 0.0303030
conscience come 0.0047170
conscience before 0.0032154
conscience was 0.0004340
conscience born 0.0200000
conscience bothering 0.3333333
conscience man 0.0033113
conscience restraint 0.1111111
conscience conscience 0.3333333
conscience educated 0.3333333
conscience where 0.0037594
conscience conclusions 0.1666667
conscience serve 0.0085837
conscience own 0.0035971
conscience broke 0.0454545
conscience unworthiness 0.1111111
conscience opposite 0.0714286
conscience becomes 0.0454545
conscience properly 0.0400000
conscience since 0.0083333
million displaced 0.0714286
million copies 0.0416667
million 240,000,000 0.5000000
million were 0.0009699
million million 0.6666667
million evangelizers 0.0769231
million refugees 0.0153846
million mark 0.0476190
million 1,200,000 0.1666667
million over 0.0030395
million inhabitants 0.0588235
million happy 0.0066225
million 65,000,000 0.5000000
busy bustling 0.1666667
busy NULL 0.0000122
busy very 0.0039216
busy commitments 0.2000000
busy scurried 1.0000000
busy about 0.0010977
busy just 0.0032680
busy busy 0.0333333
margaret margaret 1.0000000
dig archaeologists 0.1428571
dig NULL 0.0000366
dig trenches 0.2500000
dig hidden 0.1250000
dig shards 0.2000000
27th 27th 1.0000000
2,800 over 0.0030395
2,800 there 0.0017730
2,800 are 0.0005875
2,800 2,800 1.0000000
help godly 0.0107527
help aid 0.4444444
help publications 0.0131579
help motivates 0.0588235
help lamp 0.5000000
help provide 0.0909091
help willing 0.0200000
help guidance 0.1428571
help anna 0.1000000
help instilled 0.5000000
help accurate 0.0487805
help draws 0.1111111
help knowledge 0.0192308
help sorry 0.0833333
help in 0.0012420
help analyzing 0.2500000
help does 0.0032051
help invaluable 0.2500000
help preserve 0.0909091
help lessons 0.0188679
help preparing 0.0625000
help convey 0.1250000
help posture 0.1666667
help assisted 0.5000000
help exclude 0.3333333
help talents 0.1428571
help lowly 0.1250000
help enable 0.4736842
help revealed 0.0416667
help on 0.0217877
help encouraged 0.0454545
help teach 0.0480769
help intent 0.1250000
help search 0.0434783
help maintenance 0.3333333
help starts 0.1428571
help suggestions 0.0571429
help become 0.0153257
help effect 0.0178571
help signs 0.1000000
help conform 0.3333333
help educational 0.1428571
help more 0.0033445
help relief 0.0540541
help supported 0.0526316
help show 0.0084567
help 136 0.0833333
help place 0.0063694
help help 0.6270396
help equipped 0.0625000
help give 0.0573770
help training 0.0125000
help promoted 0.1111111
help principle 0.0370370
help has 0.0045455
help need 0.0132576
help depend 0.0666667
help valuable 0.0317460
help continues 0.0526316
help save 0.0714286
help examining 0.1666667
help motivated 0.1176471
help increase 0.0476190
help bring 0.0640000
help immigrants 0.0238095
help work 0.0055970
help strengthen 0.1102362
help encourages 0.1666667
help allowed 0.0535714
help strengthening 0.0285714
help respectfully 0.0909091
help comforts 0.1333333
help successfully 0.1818182
help sense 0.0098039
help distinguish 0.0714286
help boundaries 0.0666667
help macedonia 0.1428571
help moving 0.0270270
help sustains 0.5000000
help accepted 0.0138889
help positive 0.0769231
help contribute 0.0243902
help alleviate 0.6000000
help confirms 0.3333333
help controlling 0.0833333
help succeed 0.0263158
help have 0.0010793
help champion 1.0000000
help allowing 0.0434783
help practical 0.0672269
help analyze 0.0666667
help did 0.0108268
help interact 0.1111111
help principles 0.0222222
help helps 0.4134615
help gives 0.0648148
help fortified 0.2500000
help helping 0.6052632
help territories 0.0370370
help important 0.0035587
help shows 0.0714286
help accounts 0.0192308
help took 0.0076923
help recommend 0.0434783
help reliance 0.2307692
help philippians 0.1250000
help ministering 0.4000000
help prove 0.0181818
help encourage 0.2336449
help action 0.0256410
help interests 0.0123457
help replenish 0.2500000
help sustain 0.5000000
help hand 0.0327869
help train 0.0652174
help make 0.0108359
help spirit 0.0208877
help both 0.0196078
help develop 0.0897436
help fresh 0.1111111
help benefited 0.0588235
help comfort 0.0729167
help trained 0.0303030
help christian 0.0040161
help paula 0.0909091
help self 0.0175439
help available 0.0263158
help reach 0.0394737
help assistance 0.4210526
help provides 0.0461538
help impress 0.2105263
help can 0.0385157
help strengthens 0.0526316
help toward 0.0260870
help running 0.2000000
help helper 0.4285714
help draw 0.0126582
help molding 0.0833333
help perform 0.0416667
help protect 0.0612245
help helpful 0.1481481
help find 0.0038462
help ribeiro 0.2000000
help moreover 0.0111111
help empowered 0.1304348
help profitable 0.5000000
help do 0.0085358
help solving 0.1666667
help greatly 0.0800000
help colossian 0.2500000
help influence 0.0232558
help assist 0.4901961
help discernment 0.0476190
help sacrificing 0.0416667
help emphasize 0.1111111
help enables 0.1250000
help explains 0.0172414
help handle 0.0312500
help heartened 1.0000000
help way 0.0400844
help enabling 0.1666667
help blended 0.2500000
help offer 0.0500000
help sheds 0.2000000
help spiritual 0.0092308
help bearing 0.0277778
help refuge 0.0169492
help whom 0.0064516
help building 0.0566038
help serve 0.0042918
help certainly 0.0265487
help improve 0.0714286
help removes 0.3333333
help for 0.0109341
help invisible 0.0769231
help sincere 0.0136986
help benefit 0.0736842
help use 0.0092593
help impart 0.1666667
help solved 0.1111111
help equip 0.3000000
help lifted 0.0833333
help behalf 0.1219512
help affect 0.1111111
help encouragement 0.0103806
help readjust 0.2000000
help strength 0.0800000
help by 0.0020311
help supports 0.2142857
help subway 0.1666667
help value 0.0222222
help indications 0.1111111
help backing 0.2500000
help shaping 0.2500000
help instilling 0.2500000
help s 0.0009102
help fosters 0.1000000
help overcome 0.0144928
help motivate 0.1000000
help set 0.0111732
help also 0.0180505
help overseas 0.2000000
help with 0.0013844
help saving 0.0909091
help especially 0.0129870
help actually 0.0357143
help pleasant 0.0625000
help qualified 0.0294118
help protected 0.0833333
help framework 0.5000000
help empower 0.3333333
help plain 0.1250000
help produced 0.0526316
help to 0.0093765
help play 0.0740741
help source 0.0800000
help moved 0.0129032
help sharing 0.0185185
help move 0.0363636
help underscore 0.1250000
help fundamental 0.0500000
help helped 0.5795455
help arrangement 0.0500000
help deepened 0.1818182
help victory 0.2758621
help look 0.0069930
help needed 0.0376344
help apply 0.0169492
help keep 0.0095694
help triumph 0.1666667
help power 0.0078740
help homeless 0.3333333
help cultivated 0.3333333
help collect 0.1000000
help strengthened 0.0681818
help guided 0.3333333
help reminded 0.1071429
help surrounding 0.1666667
help ’ 0.0002468
help supporting 0.2500000
help assisting 0.1428571
help qualify 0.0769231
help reason 0.0136986
help giving 0.0410959
help hoped 0.0526316
help hinder 0.1250000
help beneficial 0.0833333
help promote 0.0238095
help stage 0.1000000
help inspired 0.0119048
help intensity 0.2000000
help listen 0.0333333
help encouraging 0.0294118
help stimulate 0.1111111
help applying 0.0196078
help NULL 0.0054191
help heal 0.1000000
help making 0.0201005
help defeated 0.1666667
help interest 0.0113636
help pioneering 0.0363636
help wendy 0.1250000
help assure 0.3333333
help delivered 0.0625000
help deepen 0.0416667
help deal 0.0348837
help companions 0.0526316
help looks 0.0666667
help keeps 0.0555556
help let 0.0276817
help having 0.0057143
help remind 0.2173913
help prompted 0.0588235
help open 0.0600000
help misusing 0.1111111
help offers 0.0588235
help instill 0.2000000
help tension 0.1666667
help evaluate 0.0909091
help endure 0.0344828
help directed 0.0270270
help leave 0.0163934
help compassion 0.0192308
help dealings 0.0714286
help multiplying 1.0000000
help rewarded 0.0294118
help maintain 0.0078740
help our 0.0008795
help reduce 0.0952381
help out 0.0117925
help proving 0.0588235
help handling 0.0909091
help cope 0.1063830
help harvest 0.0769231
help willpower 0.2500000
help close 0.0204082
help absorbs 0.2500000
help keys 0.1250000
help built 0.0740741
help doctrinal 0.2000000
help servant 0.0408163
help pick 0.1666667
help countries 0.0434783
help conducted 0.1250000
help inborn 0.1666667
help wisely 0.0344828
help feb 0.0833333
help income 0.0769231
help through 0.0044643
help bless 0.0645161
help daniel 0.0252101
help beliefs 0.0200000
help responsible 0.0344828
help marthe 0.1666667
help enabled 0.3571429
help intentions 0.0769231
help gain 0.0112360
help lessen 0.5000000
help figurative 0.1428571
help confidence 0.0093458
help fills 0.2857143
help relieve 0.2307692
help boost 0.2000000
help acquaints 0.3333333
help determining 0.1250000
help cultivate 0.0256410
help transforms 0.2000000
help printed 0.0769231
help gently 0.2000000
help blessed 0.0259740
help attention 0.0394737
help underlies 0.1818182
help support 0.1212121
help gave 0.0449438
help understandably 0.0588235
help when 0.0014641
help pity 0.1666667
help relied 0.0769231
help illustrated 0.0909091
help build 0.1351351
help cares 0.0357143
help guide 0.1458333
help rescues 1.0000000
thirty half 0.0384615
thirty later 0.0038911
thirty thirty 0.5000000
thirty decades 0.0370370
thirty mirjana 0.5000000
thirty three 0.0081967
13 psalm 0.0270270
13 accelerated 0.1111111
13 decrees 0.1111111
13 throughout 0.0161290
13 . 0.0002658
13 13 0.9583333
13 relate 0.0303030
13 trustworthy 0.1000000
13 difficulties 0.0400000
13 obligation 0.0555556
13 realize 0.0172414
13 preteen 0.2000000
13 teenager 0.0882353
13 remember 0.0063694
13 ordeal 0.2500000
13 NULL 0.0002685
13 own 0.0035971
13 customary 0.1428571
13 encounter 0.0555556
13 lamb 0.0666667
13 inspiration 0.1111111
13 random 0.5000000
13 similar 0.0088496
13 insignificance 0.3333333
13 teenagers 0.0909091
13 18 0.0111111
13 from 0.0013106
13 opens 0.0625000
13 understandable 0.0833333
13 habakkuk 0.3333333
536 536 1.0000000
need scriptural 0.0086207
need do 0.0019698
need overly 0.0666667
need required 0.0816327
need should 0.0152284
need reconsider 0.2000000
need heavenly 0.0077519
need needed 0.2741935
need familiar 0.0333333
need key 0.0204082
need learn 0.0036232
need putting 0.0487805
need particular 0.0370370
need trials 0.0089286
need emphasis 0.0666667
need sustenance 0.1111111
need compelled 0.1666667
need tomorrow 0.2500000
need donations 0.0285714
need situations 0.0136986
need centered 0.0666667
need video 0.0769231
need associated 0.1052632
need grasping 0.1250000
need clarify 0.1250000
need instinctive 0.1428571
need persevere 0.0454545
need communicate 0.1000000
need takes 0.0338983
need role 0.0151515
need necessary 0.2115385
need printed 0.0769231
need physical 0.0125000
need right 0.0297030
need essential 0.0740741
need effectively 0.0526316
need see 0.0125523
need exercise 0.0133333
need infused 0.1111111
need challenging 0.0181818
need measures 0.1250000
need involving 0.0500000
need enough 0.1025641
need receiving 0.0277778
need contrary 0.0526316
need much 0.0045872
need carried 0.0476190
need lacked 0.0666667
need counsel 0.0071942
need self 0.0058480
need measured 0.1111111
need unnecessary 0.0400000
need material 0.0143885
need obligated 0.1666667
need sufficient 0.1428571
need need 0.3465909
need has 0.0015152
need without 0.0136986
need successful 0.0526316
need depend 0.0666667
need expenses 0.2000000
need provided 0.0129870
need actual 0.0714286
need time 0.0090090
need dependent 0.0833333
need relief 0.0270270
need mastery 0.3333333
need entreat 0.5000000
need stretch 0.2500000
need duties 0.0526316
need caution 0.1666667
need faced 0.0161290
need requests 0.0909091
need mutual 0.0769231
need transition 0.1000000
need detain 0.2500000
need obliged 0.0833333
need copying 0.2000000
need ask 0.0052083
need spirituality 0.0104167
need muster 0.3333333
need prepare 0.0172414
need decide 0.0232558
need gaining 0.0833333
need number 0.0109890
need supplies 0.0666667
need go 0.0105820
need means 0.0123457
need must 0.0600962
need employees 0.0666667
need oil 0.1428571
need judicial 0.1250000
need nothing 0.0142857
need christian 0.0040161
need state 0.0243902
need but 0.0046425
need is 0.0056657
need reasons 0.0178571
need mammal 0.1428571
need desire 0.0095238
need develop 0.0256410
need take 0.0028011
need requirement 0.2000000
need mindful 1.0000000
need youths 0.0243902
need spread 0.0333333
need importance 0.0256410
need serve 0.0042918
need abundantly 0.2000000
need careful 0.0606061
need earning 0.1666667
need had 0.0129096
need climbed 1.0000000
need necessities 0.3225806
need exert 0.0625000
need practical 0.0084034
need have 0.0091743
need families 0.0465116
need realistically 0.2000000
need peacemaking 0.2000000
need restrain 0.1250000
need efforts 0.0112360
need vital 0.0612245
need lamp 0.5000000
need spiritual 0.0015385
need provide 0.0165289
need be 0.0043215
need activities 0.0086207
need forced 0.1000000
need basic 0.0909091
need mainly 0.2000000
need easily 0.0322581
need schedule 0.0714286
need wait 0.0259740
need encouragement 0.0034602
need spain 0.0714286
need showing 0.0181818
need humbly 0.0243902
need consistently 0.2000000
need improve 0.0357143
need about 0.0021954
need patient 0.0169492
need individual 0.0208333
need include 0.0138889
need obligation 0.0555556
need needs 0.2842105
need rob 0.0625000
need effective 0.0181818
need observing 0.0666667
need really 0.0090090
need real 0.0235294
need NULL 0.0010985
need knowledge 0.0064103
need needing 0.1666667
need fiery 0.2000000
need involved 0.0098039
noemi one 0.0009588
noemi younger 0.0136986
noemi noemi 0.3333333
noemi was 0.0004340
noemi year 0.0070423
2007 2007 0.7500000
plato introduced 0.0909091
plato men 0.0045045
plato ​ 0.0005679
plato plato 0.6666667
plato — 0.0005754
plato false 0.0120482
1923 i 0.0005577
67,000 some 0.0012034
67,000 are 0.0005875
67,000 members 0.0113636
67,000 there 0.0017730
67,000 67,000 0.5000000
tractor became 0.0052910
tractor familiar 0.0333333
tractor tractor 1.0000000
tractor a 0.0001672
excuse excuse 0.2000000
excuse fads 1.0000000
excuse but 0.0009285
excuse justification 0.2000000
excuse cover 0.0714286
excuse excuses 0.2500000
excuse no 0.0018797
excuse lame 0.2000000
excuse catering 0.2000000
excuse NULL 0.0000122
excuse an 0.0011249
excuse disgraceful 1.0000000
galaxy galaxy 1.0000000
galaxy way 0.0042194
galaxy milky 0.2000000
galaxy alone 0.0259740
classmates classmates 0.0555556
comot liberated 0.1538462
comot root 0.0769231
comot chat 0.1428571
comot july 0.0270270
comot lives 0.0095238
comot refined 0.0909091
comot riches 0.0175439
comot debt 0.1428571
comot battle 0.0200000
comot separate 0.1071429
comot &#93; 0.0062500
comot solved 0.1111111
comot resign 0.5000000
comot anything 0.0461538
comot world 0.0026667
comot remedy 0.1666667
comot draws 0.1111111
comot NULL 0.0010741
comot stand 0.0281690
comot personality 0.1368421
comot doubt 0.0108696
comot had 0.0029791
comot released 0.1379310
comot allowing 0.0434783
comot fall 0.0217391
comot entice 0.2500000
comot india 0.1111111
comot eradicate 0.5000000
comot solve 0.2222222
comot reject 0.0600000
comot stay 0.0196078
comot swallow 1.0000000
comot removed 0.1764706
comot abortions 0.2500000
comot hate 0.1000000
comot all 0.0018797
comot usurped 0.2000000
comot sins 0.0617284
comot admit 0.1000000
comot fix 0.3333333
comot evicted 0.2500000
comot joint 1.0000000
comot wipe 0.6666667
comot disassociates 0.2500000
comot distracted 0.1666667
comot superficial 1.0000000
comot put 0.0279330
comot blotted 0.5000000
comot immense 0.1250000
comot permanently 0.1250000
comot fresh 0.1111111
comot flee 0.1176471
comot overcome 0.0434783
comot luigi 0.1111111
comot abortion 0.1428571
comot empire 0.0303030
comot avoid 0.0053763
comot adversely 0.5000000
comot alive 0.0588235
comot leave 0.2295082
comot lulling 0.2500000
comot however 0.0030395
comot abstain 0.1428571
comot repentance 0.0312500
comot trespasses 0.1428571
comot simply 0.0142857
comot broke 0.0454545
comot eliminate 0.2857143
comot restoration 0.1666667
comot looks 0.0666667
comot escape 0.1111111
comot resist 0.0333333
comot determination 0.0370370
comot inconveniences 0.1428571
comot get 0.0096618
comot enoch 0.1818182
comot bedridden 0.2000000
comot banished 0.2000000
comot cost 0.0555556
comot free 0.0301205
comot rid 0.3333333
comot impression 0.0833333
comot go 0.0052910
comot delivered 0.0625000
comot turn 0.0121951
comot departed 0.1428571
comot her 0.0017668
comot permanent 0.0714286
comot give 0.0109290
comot lose 0.0192308
comot loosening 0.2500000
comot delivery 0.1666667
comot erased 1.0000000
comot remove 0.5000000
comot holds 0.0714286
comot to 0.0009048
comot completely 0.0232558
comot leaving 0.0434783
comot apathy 0.1000000
comot comes 0.0128205
comot displaced 0.0714286
comot destroy 0.1052632
comot fled 0.0714286
comot distract 0.7500000
comot flow 0.1666667
comot behind 0.0222222
comot away 0.1567164
comot rejected 0.0277778
comot order 0.0064516
comot insist 0.1666667
comot close 0.0306122
comot erase 0.5000000
comot down 0.0210526
comot crush 0.2000000
comot out 0.0377358
comot avoiding 0.1000000
comot bled 0.3333333
comot slow 0.1111111
comot refine 0.1666667
comot mass 0.2500000
comot diverted 0.1666667
comot follow 0.0090090
comot left 0.2021277
comot weaken 0.0869565
comot darkness 0.0666667
comot soon 0.0068493
comot expelled 0.4545455
comot physically 0.0526316
comot extent 0.0232558
comot fortifies 0.1666667
comot tears 0.0666667
comot fleeing 0.0666667
comot lesser 0.1250000
comot osei 0.2500000
comot awake 0.0303030
comot him 0.0045977
comot off 0.0487805
comot may 0.0011416
comot attention 0.0131579
comot growth 0.0416667
comot stop 0.0120482
comot removing 0.1250000
comot risk 0.0714286
comot ended 0.0454545
comot rocked 0.5000000
comot commonly 0.2500000
comot longer 0.0129870
comot bring 0.0240000
comot perfection 0.1785714
comot full 0.0074074
comot withdrew 0.2000000
comot spiritually 0.0103093
comot turned 0.0408163
comot buying 0.2000000
comot neutrality 0.0285714
comot conquer 0.0666667
comot ribeiro 0.0666667
comot lost 0.0200000
comot resisted 0.3333333
comot undeserved 0.0068027
comot constantly 0.0370370
comot from 0.0045872
comot wool 0.3333333
comot fighting 0.0384615
comot gone 0.2500000
comot rib 0.2000000
testament testament 1.0000000
clear question 0.0210526
clear sons 0.0185185
clear evidence 0.0106383
clear limitations 0.0188679
clear - 0.0009132
clear play 0.0370370
clear obviously 0.0833333
clear language 0.0056818
clear NULL 0.0001098
clear unsavory 1.0000000
clear lesson 0.0117647
clear without 0.0068493
clear clearly 0.1472868
clear term 0.0322581
clear utterly 1.0000000
clear sobers 0.5000000
clear much 0.0045872
clear fail 0.0222222
clear truth 0.0031546
clear desired 0.0714286
clear original 0.0370370
clear means 0.0061728
clear must 0.0024038
clear stronger 0.0555556
clear undoubtedly 0.0833333
clear alternative 0.0588235
clear highlighted 0.0666667
clear allowing 0.0434783
clear obvious 0.0555556
clear doubt 0.0108696
clear literally 0.1666667
clear stolen 0.2000000
clear clear 0.1558442
clear included 0.0172414
clear increasingly 0.0769231
blouse dresses 0.2500000
1999 1999 1.0000000
kyoko kyoko 0.5000000
thailand thailand 1.0000000
thailand mentioned 0.0068966
thailand above 0.0135135
thailand related 0.0192308
dodge dodger 0.3333333
dodge tack 0.3333333
dodge against 0.0051813
dodge coward 0.1428571
dodge draft 0.1250000
dodge flexible 0.2500000
janette janette 1.0000000
janette married 0.0094340
court process 0.0526316
court another 0.0033670
court are 0.0005875
court sanhedrin 0.0769231
court cases 0.0227273
court systems 0.1250000
court characteristics 0.1111111
court court 0.5769231
court supreme 0.2000000
court thousands 0.0256410
court brought 0.0138889
court due 0.0400000
court your 0.0009107
court ; 0.0019417
court face 0.0056818
court victories 0.0909091
court magnified 1.0000000
court but 0.0027855
court before 0.0064309
court attitude 0.0102041
court fleshly 0.0200000
court trial 0.0714286
court legal 0.1111111
court courts 0.3333333
court NULL 0.0000122
court fight 0.0181818
save worthwhile 0.0625000
save worth 0.0185185
save ; 0.0019417
save put 0.0055866
save also 0.0054152
save nothing 0.0142857
save rescue 0.7500000
save granted 0.0256410
save everlasting 0.0058480
save coins 0.1666667
save require 0.0555556
save lifesaving 0.0555556
save deliverance 0.1428571
save survive 0.3529412
save symbolically 0.1250000
save known 0.0256410
save milan 0.0909091
save displeasing 0.1111111
save survival 0.2000000
save saves 0.5000000
save safe 0.0740741
save defending 0.1000000
save ransom 0.0170940
save climbing 0.2500000
save freed 0.0714286
save judges 0.0666667
save saved 0.3846154
save delivered 0.3125000
save rescued 0.6666667
save babylon 0.0125000
save protect 0.0408163
save get 0.0048309
save keep 0.0071770
save ensure 0.0909091
save save 0.6428571
save working 0.0487805
save enabled 0.0714286
save free 0.0060241
save responsibility 0.0107527
save clearly 0.0077519
save aside 0.0416667
save great 0.0056818
save preserve 0.0909091
save into 0.0030211
save acts 0.0540541
save childbearing 0.1428571
save infancy 0.0833333
save liberated 0.0769231
save through 0.0089286
save affect 0.0123457
save bringing 0.0312500
save moves 0.0384615
save ‘ 0.0034014
save future 0.0061728
save NULL 0.0001587
save perish 0.1428571
save miraculously 0.0666667
save for 0.0028116
save lamb 0.0666667
save which 0.0061538
save end 0.0069444
save preserved 0.1176471
save salvation 0.2967033
save kept 0.0094340
save savior 0.3333333
save own 0.0287770
save indeed 0.0069930
save saving 0.4545455
save out 0.0117925
save marked 0.1000000
save deliver 0.0526316
save effort 0.0183486
save preservation 0.3333333
save conserve 0.3333333
save protected 0.1666667
2001 2001 0.3333333
wayuu all 0.0009398
wayuu do 0.0006566
wayuu wayuu 0.5000000
wayuu can 0.0004697
wayuu they 0.0006386
wayuu brothers 0.0020243
load yoke 0.2631579
load weight 0.1666667
load kindly 0.0312500
load immense 0.1250000
load burdensome 0.3333333
load right 0.0049505
load upon 0.0250000
load burden 0.1578947
load relationships 0.0588235
load NULL 0.0000366
load load 0.7500000
load taskmaster 0.1428571
load suitcases 0.5000000
load responsibility 0.0215054
basketball philippines 0.0588235
shemaiah shemaiah 1.0000000
shemaiah through 0.0044643
shemaiah delivered 0.0625000
shemaiah message 0.0065789
jack jack 0.5000000
jack wife 0.0062112
leukemia leukemia 0.1666667
europe europe 1.0000000
europe NULL 0.0000122
europe trip 0.0357143
europe european 1.0000000
asunción asunción 1.0000000
koro someone 0.0086957
koro incurring 0.4000000
koro kill 0.0666667
koro — 0.0005754
koro bloodguilt 0.1111111
koro ​ 0.0005679
break spending 0.0500000
break NULL 0.0000122
break speech 0.0196078
break sun 0.0714286
break starts 0.1428571
break down 0.0210526
break injured 0.2500000
break soft 0.0833333
break and 0.0004145
break survived 0.0909091
break breaks 0.2500000
break put 0.0055866
break new 0.0030211
break morning 0.0344828
break break 0.0370370
break shone 0.3333333
break vase 0.3333333
golden golden 0.3125000
golden NULL 0.0000122
gal most 0.0046512
gal beneficial 0.0416667
gal abounds 0.2500000
gal NULL 0.0000244
gal fits 0.2500000
gal readjust 0.2000000
squeeze because 0.0022124
squeeze frustrated 0.0769231
followers who 0.0007610
followers subjects 0.0833333
followers those 0.0012330
followers listened 0.0555556
remaining behind 0.0222222
remaining 99 0.1666667
franz close 0.0102041
franz too 0.0064516
franz with 0.0004615
franz commented 0.0769231
franz NULL 0.0000366
franz franz 0.7142857
franz us 0.0005777
ahaz ahaz 1.0000000
ahaz reign 0.0500000
zero vain 0.0714286
zero are 0.0005875
zero service 0.0045455
zero pointless 0.5000000
burial funeral 0.2500000
thursday thursday 0.5000000
thursday evenings 0.2000000
108 16 0.0140845
manasseh manasseh 0.1666667
manasseh repentant 0.0277778
manasseh have 0.0005397
manasseh credentials 0.3333333
manasseh about 0.0010977
manasseh firstborn 0.0370370
manasseh josiah 0.0344828
tent always 0.0059524
tent cloths 0.3333333
tent tentmaker 0.1666667
tent designed 0.0333333
tent tent 0.8000000
too self 0.0058480
too reduce 0.1904762
too actually 0.0178571
too drunkards 0.2000000
too fragile 0.2500000
too nearing 0.1666667
too some 0.0024067
too much 0.0183486
too rainstorm 0.2500000
too down 0.0210526
too even 0.0052356
too are 0.0023502
too relatively 0.0714286
too devoting 0.1666667
too involve 0.0322581
too stalks 0.2000000
too been 0.0040816
too terrorizing 0.3333333
too nicodemus 0.0909091
too restrict 0.5000000
too pitched 0.5000000
too waver 0.1428571
too knew 0.0091743
too overseer 0.0158730
too beneath 0.3333333
too disadvantaged 0.2000000
too m 0.0322581
too promotes 0.0400000
too fewer 0.6666667
too show 0.0042283
too money 0.0119048
too overdrink 0.3333333
too was 0.0013021
too can 0.0004697
too confidant 0.2000000
too toward 0.0086957
too need 0.0075758
too meager 0.3333333
too has 0.0045455
too submit 0.0625000
too presence 0.0344828
too constantly 0.0370370
too feeling 0.0294118
too who 0.0007610
too kids 0.2500000
too spiritually 0.0103093
too weak 0.0400000
too climates 0.2000000
too association 0.0188679
too foreigners 0.0714286
too neither 0.0238095
too long 0.0054054
too extra 0.1250000
too torment 0.5000000
too blesses 0.0769231
too attained 0.2500000
too directly 0.0500000
too overly 0.2000000
too lessening 0.3333333
too welcomed 0.0555556
too were 0.0038797
too trend 0.0714286
too gave 0.0056180
too righteous 0.0105263
too pervasive 0.3333333
too drunkenness 0.0769231
too suffered 0.0294118
too obstacles 0.0666667
too sometime 0.0714286
too begins 0.1428571
too inferior 0.1250000
too outback 0.1000000
too drinking 0.0909091
too dwell 0.0588235
too greater 0.0814815
too generally 0.1000000
too granted 0.0256410
too thoughts 0.0166667
too rare 0.2222222
too reserved 0.1428571
too wind 0.1000000
too enriched 0.0769231
too recently 0.0333333
too slight 0.1666667
too unduly 0.2500000
too deteriorated 0.2000000
too too 0.1032258
too sparing 0.1250000
too inner 0.0285714
too firm 0.0192308
too you 0.0008842
too mom 0.2000000
too theft 0.3333333
too enduring 0.0625000
too mount 0.0434783
too customary 0.0714286
too major 0.0454545
too consideration 0.0263158
too NULL 0.0010497
too flattery 0.2000000
too proof 0.1000000
too extremely 0.1250000
too caring 0.0322581
too spain 0.0714286
too inclined 0.1250000
