clarion december 0.0714286
december december 0.9285714
NULL thinking 0.1111111
if thinking 0.1111111
part thinking 0.1111111
we thinking 0.1111111
notion thinking 0.1111111
not thinking 0.1111111
alerts thinking 0.1111111
trap thinking 0.1111111
audience thinking 0.1111111
afternoon day 0.0041152
midnight day 0.0041152
however day 0.0041152
spending day 0.0041152
literal day 0.0041152
incident day 0.0041152
door day 0.0041152
intensifying day 0.0041152
wayward day 0.0041152
reading day 0.0041152
date day 0.0041152
execution day 0.0041152
very day 0.0164609
event day 0.0041152
conversation day 0.0041152
back day 0.0041152
cleared day 0.0041152
bad day 0.0041152
shone day 0.0041152
on day 0.0164609
better day 0.0041152
specific day 0.0041152
memorable day 0.0041152
apr day 0.0041152
someday day 0.0082305
january day 0.0041152
sofa day 0.0041152
reflection day 0.0041152
morning day 0.0041152
rooms day 0.0041152
later day 0.0041152
long day 0.0123457
the day 0.0041152
certain day 0.0082305
NULL day 0.1563786
desperation day 0.0041152
sundown day 0.0041152
itself day 0.0041152
time day 0.0123457
shoulder day 0.0041152
daily day 0.0370370
timely day 0.0041152
gary day 0.0041152
outcome day 0.0041152
pearl day 0.0041152
forward day 0.0041152
service day 0.0041152
come day 0.0041152
occasion day 0.0041152
activities day 0.0041152
temporary day 0.0082305
vow day 0.0123457
point day 0.0041152
ago day 0.0041152
some day 0.0082305
&#91; day 0.0082305
fail day 0.0041152
once day 0.0082305
trusted day 0.0041152
except day 0.0041152
memorial day 0.0041152
day day 0.4444444
sober day 0.0041152
end day 0.0246914
undertone day 0.0041152
ongoing day 0.0041152
threatened day 0.0041152
sacred day 0.0041152
NULL josé 0.0588235
offer josé 0.0588235
mid josé 0.0588235
tony josé 0.0588235
observed josé 0.0588235
helped josé 0.0588235
josé josé 0.3529412
case josé 0.0588235
had josé 0.1764706
their josé 0.0588235
card testimony 0.5000000
testimony testimony 0.5000000
; 10 0.0085470
impossible 10 0.0085470
productively 10 0.0085470
enemy 10 0.0085470
assurance 10 0.0085470
noemi 10 0.0085470
context 10 0.0085470
10 10 0.5811966
customary 10 0.0085470
. 10 0.0085470
handling 10 0.0085470
sense 10 0.0085470
poured 10 0.0085470
NULL 10 0.2307692
impending 10 0.0085470
definitely 10 0.0085470
miles 10 0.0085470
75 10 0.0085470
provides 10 0.0085470
awake 10 0.0085470
none 10 0.0085470
scrptr 10 0.0256410
exposed pretend 0.0357143
more pretend 0.0357143
if pretend 0.0357143
NULL pretend 0.0357143
tainted pretend 0.0714286
or pretend 0.0357143
we pretend 0.0714286
veneer pretend 0.0357143
render pretend 0.0357143
counterfeit pretend 0.0714286
wearing pretend 0.0357143
deception pretend 0.0357143
love pretend 0.0357143
hypocritical pretend 0.0357143
hypocrisy pretend 0.0714286
unrepentant pretend 0.0357143
ones pretend 0.0357143
than pretend 0.0357143
selfishness pretend 0.0357143
impostors pretend 0.0357143
appeared pretend 0.0357143
hypocrites pretend 0.0357143
mask pretend 0.0357143
not pretend 0.0357143
ice ice 0.2000000
swiftly ice 0.2000000
runs ice 0.2000000
god ice 0.2000000
hail ice 0.2000000
over waterside 0.2000000
arid waterside 0.2000000
an waterside 0.2000000
region waterside 0.2000000
half waterside 0.2000000
upper upper 0.3333333
NULL upper 0.3333333
bronx upper 0.3333333
pottery farmworker 0.0909091
petitioner farmworker 0.0909091
on farmworker 0.0909091
farmworker farmworker 0.0909091
plea farmworker 0.1818182
was farmworker 0.0909091
which farmworker 0.0909091
s farmworker 0.0909091
written farmworker 0.0909091
shard farmworker 0.0909091
joyful pray 0.0038168
opportunity pray 0.0038168
my pray 0.0038168
times pray 0.0038168
courageously pray 0.0038168
touch pray 0.0038168
through pray 0.0038168
NULL pray 0.0839695
meditate pray 0.0038168
prayerfully pray 0.0229008
consideration pray 0.0114504
years pray 0.0038168
for pray 0.0038168
seek pray 0.0114504
daily pray 0.0076336
hopefully pray 0.0038168
regularly pray 0.0038168
prayers pray 0.0381679
resolved pray 0.0038168
begged pray 0.0038168
prayer pray 0.1679389
guidance pray 0.0076336
regular pray 0.0038168
fervently pray 0.0076336
pray pray 0.2061069
bed pray 0.0038168
wanted pray 0.0038168
praying pray 0.0763359
especially pray 0.0038168
your pray 0.0038168
pleas pray 0.0038168
earnest pray 0.0114504
while pray 0.0038168
supplication pray 0.0038168
request pray 0.0076336
christian pray 0.0038168
brother pray 0.0038168
prayerful pray 0.0305344
make pray 0.0076336
respond pray 0.0038168
then pray 0.0038168
upon pray 0.0038168
concerning pray 0.0038168
remember pray 0.0038168
offers pray 0.0038168
relying pray 0.0038168
prayed pray 0.0954198
hope pray 0.0038168
approaching pray 0.0038168
looking pray 0.0038168
communication pray 0.0038168
approach pray 0.0152672
ask pray 0.0076336
heartfelt pray 0.0076336
creator pray 0.0038168
supper pray 0.0038168
concerns pray 0.0038168
asking pray 0.0038168
supplications pray 0.0038168
started pray 0.0038168
turned pray 0.0076336
speech pray 0.0076336
obligations pray 0.0038168
dakota dakota 1.0000000
went nichols 0.2500000
into nichols 0.2500000
billie nichols 0.2500000
nichols nichols 0.2500000
rather organisation 0.3333333
instrument organisation 0.3333333
than organisation 0.3333333
according yearbook 0.1250000
include yearbook 0.1250000
yearbook yearbook 0.5000000
commented yearbook 0.1250000
account yearbook 0.1250000
interested truth 0.0037736
casualty truth 0.0037736
precious truth 0.0037736
understandably truth 0.0037736
truths truth 0.0641509
endearing truth 0.0037736
teen truth 0.0037736
christians truth 0.0037736
however truth 0.0226415
though truth 0.0037736
honesty truth 0.0037736
granted truth 0.0075472
but truth 0.0037736
honestly truth 0.0037736
admittedly truth 0.0037736
sooner truth 0.0037736
aroused truth 0.0037736
ignorant truth 0.0037736
honesthearted truth 0.0037736
opposers truth 0.0037736
divine truth 0.0037736
honest truth 0.0037736
fact truth 0.0830189
no truth 0.0037736
true truth 0.0075472
others truth 0.0037736
faith truth 0.0037736
programs truth 0.0037736
beliefs truth 0.0075472
frankly truth 0.0075472
cherish truth 0.0037736
food truth 0.0037736
let truth 0.0037736
majority truth 0.0037736
changes truth 0.0037736
figure truth 0.0037736
properly truth 0.0037736
any truth 0.0037736
facts truth 0.0075472
taste truth 0.0037736
value truth 0.0037736
show truth 0.0075472
amazing truth 0.0037736
breadth truth 0.0037736
fear truth 0.0037736
trial truth 0.0037736
source truth 0.0037736
continue truth 0.0037736
stabilized truth 0.0037736
NULL truth 0.1396226
knowledge truth 0.0188679
really truth 0.0037736
accurate truth 0.0075472
testifying truth 0.0037736
has truth 0.0037736
course truth 0.0415094
guiding truth 0.0037736
wisdom truth 0.0037736
against truth 0.0037736
actual truth 0.0037736
vital truth 0.0037736
spiritual truth 0.0075472
truth truth 0.2603774
teachings truth 0.0037736
point truth 0.0037736
warrants truth 0.0037736
harvest truth 0.0037736
basic truth 0.0037736
actually truth 0.0075472
wavered truth 0.0037736
enrich truth 0.0037736
light truth 0.0037736
yes truth 0.0150943
admit truth 0.0037736
indeed truth 0.0301887
children truth 0.0037736
sincerity truth 0.0037736
doubt truth 0.0037736
survivor truth 0.0037736
contrary truth 0.0075472
four truth 0.0037736
loyally truth 0.0037736
empathy truth 0.0037736
embrace truth 0.0037736
pressures truth 0.0037736
your hair 0.0909091
wool hair 0.0909091
NULL hair 0.1818182
grooming hair 0.2727273
conversations hair 0.0909091
head hair 0.0909091
numbered hair 0.0909091
all hair 0.0909091
as kyrgyz 0.0833333
kyrgyz kyrgyz 0.6666667
their kyrgyz 0.0833333
mother kyrgyz 0.0833333
spoke kyrgyz 0.0833333
’ parkinson 0.1666667
diagnosed parkinson 0.1666667
with parkinson 0.1666667
was parkinson 0.1666667
s parkinson 0.1666667
parkinson parkinson 0.1666667
proved peter 0.0049751
reminding peter 0.0049751
boat peter 0.0049751
him peter 0.0099502
two peter 0.0099502
in peter 0.0398010
did peter 0.0099502
reinforced peter 0.0049751
stumbled peter 0.0049751
urged peter 0.0049751
NULL peter 0.0248756
s peter 0.0547264
’ peter 0.0049751
affected peter 0.0049751
saying peter 0.0049751
error peter 0.0099502
denial peter 0.0049751
rabbis peter 0.0049751
peter peter 0.6666667
toward peter 0.0049751
same peter 0.0099502
developed peter 0.0049751
alleys peter 0.0049751
, peter 0.0298507
outspoken peter 0.0049751
lost peter 0.0049751
spoke peter 0.0099502
illustrate peter 0.0049751
no peter 0.0049751
general peter 0.0049751
apostles peter 0.0149254
continued peter 0.0049751
the peter 0.0049751
judgment peter 0.0049751
fourth 4 0.0096154
baptisms 4 0.0096154
NULL 4 0.3365385
. 4 0.0673077
recall 4 0.0096154
9 4 0.0096154
read 4 0.0096154
pleased 4 0.0096154
those 4 0.0096154
4 4 0.4807692
unfaithful 4 0.0096154
eventually 4 0.0096154
impossible 4 0.0096154
distressful 4 0.0096154
symbolized 4 0.0096154
verde verde 1.0000000
’ 1990 0.2666667
1990 1990 0.4666667
s 1990 0.2666667
well naira 0.2500000
over naira 0.2500000
$ naira 0.2500000
worth naira 0.2500000
market chemical 1.0000000
dominican dominican 1.0000000
who felix 0.2000000
trial felix 0.2000000
told felix 0.2000000
before felix 0.2000000
felix felix 0.2000000
boarding graz 0.2500000
graz graz 0.5000000
austria graz 0.2500000
leeward leeward 1.0000000
fortune fortune 1.0000000
NULL select 0.0689655
pick select 0.0344828
method select 0.0344828
chosen select 0.1034483
more select 0.0344828
vessel select 0.0689655
witness select 0.0344828
choose select 0.0689655
bear select 0.0344828
selective select 0.0344828
forms select 0.0344828
associate select 0.0344828
systematic select 0.0344828
impartiality select 0.0344828
selected select 0.1034483
this select 0.0344828
showed select 0.0344828
mainly select 0.0344828
embark select 0.0344828
select select 0.0344828
generosity select 0.0344828
had select 0.0344828
from stones 0.1428571
is stones 0.1428571
up stones 0.1428571
stones stones 0.1428571
raise stones 0.1428571
these stones 0.1428571
able stones 0.1428571
myself draw 0.0156250
there draw 0.0156250
friends draw 0.0156250
been draw 0.0156250
attract draw 0.0156250
self draw 0.0156250
close draw 0.0156250
drew draw 0.0781250
all draw 0.0156250
well draw 0.0156250
interest draw 0.0156250
saw draw 0.0312500
took draw 0.0156250
draw draw 0.0625000
has draw 0.0156250
NULL draw 0.1406250
keen draw 0.0156250
know draw 0.0156250
in draw 0.0156250
closer draw 0.0156250
lovable draw 0.0156250
personal draw 0.0156250
cannot draw 0.0156250
one draw 0.0156250
true draw 0.0156250
graham draw 0.0156250
find draw 0.0156250
get draw 0.0156250
associate draw 0.0312500
that draw 0.0156250
pull draw 0.0156250
drawn draw 0.0468750
tasted draw 0.0156250
when draw 0.0156250
tattooed draw 0.0156250
way draw 0.0156250
christians draw 0.0156250
representations draw 0.0156250
- draw 0.0156250
closely draw 0.0156250
push draw 0.0156250
sacrificing draw 0.0156250
take draw 0.0156250
fortifies draw 0.0156250
spirit draw 0.0156250
sometimes mature 0.0196078
related mature 0.0196078
be mature 0.0196078
age mature 0.0196078
reasonably mature 0.0196078
already mature 0.0196078
spiritually mature 0.0392157
scold mature 0.0196078
starts mature 0.0196078
respects mature 0.0392157
developed mature 0.0196078
toward mature 0.0588235
sound mature 0.0392157
mature mature 0.0784314
advance mature 0.0196078
measure mature 0.0196078
courage mature 0.0392157
may mature 0.0196078
an mature 0.0196078
off mature 0.0196078
needs mature 0.0196078
maturity mature 0.1960784
NULL mature 0.0196078
disciple mature 0.0196078
progress mature 0.0392157
immature mature 0.0196078
advisable mature 0.0196078
older mature 0.0980392
otherwise local 0.2000000
design local 0.4000000
local local 0.4000000
ministers news 0.0071429
urgency news 0.0071429
elements news 0.0071429
witness news 0.0142857
endurance news 0.0071429
scope news 0.0071429
highlights news 0.0071429
has news 0.0071429
governmental news 0.0071429
neighbors news 0.0071429
reached news 0.0071429
outcome news 0.0071429
news news 0.4500000
widespread news 0.0142857
listening news 0.0071429
farthest news 0.0071429
story news 0.0071429
NULL news 0.1142857
ruler news 0.0071429
heartfelt news 0.0071429
result news 0.0214286
message news 0.0785714
today news 0.0071429
the news 0.0071429
crewmates news 0.0071429
respect news 0.0071429
preaching news 0.0071429
initially news 0.0071429
media news 0.0071429
general news 0.0071429
faith news 0.0071429
authorities news 0.0071429
complimenting news 0.0071429
kingdom news 0.0285714
mercy news 0.0071429
reports news 0.0071429
given news 0.0071429
comforting news 0.0071429
entails news 0.0071429
organizations news 0.0071429
peaceful news 0.0071429
or news 0.0142857
fulfillment news 0.0071429
reporters news 0.0071429
overseeing news 0.0071429
grasp stretch 0.3333333
stretching stretch 0.3333333
something stretch 0.3333333
between ways 0.3333333
similarities ways 0.3333333
are ways 0.3333333
​ boy 0.0344828
NULL boy 0.0689655
eyewitnesses boy 0.0344828
consider boy 0.0344828
boy boy 0.3793103
brought boy 0.0344828
shunem boy 0.0344828
denmark boy 0.0344828
kept boy 0.0344828
child boy 0.1034483
” boy 0.0344828
along boy 0.0344828
corpse boy 0.0344828
grasping boy 0.0344828
son boy 0.0344828
villagers boy 0.0344828
jailer guard 0.5000000
guard guard 0.3000000
had guard 0.1000000
relate guard 0.1000000
appointment treatment 0.2500000
received treatment 0.0833333
chemotherapy treatment 0.0833333
medical treatment 0.3333333
patients treatment 0.0833333
treatment treatment 0.0833333
NULL treatment 0.0833333
near sokuluk 0.2500000
sokuluk sokuluk 0.7500000
w16.07 w16.07 1.0000000
hats erie 0.5000000
feathered erie 0.5000000
threshold domot 1.0000000
train noise 0.1428571
noise noise 0.1428571
busy noise 0.1428571
notice noise 0.1428571
longer noise 0.1428571
station noise 0.1428571
newspapers noise 0.1428571
principles job 0.0052910
trial job 0.0105820
did job 0.0105820
NULL job 0.0211640
faithfulness job 0.0105820
pattern job 0.0052910
elevate job 0.0052910
took job 0.0052910
patriarch job 0.0052910
into job 0.0105820
under job 0.0105820
marital job 0.0052910
invisible job 0.0052910
claim job 0.0052910
was job 0.0052910
use job 0.0052910
scrptr job 0.0052910
cruel job 0.0052910
dig job 0.0052910
straightforward job 0.0052910
leading job 0.0052910
searched job 0.0052910
acquired job 0.0052910
integrity job 0.0211640
thoughts job 0.0052910
counsel job 0.0052910
godly job 0.0052910
insults job 0.0052910
attacked job 0.0052910
had job 0.0158730
launched job 0.0052910
outstanding job 0.0052910
afflict job 0.0052910
truthfully job 0.0052910
word job 0.0052910
he job 0.0423280
s job 0.0264550
contrasting job 0.0052910
’ job 0.0370370
accused job 0.0052910
depths job 0.0052910
wealthy job 0.0052910
; job 0.0052910
deeply job 0.0105820
spoke job 0.0052910
man job 0.0105820
? job 0.0052910
threw job 0.0052910
book job 0.0052910
job job 0.4973545
such job 0.0105820
personally job 0.0052910
asking job 0.0052910
adhere job 0.0052910
union job 0.0052910
experience job 0.0052910
god job 0.0052910
the job 0.0105820
regain job 0.0052910
challenges job 0.0052910
gain job 0.0052910
insight job 0.0052910
stressful days 0.0087719
later days 0.0087719
national days 0.0087719
additional days 0.0087719
ancient days 0.1140351
failing days 0.0087719
tangible days 0.0087719
end days 0.0175439
provide days 0.0087719
published days 0.0087719
gone days 0.0087719
days days 0.4736842
admittedly days 0.0087719
mornings days 0.0087719
very days 0.0087719
anywhere days 0.0087719
reveals days 0.0087719
considerable days 0.0087719
reasons days 0.0087719
is days 0.0175439
times days 0.0526316
sunny days 0.0087719
18th days 0.0087719
evidence days 0.0087719
time days 0.0087719
live days 0.0087719
aboriginal days 0.0087719
NULL days 0.1228070
keen days 0.0087719
passed 66 0.2000000
showed 66 0.2000000
66 66 0.2000000
away 66 0.2000000
remorse 66 0.2000000
klaus klaus 1.0000000
the flag 0.2500000
salute flag 0.1666667
flag flag 0.4166667
hebrews flag 0.0833333
image flag 0.0833333
nugget gold 0.0545455
valuable gold 0.0181818
NULL gold 0.0727273
nuggets gold 0.0181818
found gold 0.0181818
smaller gold 0.0181818
find gold 0.0363636
much gold 0.0181818
speak gold 0.0181818
gold gold 0.5272727
concentrations gold 0.0181818
divine gold 0.0181818
worth gold 0.0363636
prospector gold 0.0545455
gemstones gold 0.0181818
scriptural gold 0.0181818
as gold 0.0181818
better gold 0.0181818
challenge challenge 0.5000000
resist challenge 0.5000000
cooperate fit 0.0004502
able fit 0.0112562
discreet fit 0.0015759
dangerous fit 0.0006754
fosters fit 0.0004502
unqualified fit 0.0002251
occasionally fit 0.0004502
motivate fit 0.0002251
overcome fit 0.0004502
pleases fit 0.0004502
striving fit 0.0004502
unfruitful fit 0.0002251
victim fit 0.0002251
uses fit 0.0002251
requests fit 0.0002251
indications fit 0.0002251
done fit 0.0002251
beyond fit 0.0011256
rituals fit 0.0002251
unexpected fit 0.0002251
disappointing fit 0.0002251
supporters fit 0.0002251
evidently fit 0.0006754
prevents fit 0.0002251
induce fit 0.0009005
limitation fit 0.0002251
fill fit 0.0002251
surpasses fit 0.0004502
enter fit 0.0002251
sets fit 0.0009005
easily fit 0.0004502
uproot fit 0.0004502
features fit 0.0002251
deity fit 0.0002251
benefit fit 0.0027015
use fit 0.0015759
tugs fit 0.0002251
established fit 0.0002251
theocratic fit 0.0004502
counter fit 0.0002251
about fit 0.0009005
consequences fit 0.0004502
interchange fit 0.0002251
for fit 0.0018010
include fit 0.0002251
conquest fit 0.0002251
alcoholic fit 0.0002251
unlocked fit 0.0002251
arise fit 0.0004502
cubit fit 0.0002251
pure fit 0.0002251
abusing fit 0.0002251
doubt fit 0.0006754
anyway fit 0.0002251
died fit 0.0002251
tested fit 0.0002251
deprive fit 0.0004502
harms fit 0.0002251
refuge fit 0.0011256
childlessness fit 0.0002251
amazingly fit 0.0002251
grounds fit 0.0002251
english fit 0.0002251
spiritual fit 0.0011256
consider fit 0.0015759
property fit 0.0004502
foregoing fit 0.0002251
blended fit 0.0002251
basic fit 0.0002251
understandable fit 0.0002251
glorious fit 0.0002251
offer fit 0.0013507
a fit 0.0011256
hoped fit 0.0002251
causes fit 0.0004502
persuasion fit 0.0002251
maybe fit 0.0013507
qualify fit 0.0002251
prohibitive fit 0.0002251
reason fit 0.0004502
position fit 0.0006754
fruitless fit 0.0002251
invite fit 0.0002251
may fit 0.0886988
imagination fit 0.0002251
literal fit 0.0002251
effectively fit 0.0004502
treasures fit 0.0002251
emotional fit 0.0002251
designs fit 0.0002251
hardly fit 0.0004502
forgives fit 0.0002251
dreams fit 0.0004502
circumstances fit 0.0022512
skip fit 0.0002251
power fit 0.0024764
raising fit 0.0002251
males fit 0.0002251
learn fit 0.0013507
stigma fit 0.0002251
move fit 0.0015759
course fit 0.0009005
reconsideration fit 0.0002251
healing fit 0.0002251
lose fit 0.0002251
defeat fit 0.0002251
basis fit 0.0002251
breath fit 0.0002251
play fit 0.0004502
to fit 0.0853219
badly fit 0.0002251
not fit 0.0004502
fitted fit 0.0002251
examples fit 0.0002251
nor fit 0.0002251
psychological fit 0.0002251
dollars fit 0.0002251
accomplished fit 0.0002251
functions fit 0.0002251
override fit 0.0002251
lead fit 0.0009005
covering fit 0.0002251
qualified fit 0.0009005
even fit 0.0022512
hinders fit 0.0002251
lining fit 0.0002251
often fit 0.0004502
generation fit 0.0002251
endure fit 0.0011256
offers fit 0.0002251
unlimited fit 0.0002251
mandated fit 0.0002251
posting fit 0.0002251
cannot fit 0.0108059
extract fit 0.0002251
having fit 0.0002251
result fit 0.0004502
looks fit 0.0004502
1800 fit 0.0002251
suicide fit 0.0002251
deal fit 0.0011256
bedridden fit 0.0002251
arises fit 0.0002251
reassure fit 0.0002251
slope fit 0.0002251
urge fit 0.0002251
fight fit 0.0002251
making fit 0.0006754
lean fit 0.0002251
limitations fit 0.0015759
control fit 0.0029266
NULL fit 0.1611887
possibility fit 0.0002251
careful fit 0.0002251
solve fit 0.0002251
distrust fit 0.0002251
sing fit 0.0004502
promote fit 0.0006754
seat fit 0.0002251
conserve fit 0.0002251
entrust fit 0.0004502
prolonged fit 0.0002251
instructors fit 0.0002251
hinder fit 0.0002251
be fit 0.0470509
might fit 0.0387213
irrelevant fit 0.0002251
probably fit 0.0011256
appoint fit 0.0002251
cowed fit 0.0002251
stress fit 0.0004502
support fit 0.0004502
we fit 0.0009005
everlasting fit 0.0006754
prevent fit 0.0018010
devote fit 0.0002251
accumulates fit 0.0002251
enjoys fit 0.0004502
appropriate fit 0.0009005
transfer fit 0.0006754
expand fit 0.0006754
gain fit 0.0018010
slaved fit 0.0002251
egyptian fit 0.0002251
apt fit 0.0002251
likely fit 0.0076542
adequately fit 0.0002251
parental fit 0.0002251
responsible fit 0.0002251
without fit 0.0004502
acquire fit 0.0002251
pale fit 0.0002251
affects fit 0.0002251
face fit 0.0015759
painful fit 0.0002251
joyful fit 0.0002251
complete fit 0.0004502
single fit 0.0002251
injure fit 0.0002251
street fit 0.0002251
future fit 0.0002251
absorbs fit 0.0002251
try fit 0.0006754
keys fit 0.0002251
best fit 0.0029266
measures fit 0.0002251
highlight fit 0.0002251
begin fit 0.0006754
us fit 0.0004502
stumbling fit 0.0004502
failing fit 0.0002251
some fit 0.0031517
inadequate fit 0.0004502
productivity fit 0.0002251
seeing fit 0.0004502
win fit 0.0004502
possesses fit 0.0004502
potential fit 0.0011256
heave fit 0.0002251
possibly fit 0.0006754
is fit 0.0069788
outlook fit 0.0004502
capacity fit 0.0004502
or fit 0.0069788
serge fit 0.0002251
frustrate fit 0.0002251
good fit 0.0004502
fulfill fit 0.0006754
share fit 0.0031517
so fit 0.0002251
minimum fit 0.0002251
fund fit 0.0002251
risky fit 0.0002251
residents fit 0.0002251
consistent fit 0.0002251
exclusively fit 0.0002251
vans fit 0.0002251
that fit 0.0004502
weaknesses fit 0.0002251
commenting fit 0.0002251
stands fit 0.0004502
inherit fit 0.0002251
unable fit 0.0002251
well fit 0.0002251
possible fit 0.0087798
of fit 0.0018010
in fit 0.0009005
trustworthy fit 0.0004502
say fit 0.0004502
loud fit 0.0002251
does fit 0.0013507
ability fit 0.0033769
effective fit 0.0002251
nazirite fit 0.0002251
planning fit 0.0002251
propaganda fit 0.0009005
certain fit 0.0004502
strive fit 0.0004502
barren fit 0.0002251
intentional fit 0.0002251
emotionally fit 0.0002251
dominate fit 0.0004502
safety fit 0.0004502
presumably fit 0.0002251
limit fit 0.0002251
efforts fit 0.0004502
provide fit 0.0015759
too fit 0.0018010
preservation fit 0.0002251
subtle fit 0.0004502
losing fit 0.0002251
makes fit 0.0004502
break fit 0.0009005
rely fit 0.0002251
takes fit 0.0002251
lasting fit 0.0002251
conduct fit 0.0004502
could fit 0.0583071
sense fit 0.0009005
danger fit 0.0004502
connect fit 0.0002251
physical fit 0.0009005
contagious fit 0.0002251
expended fit 0.0002251
rhythms fit 0.0002251
risk fit 0.0011256
saved fit 0.0004502
securities fit 0.0002251
bring fit 0.0015759
dam fit 0.0002251
should fit 0.0027015
unlovable fit 0.0002251
preserving fit 0.0002251
contempt fit 0.0002251
citizenship fit 0.0002251
strictly fit 0.0002251
apparently fit 0.0009005
valuable fit 0.0002251
disagreements fit 0.0006754
access fit 0.0002251
need fit 0.0002251
help fit 0.0072040
contained fit 0.0004502
give fit 0.0013507
principle fit 0.0002251
promoted fit 0.0002251
paraguay fit 0.0002251
discerned fit 0.0002251
fear fit 0.0006754
oaths fit 0.0002251
lingua fit 0.0002251
more fit 0.0015759
impatient fit 0.0002251
rule fit 0.0006754
problem fit 0.0002251
abilities fit 0.0006754
iud fit 0.0002251
psalms fit 0.0002251
become fit 0.0018010
accomplishing fit 0.0002251
are fit 0.0105808
signs fit 0.0004502
divide fit 0.0004502
it fit 0.0020261
returning fit 0.0004502
suggestions fit 0.0004502
conscience fit 0.0006754
alternate fit 0.0002251
flagrant fit 0.0002251
institutions fit 0.0002251
christian fit 0.0006754
comfort fit 0.0002251
voice fit 0.0004502
accept fit 0.0006754
refreshments fit 0.0006754
rejuvenate fit 0.0002251
fitting fit 0.0004502
acting fit 0.0004502
steps fit 0.0002251
absolute fit 0.0002251
happen fit 0.0004502
eliminated fit 0.0002251
unfaithfulness fit 0.0002251
approaching fit 0.0004502
beautiful fit 0.0002251
take fit 0.0006754
coins fit 0.0002251
concern fit 0.0002251
grapple fit 0.0002251
lifesaving fit 0.0002251
absolutely fit 0.0002251
unwanted fit 0.0002251
dangers fit 0.0002251
utmost fit 0.0009005
make fit 0.0087798
fanatic fit 0.0002251
rust fit 0.0006754
pursue fit 0.0004502
feel fit 0.0013507
undesirable fit 0.0002251
infinite fit 0.0002251
interests fit 0.0002251
hiding fit 0.0002251
sustain fit 0.0002251
diverting fit 0.0002251
fatal fit 0.0002251
get fit 0.0006754
resist fit 0.0002251
fertilization fit 0.0002251
farmer fit 0.0002251
potentially fit 0.0002251
landscape fit 0.0002251
implications fit 0.0002251
this fit 0.0002251
bringing fit 0.0004502
presents fit 0.0002251
principles fit 0.0042774
helps fit 0.0011256
imitating fit 0.0002251
regard fit 0.0002251
own fit 0.0009005
incomparable fit 0.0009005
undo fit 0.0002251
thinks fit 0.0002251
practical fit 0.0013507
have fit 0.0177848
succeed fit 0.0002251
caught fit 0.0002251
you fit 0.0018010
traits fit 0.0002251
distinct fit 0.0004502
positive fit 0.0009005
appointment fit 0.0002251
oversaw fit 0.0002251
short fit 0.0011256
getting fit 0.0002251
ministry fit 0.0002251
want fit 0.0002251
unbreakable fit 0.0002251
start fit 0.0004502
falter fit 0.0002251
reachable fit 0.0002251
perhaps fit 0.0081045
do fit 0.0072040
assist fit 0.0006754
success fit 0.0004502
worst fit 0.0004502
challenge fit 0.0002251
find fit 0.0020261
unreal fit 0.0002251
journey fit 0.0004502
rival fit 0.0002251
lesson fit 0.0009005
draw fit 0.0004502
submit fit 0.0004502
can fit 0.1762719
into fit 0.0011256
brings fit 0.0002251
confront fit 0.0006754
loosening fit 0.0002251
cash fit 0.0009005
ways fit 0.0011256
impress fit 0.0002251
provides fit 0.0002251
respiratory fit 0.0002251
obtain fit 0.0004502
roof fit 0.0002251
suggests fit 0.0002251
breaks fit 0.0002251
reach fit 0.0018010
enough fit 0.0002251
allows fit 0.0006754
effort fit 0.0009005
would fit 0.0069788
your fit 0.0004502
will fit 0.0103557
mates fit 0.0002251
smile fit 0.0002251
unemployment fit 0.0002251
were pavel 0.1250000
born pavel 0.1250000
pavel pavel 0.7500000
wilderness wilderness 1.0000000
92 92 1.0000000
alabama alabama 1.0000000
attend ministry 0.0769231
ministry ministry 0.9230769
very short 0.0400000
ours short 0.0400000
talks short 0.0400000
effects short 0.0400000
soon short 0.0800000
short short 0.1600000
reflect short 0.0400000
thereafter short 0.0400000
shorter short 0.0400000
our short 0.0400000
positive short 0.0400000
love short 0.0400000
an short 0.0400000
easy short 0.0400000
span short 0.0400000
bald short 0.0400000
genuine short 0.0400000
fact short 0.1200000
few short 0.0400000
in 2003 0.2000000
2003 2003 0.8000000
expressions way 0.0021322
aspect way 0.0021322
added way 0.0021322
expectations way 0.0021322
distinction way 0.0021322
experienced way 0.0021322
mabel way 0.0021322
franz way 0.0021322
upright way 0.0021322
upbringing way 0.0042644
moabitess way 0.0021322
comments way 0.0021322
faultlessly way 0.0021322
step way 0.0021322
impressed way 0.0021322
how way 0.0085288
avenues way 0.0021322
imitation way 0.0021322
attending way 0.0021322
personal way 0.0021322
work way 0.0021322
worship way 0.0021322
disposition way 0.0021322
reminds way 0.0021322
arrangement way 0.0021322
concerns way 0.0021322
method way 0.0042644
examining way 0.0021322
corinth way 0.0021322
fate way 0.0021322
just way 0.0063966
dominant way 0.0021322
particularly way 0.0021322
overwhelming way 0.0021322
source way 0.0021322
organizational way 0.0021322
order way 0.0021322
end way 0.0042644
examples way 0.0021322
readjusted way 0.0021322
problem way 0.0021322
why way 0.0021322
view way 0.0021322
adjustment way 0.0042644
initiative way 0.0021322
suggestions way 0.0042644
noting way 0.0021322
commands way 0.0021322
deep way 0.0042644
among way 0.0021322
transform way 0.0021322
according way 0.0042644
demonstration way 0.0021322
always way 0.0021322
uses way 0.0042644
moments way 0.0021322
cooperation way 0.0042644
staff way 0.0021322
boaz way 0.0063966
progress way 0.0021322
kindnesses way 0.0021322
equal way 0.0021322
sustaining way 0.0021322
purity way 0.0021322
injustice way 0.0021322
antonio way 0.0021322
greedy way 0.0021322
by way 0.0085288
lift way 0.0021322
mannerisms way 0.0021322
handsome way 0.0021322
characterize way 0.0021322
weaknesses way 0.0021322
of way 0.0341151
moon way 0.0021322
main way 0.0021322
affect way 0.0042644
merchant way 0.0021322
knowledge way 0.0021322
does way 0.0085288
improve way 0.0063966
about way 0.0063966
amazingly way 0.0021322
resolved way 0.0021322
steadfast way 0.0021322
admonition way 0.0063966
guidance way 0.0042644
renderings way 0.0042644
tack way 0.0021322
acceptably way 0.0042644
point way 0.0021322
decided way 0.0021322
hospitality way 0.0021322
adjusted way 0.0063966
guide way 0.0063966
given way 0.0021322
way way 0.1215352
preteen way 0.0021322
matters way 0.0021322
victims way 0.0021322
anatomy way 0.0021322
support way 0.0021322
taste way 0.0021322
riveting way 0.0021322
respect way 0.0021322
differs way 0.0021322
do way 0.0021322
one way 0.0021322
true way 0.0042644
job way 0.0021322
from way 0.0021322
correct way 0.0021322
principal way 0.0021322
my way 0.0021322
display way 0.0042644
large way 0.0042644
planets way 0.0021322
ways way 0.0639659
answers way 0.0021322
universe way 0.0021322
expression way 0.0042644
thinking way 0.0042644
highlight way 0.0021322
doctrinal way 0.0021322
integral way 0.0021322
plants way 0.0021322
unfailing way 0.0021322
rendering way 0.0021322
approval way 0.0021322
your way 0.0021322
much way 0.0042644
very way 0.0021322
revised way 0.0063966
deceptive way 0.0021322
trained way 0.0042644
state way 0.0021322
as way 0.0362473
deeper way 0.0021322
unmatched way 0.0021322
worthily way 0.0021322
standards way 0.0021322
solomon way 0.0021322
than way 0.0042644
brochure way 0.0021322
viewpoint way 0.0042644
ineffective way 0.0042644
methods way 0.0127932
meaning way 0.0042644
impartial way 0.0042644
negative way 0.0042644
legionnaires way 0.0021322
shows way 0.0021322
important way 0.0042644
baptized way 0.0042644
experiences way 0.0021322
walk way 0.0042644
example way 0.0063966
NULL way 0.2537313
stand way 0.0021322
an way 0.0021322
powerful way 0.0042644
gives way 0.0021322
instinct way 0.0021322
heartache way 0.0021322
own way 0.0021322
polluted way 0.0021322
exists way 0.0021322
elevated way 0.0021322
loving way 0.0021322
spontaneous way 0.0021322
opportunities way 0.0042644
nighttime way 0.0021322
soviet soviet 0.6666667
western soviet 0.3333333
lansing lansing 1.0000000
were boys 0.2000000
NULL boys 0.2000000
boys boys 0.4000000
bigots boys 0.2000000
adjustment new 0.0063694
borough new 0.0031847
exotic new 0.0031847
discovery new 0.0031847
developments new 0.0031847
newer new 0.0031847
greatest new 0.0031847
renamed new 0.0031847
relatively new 0.0031847
yours new 0.0031847
paradise new 0.0031847
ones new 0.0063694
formed new 0.0095541
uncommon new 0.0031847
joyfully new 0.0063694
baseball new 0.0031847
translations new 0.0031847
terrible new 0.0031847
theocratic new 0.0031847
recognized new 0.0031847
local new 0.0191083
newly new 0.0159236
NULL new 0.1019108
covered new 0.0031847
do new 0.0031847
transition new 0.0031847
prompted new 0.0031847
change new 0.0031847
bigger new 0.0031847
fit new 0.0031847
sprang new 0.0031847
2001 new 0.0031847
assignment new 0.0127389
quicker new 0.0031847
a new 0.0605096
reward new 0.0031847
new new 0.5828025
golden new 0.0031847
foreign new 0.0063694
apprehensive new 0.0031847
celebrations new 0.0031847
adjusted new 0.0063694
coming new 0.0031847
fresh new 0.0095541
adjust new 0.0095541
several new 0.0031847
2,000 new 0.0031847
someone new 0.0031847
understandably new 0.0031847
newcomers new 0.0031847
concessions new 0.0031847
small new 0.0031847
relevant new 0.0031847
make new 0.0159236
common new 0.0031847
were new 0.0031847
she jennifer 0.1111111
after jennifer 0.1111111
canceled jennifer 0.1111111
one jennifer 0.1111111
got jennifer 0.1111111
jennifer jennifer 0.1111111
flight jennifer 0.2222222
another jennifer 0.1111111
disobedient agag 0.1111111
showed agag 0.1111111
what agag 0.1111111
he agag 0.2222222
felt agag 0.1111111
have agag 0.1111111
when agag 0.1111111
may agag 0.1111111
89 89 0.6000000
135 89 0.4000000
fashions reign 0.2500000
automobile reign 0.2500000
latest reign 0.2500000
expensive reign 0.2500000
perspective kiana 0.5000000
kiana kiana 0.5000000
coat coat 0.2000000
’ coat 0.2000000
pocket coat 0.2000000
s coat 0.2000000
into coat 0.2000000
admits hot 0.0344828
NULL hot 0.1379310
blazing hot 0.0344828
rage hot 0.0344828
an hot 0.0344828
then hot 0.0344828
humid hot 0.0344828
door hot 0.0344828
hot hot 0.1379310
raging hot 0.0344828
influenced hot 0.0344828
it hot 0.0344828
summer hot 0.0344828
aggressive hot 0.0344828
judgment hot 0.0344828
climates hot 0.0344828
background hot 0.0344828
embers hot 0.0689655
she hot 0.0344828
and hot 0.1034483
instances tablet 0.5000000
NULL tablet 0.5000000
contender you 0.0002783
exercise you 0.0008350
tenderhearted you 0.0002783
why you 0.0030615
respected you 0.0002783
are you 0.0258837
bus you 0.0008350
! you 0.0005566
combat you 0.0002783
it you 0.0027832
lord you 0.0002783
overlook you 0.0002783
friction you 0.0002783
actually you 0.0002783
unnecessary you 0.0005566
plan you 0.0005566
teach you 0.0005566
attached you 0.0002783
crime you 0.0002783
revenge you 0.0002783
resource you 0.0002783
has you 0.0002783
turn you 0.0002783
determined you 0.0019482
help you 0.0022266
restraining you 0.0005566
seek you 0.0002783
permitting you 0.0002783
advantages you 0.0002783
live you 0.0005566
comes you 0.0002783
continue you 0.0005566
meditate you 0.0008350
play you 0.0002783
zedekiah you 0.0002783
‛ you 0.0002783
reaction you 0.0002783
errors you 0.0002783
uncontrolled you 0.0005566
dealing you 0.0002783
how you 0.0011133
personal you 0.0022266
visitor you 0.0002783
heartwarming you 0.0005566
teased you 0.0005566
comparison you 0.0002783
exalted you 0.0002783
education you 0.0002783
keep you 0.0008350
opens you 0.0002783
personally you 0.0019482
they you 0.0008350
requires you 0.0002783
appeal you 0.0005566
putting you 0.0002783
soothed you 0.0008350
dejected you 0.0002783
details you 0.0002783
endeavor you 0.0005566
advisers you 0.0002783
drawn you 0.0005566
rely you 0.0005566
pressure you 0.0005566
could you 0.0025049
oneself you 0.0002783
rests you 0.0002783
someone you 0.0005566
location you 0.0002783
experienced you 0.0005566
may you 0.0025049
then you 0.0030615
covers you 0.0008350
exhortation you 0.0005566
compare you 0.0002783
surely you 0.0011133
doubt you 0.0002783
refreshing you 0.0005566
goals you 0.0016699
guidance you 0.0005566
deposits you 0.0002783
trigger you 0.0002783
vow you 0.0013916
entitled you 0.0002783
commendable you 0.0002783
prescribes you 0.0002783
condemn you 0.0002783
drained you 0.0002783
ill you 0.0002783
uphold you 0.0005566
selected you 0.0002783
thoughtless you 0.0002783
believing you 0.0002783
yourself you 0.0091845
knowing you 0.0008350
adulthood you 0.0005566
ever you 0.0013916
say you 0.0002783
blessing you 0.0011133
fond you 0.0002783
rejoice you 0.0005566
listening you 0.0005566
delightful you 0.0002783
calls you 0.0002783
involved you 0.0002783
accurate you 0.0005566
arise you 0.0002783
ability you 0.0002783
recall you 0.0002783
requests you 0.0002783
quiet you 0.0002783
unexpected you 0.0002783
offended you 0.0002783
lovable you 0.0002783
ask you 0.0008350
ridicule you 0.0008350
blessings you 0.0002783
supporters you 0.0002783
complaint you 0.0002783
centering you 0.0002783
convey you 0.0002783
strength you 0.0013916
past you 0.0002783
think you 0.0016699
reminding you 0.0002783
lightly you 0.0002783
jw.org you 0.0008350
alive you 0.0002783
worries you 0.0002783
motivate you 0.0008350
crash you 0.0002783
discipline you 0.0011133
share you 0.0008350
nuggets you 0.0005566
skirt you 0.0002783
if you 0.0061230
situation you 0.0008350
listener you 0.0005566
die you 0.0002783
challenging you 0.0002783
imagine you 0.0025049
wonderful you 0.0005566
involve you 0.0002783
uneasiness you 0.0002783
pray you 0.0011133
angels you 0.0002783
day you 0.0005566
stumbling you 0.0002783
effort you 0.0008350
goal you 0.0019482
would you 0.0114111
will you 0.0041748
your you 0.0809908
thankful you 0.0002783
despised you 0.0002783
smile you 0.0005566
each you 0.0002783
unbeliever you 0.0002783
caregivers you 0.0002783
into you 0.0002783
beg you 0.0002783
background you 0.0005566
fester you 0.0002783
can you 0.0080712
approachable you 0.0002783
valid you 0.0002783
glorified you 0.0002783
faithfulness you 0.0002783
confidence you 0.0005566
evil you 0.0008350
one you 0.0016699
long you 0.0005566
do you 0.0328416
appreciation you 0.0002783
remain you 0.0011133
taste you 0.0002783
wholehearted you 0.0002783
realistic you 0.0008350
realm you 0.0002783
key you 0.0002783
find you 0.0022266
responsible you 0.0002783
whose you 0.0002783
composure you 0.0002783
forgiveness you 0.0011133
elaborate you 0.0002783
like you 0.0002783
probably you 0.0002783
whereas you 0.0002783
courage you 0.0011133
unwillingness you 0.0002783
nehemiah you 0.0002783
divinely you 0.0002783
might you 0.0008350
hospitality you 0.0002783
outstanding you 0.0002783
yet you 0.0002783
discernment you 0.0008350
sakura you 0.0002783
offering you 0.0002783
prayerful you 0.0005566
politely you 0.0002783
perhaps you 0.0013916
joining you 0.0002783
responding you 0.0002783
relevant you 0.0002783
earns you 0.0002783
plans you 0.0002783
own you 0.0008350
mind you 0.0002783
prospectors you 0.0002783
you you 0.4419705
patiently you 0.0002783
unworthy you 0.0002783
pause you 0.0002783
have you 0.0086279
religiously you 0.0002783
verses you 0.0002783
entrust you 0.0005566
ratio you 0.0002783
opportunities you 0.0008350
gratefully you 0.0002783
highlighted you 0.0005566
suggesting you 0.0002783
be you 0.0025049
richly you 0.0002783
peer you 0.0002783
recommend you 0.0005566
glance you 0.0002783
jan you 0.0005566
fret you 0.0002783
reflect you 0.0005566
forbade you 0.0002783
easier you 0.0011133
showing you 0.0011133
individual you 0.0002783
optional you 0.0005566
patient you 0.0005566
making you 0.0002783
petitions you 0.0002783
impelled you 0.0002783
NULL you 0.2220985
applying you 0.0011133
lofty you 0.0002783
information you 0.0005566
riverbank you 0.0002783
notice you 0.0002783
person you 0.0005566
feel you 0.0013916
brochure you 0.0002783
pride you 0.0002783
replenish you 0.0002783
intricacies you 0.0002783
interests you 0.0002783
unloving you 0.0005566
disputes you 0.0002783
deceived you 0.0002783
accompanying you 0.0002783
enjoyment you 0.0002783
overreacting you 0.0002783
voice you 0.0002783
rewards you 0.0002783
deeper you 0.0002783
hug you 0.0002783
as you 0.0016699
practicing you 0.0002783
last you 0.0002783
take you 0.0005566
yield you 0.0002783
sickbed you 0.0002783
teaching you 0.0011133
wondered you 0.0002783
forms you 0.0002783
realizing you 0.0002783
apart you 0.0002783
make you 0.0005566
remember you 0.0016699
olympus olympus 1.0000000
event 19 0.0098039
similarly 19 0.0098039
describes 19 0.0098039
desperate 19 0.0098039
lesson 19 0.0098039
19 19 0.5784314
transferred 19 0.0098039
. 19 0.0196078
unworthiness 19 0.0098039
wifely 19 0.0098039
teenager 19 0.0392157
teenagers 19 0.0098039
attend 19 0.0098039
then 19 0.0098039
esteemed 19 0.0098039
NULL 19 0.2254902
command 19 0.0098039
uzziah 19 0.0098039
be wave 0.2000000
wave wave 0.2000000
as wave 0.2000000
may wave 0.2000000
able wave 0.2000000
reactions theirself 0.0056497
each theirself 0.0282486
rulership theirself 0.0056497
advancement theirself 0.0056497
struggle theirself 0.0056497
of theirself 0.0056497
filled theirself 0.0056497
segregation theirself 0.0056497
humbled theirself 0.0056497
gratification theirself 0.0056497
tend theirself 0.0056497
earth theirself 0.0056497
protection theirself 0.0112994
chairmanship theirself 0.0056497
concerned theirself 0.0112994
NULL theirself 0.1468927
themselves theirself 0.1694915
taken theirself 0.0056497
control theirself 0.0621469
other theirself 0.0451977
examples theirself 0.0112994
financially theirself 0.0056497
lovers theirself 0.0112994
own theirself 0.0282486
mind theirself 0.0056497
view theirself 0.0056497
exclusive theirself 0.0056497
divides theirself 0.0056497
garden theirself 0.0056497
ones theirself 0.0056497
loving theirself 0.0056497
their theirself 0.0677966
privately theirself 0.0056497
recounted theirself 0.0056497
rightfulness theirself 0.0056497
self theirself 0.0282486
associated theirself 0.0056497
bad theirself 0.0056497
among theirself 0.0112994
guesswork theirself 0.0056497
weakens theirself 0.0056497
comfort theirself 0.0056497
peacefully theirself 0.0056497
reason theirself 0.0056497
selfish theirself 0.0282486
- theirself 0.0112994
good theirself 0.0112994
reaped theirself 0.0056497
submission theirself 0.0056497
claiming theirself 0.0056497
results theirself 0.0056497
despair theirself 0.0056497
qualities theirself 0.0056497
appropriate theirself 0.0056497
experience theirself 0.0056497
selfishness theirself 0.0112994
human theirself 0.0056497
action theirself 0.0056497
another theirself 0.0112994
anxious theirself 0.0056497
settled theirself 0.0112994
serving theirself 0.0056497
learn theirself 0.0056497
freely theirself 0.0056497
wash theirself 0.0056497
determination theirself 0.0056497
ethnic theirself 0.0056497
from theirself 0.0056497
court theirself 0.0056497
sirach sirach 1.0000000
over 3,700 0.5000000
3,700 3,700 0.5000000
111 111 1.0000000
romania romania 1.0000000
stocks shares 0.5000000
NULL shares 0.5000000
still contribute 0.0128205
labors contribute 0.0128205
generous contribute 0.0128205
voluntary contribute 0.0128205
invites contribute 0.0128205
cash contribute 0.0256410
projects contribute 0.0128205
making contribute 0.0128205
gave contribute 0.0128205
support contribute 0.0384615
contributes contribute 0.0128205
share contribute 0.0256410
NULL contribute 0.1538462
sources contribute 0.0128205
period contribute 0.0128205
donated contribute 0.0512821
tithe contribute 0.0128205
past contribute 0.0128205
generously contribute 0.0128205
donations contribute 0.1025641
olive contribute 0.0128205
times contribute 0.0128205
donating contribute 0.0128205
use contribute 0.0256410
property contribute 0.0256410
anonymous contribute 0.0128205
donate contribute 0.0128205
privilege contribute 0.0256410
funds contribute 0.0641026
contributing contribute 0.0384615
ministration contribute 0.0128205
servants contribute 0.0128205
circumstances contribute 0.0128205
financially contribute 0.0128205
financial contribute 0.0128205
resources contribute 0.0256410
donation contribute 0.0256410
varied contribute 0.0128205
regular contribute 0.0128205
finance contribute 0.0128205
contributions contribute 0.0128205
personal contribute 0.0128205
inappropriate greet 0.0185185
readily greet 0.0185185
considered greet 0.0185185
us greet 0.0185185
waved greet 0.0370370
greet greet 0.1481481
insisted greet 0.0185185
simple greet 0.0185185
daughters greet 0.0185185
sent greet 0.0185185
greetings greet 0.0370370
go greet 0.0370370
warmly greet 0.0185185
saying greet 0.0185185
used greet 0.0185185
criticize greet 0.0185185
unnoticed greet 0.0185185
meet greet 0.0185185
often greet 0.0185185
inclined greet 0.0185185
say greet 0.0185185
greeted greet 0.0925926
underestimate greet 0.0185185
offering greet 0.0185185
so greet 0.0185185
NULL greet 0.0925926
greeting greet 0.1851852
popes pope 0.2500000
pope pope 0.7500000
maxim maxim 0.5000000
was maxim 0.5000000
endeavors once 0.0232558
embrace once 0.0232558
nor once 0.0232558
scriptural once 0.0232558
transplanted once 0.0232558
transition once 0.0232558
one once 0.0465116
immediately once 0.0465116
banner once 0.0232558
manslayer once 0.0232558
once once 0.1162791
peasants once 0.0232558
turned once 0.0232558
; once 0.0232558
come once 0.0232558
large once 0.0232558
throughout once 0.0232558
easily once 0.0232558
because once 0.0232558
NULL once 0.1627907
overwhelming once 0.0232558
overnight once 0.0232558
simply once 0.0232558
instead once 0.0232558
instantly once 0.0232558
more once 0.0232558
chunk once 0.0232558
asa once 0.0232558
passages once 0.0232558
quickly once 0.0232558
verse once 0.0232558
on watch 0.0125000
unnoticed watch 0.0125000
watch watch 0.2875000
saw watch 0.0125000
awake watch 0.0125000
1895 watch 0.0125000
observe watch 0.0250000
entertainment watch 0.1625000
NULL watch 0.1125000
observing watch 0.0125000
remember watch 0.0125000
the watch 0.0625000
careful watch 0.0125000
watching watch 0.0375000
looking watch 0.0125000
watched watch 0.0375000
vigilance watch 0.0125000
directors watch 0.0125000
disobedient watch 0.0125000
alert watch 0.0125000
somewhat watch 0.0125000
monthly watch 0.0125000
whiteboard watch 0.0125000
watchful watch 0.0250000
reluctant watch 0.0125000
viewing watch 0.0375000
- doctors 0.2500000
mental doctors 0.2500000
experts doctors 0.2500000
health doctors 0.2500000
arose opportunity 0.5000000
advance opportunity 0.5000000
; born 0.0103093
privileged born 0.0051546
1473 born 0.0051546
birth born 0.0876289
overlapped born 0.0051546
brother born 0.0051546
papparizos born 0.0051546
leah born 0.0103093
ought born 0.0051546
him born 0.0103093
populate born 0.0051546
baby born 0.0051546
dare born 0.0051546
youngest born 0.0051546
gave born 0.0206186
childless born 0.0051546
size born 0.0051546
child born 0.0051546
kevin born 0.0051546
sinaiticus born 0.0051546
obed born 0.0051546
reproduce born 0.0051546
bore born 0.0051546
raising born 0.0051546
multitudes born 0.0051546
satisfied born 0.0051546
any born 0.0154639
fifth born 0.0051546
neither born 0.0051546
irina born 0.0103093
grandchildren born 0.0051546
method born 0.0051546
reigned born 0.0051546
rachel born 0.0051546
brought born 0.0051546
creatures born 0.0051546
sinful born 0.0051546
childbearing born 0.0051546
was born 0.1134021
born born 0.1237113
humans born 0.0051546
affects born 0.0051546
hatch born 0.0051546
raised born 0.0154639
son born 0.0051546
echoed born 0.0051546
NULL born 0.1597938
begun born 0.0051546
lifetimes born 0.0051546
control born 0.0103093
faithfully born 0.0051546
limit born 0.0051546
childlessness born 0.0051546
have born 0.0773196
produced born 0.0051546
weigh born 0.0051546
customary born 0.0051546
raise born 0.0051546
childbirth born 0.0051546
barren born 0.0051546
children born 0.0515464
unnatural born 0.0051546
daughters born 0.0051546
pregnancy born 0.0051546
affliction born 0.0051546
bear born 0.0103093
offspring born 0.0051546
some born 0.0051546
share portion 0.2500000
renders portion 0.2500000
for portion 0.2500000
rise portion 0.2500000
materials picture 0.0192308
NULL picture 0.1346154
photographs picture 0.0192308
fired picture 0.0192308
media picture 0.0192308
faces picture 0.0192308
synchronized picture 0.0192308
looking picture 0.0192308
website picture 0.0192308
artistic picture 0.0192308
feature picture 0.0192308
pictures picture 0.1346154
paintings picture 0.0192308
picture picture 0.2115385
image picture 0.1923077
liberally picture 0.0192308
a picture 0.0192308
postings picture 0.0192308
illustrations picture 0.0384615
images picture 0.0192308
take nisan 0.1666667
nisan nisan 0.5000000
on nisan 0.1666667
effect nisan 0.1666667
1926 1926 0.6666667
year 1926 0.3333333
favorably stubborn 0.1818182
dignified stubborn 0.0909091
burial stubborn 0.0909091
spirit stubborn 0.0909091
has stubborn 0.0909091
headstrong stubborn 0.0909091
rebellious stubborn 0.0909091
not stubborn 0.0909091
disposed stubborn 0.1818182
close kant 0.1428571
kant kant 0.4285714
very kant 0.1428571
lies kant 0.1428571
which kant 0.1428571
138 138 1.0000000
his african 0.1250000
lifted african 0.1250000
african african 0.2500000
its african 0.1250000
land african 0.1250000
building african 0.1250000
restrictions african 0.1250000
supremacist rough 1.0000000
blessed real 0.0131579
other real 0.0131579
real real 0.0789474
if real 0.0131579
NULL real 0.0657895
deed real 0.0263158
heartless real 0.0131579
blessing real 0.0131579
deprived real 0.0131579
alive real 0.0131579
could real 0.0131579
genuineness real 0.0131579
unselfish real 0.0394737
desire real 0.0131579
very real 0.0131579
without real 0.0131579
because real 0.0263158
freedom real 0.0526316
manliness real 0.0131579
“ real 0.0394737
created real 0.0131579
names real 0.0131579
true real 0.1315789
genuine real 0.1315789
some real 0.0131579
witnesses real 0.0131579
truth real 0.0263158
hypocrisy real 0.0131579
identifies real 0.0131579
gain real 0.0131579
are real 0.0263158
personal real 0.0131579
realities real 0.0131579
unlike real 0.0131579
god real 0.0131579
arimathea real 0.0131579
teaches real 0.0131579
unseen real 0.0131579
does 144 0.1666667
reflect 144 0.1666667
more 144 0.1666667
whole 144 0.1666667
144 144 0.3333333
providing download 0.1428571
responsibility download 0.1428571
downloaded download 0.1428571
spiritual download 0.1428571
entrusted download 0.1428571
channels download 0.1428571
food download 0.1428571
stop colporteur 0.1428571
colporteur colporteur 0.4285714
quit colporteur 0.1428571
resentful colporteur 0.1428571
mixing colporteur 0.1428571
pontus pontus 0.2000000
residents pontus 0.2000000
temporary pontus 0.2000000
scattered pontus 0.2000000
about pontus 0.2000000
males men 0.0114943
spies men 0.0114943
detain men 0.0114943
over men 0.0114943
denying men 0.0114943
demonstrate men 0.0114943
best men 0.0114943
these men 0.0229885
things men 0.0229885
smashing men 0.0114943
baptizing men 0.0114943
entrust men 0.0229885
ones men 0.0804598
stewards men 0.0114943
younger men 0.1494253
handing men 0.0114943
spiritually men 0.0114943
qualified men 0.0114943
10,000 men 0.0229885
faithful men 0.0114943
when men 0.0114943
chiefs men 0.0114943
antandroy men 0.0114943
nabal men 0.0229885
constitutes men 0.0114943
seized men 0.0114943
followed men 0.0114943
cooperate men 0.0114943
NULL men 0.0574713
did men 0.0114943
proper men 0.0114943
taking men 0.0114943
procedures men 0.0114943
excuse men 0.0114943
men men 0.2873563
hope men 0.0114943
and brian 0.3333333
brian brian 0.6666667
fifteen minutes 0.0909091
minute minutes 0.0909091
hard minutes 0.0909091
hours minutes 0.0909091
minutes minutes 0.1818182
too minutes 0.0909091
music minutes 0.0909091
not minutes 0.0909091
was minutes 0.0909091
- minutes 0.0909091
s simone 0.1428571
experienced simone 0.1428571
’ simone 0.1428571
simone simone 0.1428571
god simone 0.1428571
word simone 0.1428571
has simone 0.1428571
probably hardest 0.2500000
greatest hardest 0.2500000
challenge hardest 0.5000000
dannykarl dannykarl 0.7500000
view dannykarl 0.2500000
using washing 0.5000000
utensils washing 0.5000000
safely escape 0.3333333
get escape 0.3333333
away escape 0.3333333
regained regained 1.0000000
ellis ellis 1.0000000
1,100,000 250,000 1.0000000
attend migraine 0.3333333
congregation migraine 0.3333333
meetings migraine 0.3333333
NULL abijah 0.2500000
his abijah 0.2500000
successor abijah 0.2500000
abijah abijah 0.2500000
likely closing 1.0000000
handkerchief handkerchief 0.3333333
raised handkerchief 0.3333333
a handkerchief 0.3333333
abroad diane 0.1111111
says diane 0.1111111
to diane 0.2222222
serving diane 0.1111111
adjust diane 0.1111111
diane diane 0.3333333
w18.04 w18.04 1.0000000
114 114 0.3333333
96 114 0.6666667
includes gentle 0.0263158
optional gentle 0.0263158
fierce gentle 0.0263158
NULL gentle 0.0526316
gentle gentle 0.0526316
mild gentle 0.0789474
needs gentle 0.0263158
wolves gentle 0.0263158
- gentle 0.0526316
“ gentle 0.0263158
display gentle 0.0263158
example gentle 0.0263158
best gentle 0.0263158
patience gentle 0.0789474
tempered gentle 0.0526316
showing gentle 0.0526316
mildness gentle 0.3421053
supply supply 1.0000000
arkansas arkansas 0.6666667
, arkansas 0.3333333
dave dave 1.0000000
day rentis 0.2500000
modern rentis 0.2500000
rentis rentis 0.2500000
- rentis 0.2500000
trees freezer 0.5000000
even freezer 0.5000000
spiritually comfort 0.2000000
refreshing comfort 0.2000000
refresh comfort 0.2000000
soothed comfort 0.2000000
comforted comfort 0.2000000
emma emma 0.5000000
wagner emma 0.5000000
nun nun 0.6666667
was nun 0.3333333
141 141 0.6666667
58 141 0.3333333
though 80 0.0714286
70 80 0.0714286
80 80 0.7857143
nearing 80 0.0714286
stress warn 0.0161290
about warn 0.0161290
admonished warn 0.0161290
hear warn 0.0161290
syrians warn 0.0161290
alerted warn 0.0483871
find warn 0.0161290
someone warn 0.0161290
jeremiah warn 0.0322581
showy warn 0.0161290
cautioned warn 0.0161290
fellow warn 0.0161290
warn warn 0.0645161
NULL warn 0.0967742
ample warn 0.0161290
warning warn 0.1935484
warnings warn 0.0161290
warns warn 0.0483871
this warn 0.0161290
clear warn 0.0322581
against warn 0.0483871
give warn 0.0322581
sounding warn 0.0161290
warned warn 0.1612903
properly warn 0.0161290
but escort 1.0000000
secure take 0.0010560
dew take 0.0010560
ears take 0.0010560
exalt take 0.0005280
shepherds take 0.0015839
may take 0.0005280
spent take 0.0005280
upbringing take 0.0010560
right take 0.0005280
’ take 0.0612460
materials take 0.0005280
distinction take 0.0005280
disregarding take 0.0005280
reward take 0.0005280
displayed take 0.0005280
hastily take 0.0005280
commandant take 0.0005280
minister take 0.0005280
blinds take 0.0005280
apply take 0.0005280
worthy take 0.0005280
education take 0.0010560
look take 0.0021119
commercialized take 0.0005280
coincidence take 0.0005280
justice take 0.0005280
helped take 0.0010560
beginning take 0.0005280
​ take 0.0010560
newfound take 0.0005280
hebrew take 0.0005280
guided take 0.0005280
contrast take 0.0021119
showed take 0.0015839
sivulsky take 0.0005280
rabbi take 0.0005280
tradition take 0.0010560
personal take 0.0005280
eraser take 0.0005280
considered take 0.0005280
unearned take 0.0005280
chairs take 0.0005280
taunt take 0.0005280
defeat take 0.0005280
recognized take 0.0005280
to take 0.0380148
worked take 0.0010560
acknowledging take 0.0005280
recording take 0.0005280
overwhelming take 0.0005280
tobacco take 0.0005280
overtaken take 0.0005280
rereading take 0.0005280
humans take 0.0010560
whisper take 0.0005280
sanctification take 0.0005280
lived take 0.0005280
dominated take 0.0005280
neglects take 0.0005280
visions take 0.0010560
spend take 0.0005280
patients take 0.0005280
follower take 0.0005280
been take 0.0010560
threatened take 0.0005280
view take 0.0047518
student take 0.0005280
dollars take 0.0005280
functions take 0.0005280
salvation take 0.0015839
pulling take 0.0005280
resemble take 0.0005280
set take 0.0021119
care take 0.0105597
s take 0.0485744
cooperate take 0.0005280
with take 0.0058078
magnifies take 0.0005280
persecuted take 0.0010560
able take 0.0010560
maurizio take 0.0005280
cared take 0.0021119
gaining take 0.0010560
origin take 0.0005280
radio take 0.0005280
adopts take 0.0005280
occasions take 0.0005280
done take 0.0005280
supplanted take 0.0005280
value take 0.0005280
insight take 0.0010560
treat take 0.0010560
argued take 0.0005280
for take 0.0026399
involved take 0.0026399
boxer take 0.0005280
engulfed take 0.0005280
preoccupied take 0.0005280
merchant take 0.0005280
and take 0.0026399
affect take 0.0058078
cutout take 0.0005280
herd take 0.0005280
souled take 0.0005280
reflecting take 0.0005280
use take 0.0036959
deter take 0.0005280
equip take 0.0005280
replacement take 0.0005280
activities take 0.0010560
offer take 0.0010560
toys take 0.0005280
building take 0.0010560
had take 0.0063358
renderings take 0.0005280
difference take 0.0005280
addresses take 0.0005280
swearing take 0.0005280
spends take 0.0005280
gave take 0.0031679
support take 0.0010560
firsthand take 0.0010560
chooses take 0.0005280
mclain take 0.0005280
matters take 0.0005280
please take 0.0005280
discern take 0.0010560
seduced take 0.0005280
hardworking take 0.0010560
cultivate take 0.0026399
blessed take 0.0015839
defended take 0.0005280
his take 0.0015839
attention take 0.0015839
kyrgyzstan take 0.0005280
father take 0.0010560
samuelson take 0.0005280
pills take 0.0005280
gabriel take 0.0005280
veil take 0.0005280
from take 0.0010560
fajardo take 0.0005280
bosom take 0.0005280
bless take 0.0010560
cleaning take 0.0005280
accuse take 0.0005280
whereby take 0.0005280
demonstrate take 0.0026399
expand take 0.0010560
constant take 0.0010560
know take 0.0068638
rahab take 0.0005280
caregivers take 0.0005280
acquire take 0.0010560
through take 0.0005280
departed take 0.0005280
complexity take 0.0005280
used take 0.0036959
emphasizing take 0.0005280
bazely take 0.0005280
trust take 0.0021119
hopkinson take 0.0005280
provoking take 0.0005280
wrecked take 0.0005280
humiliating take 0.0005280
cope take 0.0010560
understanding take 0.0010560
came take 0.0031679
try take 0.0005280
built take 0.0005280
feature take 0.0010560
away take 0.0005280
reprimand take 0.0005280
eyewitness take 0.0005280
us take 0.0005280
angels take 0.0026399
changed take 0.0015839
renovations take 0.0005280
captivity take 0.0010560
reception take 0.0005280
evaluate take 0.0005280
shift take 0.0005280
outset take 0.0005280
directs take 0.0005280
deliverance take 0.0005280
spending take 0.0005280
applied take 0.0005280
bicol take 0.0005280
coffee take 0.0005280
dealings take 0.0010560
deal take 0.0015839
incense take 0.0005280
rid take 0.0005280
soothe take 0.0005280
sycamore take 0.0005280
already take 0.0005280
text take 0.0010560
crown take 0.0005280
vastly take 0.0005280
safely take 0.0005280
made take 0.0005280
grips take 0.0005280
patient take 0.0010560
sources take 0.0005280
fulfilled take 0.0021119
taking take 0.0005280
tell take 0.0015839
NULL take 0.2397043
applying take 0.0005280
solely take 0.0005280
precise take 0.0005280
freedom take 0.0010560
walk take 0.0005280
lives take 0.0010560
come take 0.0021119
distributed take 0.0005280
reflect take 0.0021119
benefiting take 0.0010560
dealt take 0.0010560
olive take 0.0005280
restrain take 0.0005280
governed take 0.0005280
perceived take 0.0005280
opportunities take 0.0005280
loving take 0.0015839
stage take 0.0005280
be take 0.0068638
exists take 0.0010560
jehovah take 0.0073918
exert take 0.0005280
comparing take 0.0005280
inspired take 0.0015839
shiny take 0.0005280
explained take 0.0010560
viewed take 0.0005280
parkin take 0.0005280
boundaries take 0.0005280
slander take 0.0005280
christians take 0.0015839
misrepresent take 0.0005280
adapts take 0.0005280
function take 0.0010560
takes take 0.0015839
physically take 0.0005280
tasted take 0.0005280
governor take 0.0005280
fare take 0.0005280
valuable take 0.0005280
method take 0.0010560
translate take 0.0005280
copied take 0.0005280
manage take 0.0005280
disciplined take 0.0010560
fantasizing take 0.0005280
the take 0.0131996
inexpensive take 0.0005280
worship take 0.0026399
strengthen take 0.0021119
kindly take 0.0005280
tool take 0.0005280
how take 0.0095037
figure take 0.0005280
celestial take 0.0005280
dependent take 0.0005280
timely take 0.0005280
austrian take 0.0005280
enslave take 0.0005280
show take 0.0190074
complacent take 0.0005280
impact take 0.0010560
has take 0.0047518
seriously take 0.0010560
implicit take 0.0005280
equipped take 0.0005280
help take 0.0153115
give take 0.0068638
it take 0.0005280
interesting take 0.0005280
suggestions take 0.0005280
copper take 0.0010560
teach take 0.0015839
plan take 0.0005280
exercise take 0.0010560
praising take 0.0005280
conform take 0.0005280
accomplish take 0.0031679
qualifications take 0.0010560
materially take 0.0005280
traitor take 0.0005280
minimize take 0.0005280
varied take 0.0005280
baby take 0.0010560
proved take 0.0010560
vacation take 0.0005280
cooperation take 0.0005280
talents take 0.0005280
count take 0.0005280
discipline take 0.0052798
put take 0.0005280
priscilla take 0.0005280
dedicating take 0.0005280
demonstration take 0.0005280
barak take 0.0005280
expenditure take 0.0005280
cleansing take 0.0005280
numbering take 0.0005280
is take 0.0005280
, take 0.0005280
enable take 0.0005280
adjust take 0.0005280
that take 0.0005280
blessings take 0.0026399
— take 0.0010560
assembled take 0.0005280
listed take 0.0005280
god take 0.0042239
differ take 0.0042239
disseminate take 0.0005280
wealth take 0.0005280
explain take 0.0015839
identifies take 0.0005280
vans take 0.0005280
calories take 0.0005280
cards take 0.0005280
in take 0.0058078
electronic take 0.0005280
obligation take 0.0005280
functioned take 0.0005280
caring take 0.0021119
does take 0.0079197
instructed take 0.0005280
adept take 0.0005280
accurate take 0.0005280
taken take 0.0021119
effective take 0.0005280
inkhorn take 0.0005280
potatoes take 0.0005280
imitate take 0.0068638
carry take 0.0015839
ezekiel take 0.0005280
saying take 0.0005280
wait take 0.0010560
bow take 0.0005280
balance take 0.0005280
dramatic take 0.0005280
of take 0.0084477
efforts take 0.0005280
provide take 0.0047518
punish take 0.0005280
hospitable take 0.0010560
deliver take 0.0005280
publications take 0.0010560
children take 0.0005280
mules take 0.0005280
markin take 0.0005280
compassionate take 0.0005280
between take 0.0031679
displays take 0.0005280
thessalonian take 0.0005280
presumably take 0.0005280
subscriptions take 0.0005280
cows take 0.0005280
voluntary take 0.0026399
valleys take 0.0005280
quest take 0.0005280
areas take 0.0005280
emphasize take 0.0005280
wage take 0.0005280
shown take 0.0010560
explanation take 0.0010560
unreservedly take 0.0005280
representatives take 0.0005280
way take 0.0058078
adjusted take 0.0010560
reveal take 0.0015839
ministry take 0.0010560
protect take 0.0021119
resort take 0.0010560
find take 0.0010560
examine take 0.0005280
one take 0.0010560
do take 0.0110876
nature take 0.0005280
greatly take 0.0005280
influence take 0.0010560
riveting take 0.0005280
almighty take 0.0005280
haters take 0.0005280
manifest take 0.0010560
confront take 0.0005280
answers take 0.0015839
ways take 0.0031679
stretch take 0.0005280
perceive take 0.0005280
illustration take 0.0010560
faithfulness take 0.0005280
waiting take 0.0005280
germinate take 0.0005280
extended take 0.0010560
deceptively take 0.0005280
draw take 0.0015839
leg take 0.0005280
became take 0.0005280
display take 0.0005280
molds take 0.0005280
saw take 0.0010560
drug take 0.0005280
can take 0.0036959
publicize take 0.0005280
intelligent take 0.0005280
peter take 0.0005280
handwritten take 0.0005280
conquered take 0.0005280
determine take 0.0005280
demonstrated take 0.0005280
hybrid take 0.0005280
applaud take 0.0005280
involve take 0.0005280
adapt take 0.0005280
pleasing take 0.0005280
deborah take 0.0005280
vocal take 0.0005280
devoting take 0.0005280
childless take 0.0005280
happen take 0.0005280
take take 0.0068638
escort take 0.0005280
ought take 0.0005280
absolutely take 0.0005280
harmonious take 0.0005280
skill take 0.0005280
make take 0.0058078
patience take 0.0005280
brickell take 0.0005280
grasps take 0.0005280
berdibaev take 0.0005280
accept take 0.0042239
reader take 0.0005280
simplifications take 0.0005280
privileged take 0.0005280
permanently take 0.0005280
weapons take 0.0015839
both take 0.0010560
develop take 0.0005280
benefited take 0.0021119
damascus take 0.0005280
prepare take 0.0031679
prove take 0.0015839
provider take 0.0005280
encourage take 0.0021119
brought take 0.0005280
walked take 0.0010560
militaristic take 0.0005280
means take 0.0042239
such take 0.0010560
zeal take 0.0010560
methods take 0.0005280
steer take 0.0005280
kill take 0.0005280
restoration take 0.0005280
loved take 0.0010560
hand take 0.0042239
replicate take 0.0005280
misuse take 0.0005280
daily take 0.0010560
simplify take 0.0005280
minutes take 0.0005280
swimwear take 0.0005280
needs take 0.0005280
did take 0.0121436
took take 0.0026399
forgave take 0.0010560
raised take 0.0005280
identify take 0.0010560
this take 0.0015839
fluctuate take 0.0005280
kg take 0.0005280
flocks take 0.0010560
important take 0.0015839
distinguished take 0.0005280
opportunity take 0.0005280
burned take 0.0005280
all take 0.0010560
connection take 0.0015839
rate take 0.0005280
devout take 0.0005280
contribute take 0.0010560
own take 0.0005280
undo take 0.0005280
sought take 0.0005280
fernández take 0.0005280
statements take 0.0005280
sinclair take 0.0005280
special take 0.0010560
completed take 0.0005280
stopped take 0.0005280
have take 0.0047518
busying take 0.0005280
psarras take 0.0005280
patiently take 0.0010560
devotion asa 0.0101010
1 asa 0.0101010
move asa 0.0101010
depended asa 0.0101010
glance asa 0.0101010
promoted asa 0.0101010
asa asa 0.3939394
rather asa 0.0101010
decisive asa 0.0101010
baasha asa 0.0101010
did asa 0.0505051
imitate asa 0.0101010
so asa 0.0101010
NULL asa 0.0404040
s asa 0.1010101
first asa 0.0101010
’ asa 0.1111111
worked asa 0.0101010
good asa 0.0101010
doing asa 0.0101010
heartfelt asa 0.0101010
react asa 0.0202020
basically asa 0.0101010
god asa 0.0101010
than asa 0.0101010
strategy asa 0.0101010
king asa 0.0101010
syria asa 0.0101010
whose asa 0.0101010
ki asa 0.0101010
​ asa 0.0202020
zeal asa 0.0101010
— asa 0.0101010
fearing sam 0.2500000
fathers sam 0.2500000
- sam 0.2500000
mind sam 0.2500000
rough two 0.0031056
consideration two 0.0031056
NULL two 0.1739130
personalities two 0.0031056
for two 0.0093168
indicate two 0.0031056
second two 0.0062112
mountains two 0.0031056
accounts two 0.0031056
private two 0.0031056
unrelated two 0.0031056
daughters two 0.0062112
them two 0.0031056
requirements two 0.0062112
witnesses two 0.0031056
separated two 0.0031056
four two 0.0062112
closeness two 0.0031056
eyewitness two 0.0031056
pioneers two 0.0031056
otherwise two 0.0031056
doing two 0.0031056
between two 0.0093168
displays two 0.0031056
articles two 0.0372671
twin two 0.0031056
start two 0.0031056
pair two 0.0031056
drowned two 0.0031056
we two 0.0031056
concludes two 0.0031056
two two 0.5000000
both two 0.0590062
thereafter two 0.0031056
visitors two 0.0031056
siblings two 0.0062112
respective two 0.0031056
length two 0.0031056
tying two 0.0031056
wearing two 0.0031056
double two 0.0062112
kinds two 0.0031056
limping two 0.0031056
different two 0.0062112
comparison two 0.0031056
rugged two 0.0031056
spies two 0.0031056
illegal two 0.0031056
soundly two 0.0031056
besides two 0.0031056
these two 0.0186335
reflection two 0.0093168
differed two 0.0031056
clear two 0.0062112
twice two 0.0155280
keenly spirit 0.0028490
NULL spirit 0.1054131
holy spirit 0.0370370
physical spirit 0.0028490
minded spirit 0.0113960
creature spirit 0.0028490
spirit spirit 0.5868946
inside spirit 0.0028490
of spirit 0.0028490
second spirit 0.0028490
adult spirit 0.0028490
bad spirit 0.0028490
liberated spirit 0.0028490
course spirit 0.0028490
access spirit 0.0028490
fruitage spirit 0.0085470
produces spirit 0.0028490
anointed spirit 0.0028490
environment spirit 0.0028490
love spirit 0.0028490
means spirit 0.0142450
unique spirit 0.0028490
spiritual spirit 0.0769231
harmonize spirit 0.0028490
varies spirit 0.0028490
present spirit 0.0028490
inspiration spirit 0.0028490
which spirit 0.0113960
inspired spirit 0.0085470
empowered spirit 0.0113960
latter spirit 0.0056980
harms spirit 0.0028490
spirituality spirit 0.0170940
produced spirit 0.0056980
person spirit 0.0170940
result spirit 0.0056980
exploit spirit 0.0028490
body spirit 0.0028490
grow spirit 0.0113960
follow chile 0.2500000
assigned chile 0.2500000
chile chile 0.5000000
reached kristina 0.0909091
adulthood kristina 0.0909091
kristina kristina 0.2727273
discussed kristina 0.0909091
joyful kristina 0.0909091
a kristina 0.0909091
named kristina 0.0909091
became kristina 0.0909091
she kristina 0.0909091
lovingly partner 0.0769231
my partner 0.0769231
suggested partner 0.0769231
partner partner 0.5384615
again partner 0.0769231
companion partner 0.1538462
395 395 1.0000000
part tallinn 0.1666667
then tallinn 0.1666667
tallinn tallinn 0.1666667
was tallinn 0.1666667
which tallinn 0.1666667
estonia tallinn 0.1666667
against problem 0.0019231
life problem 0.0153846
problems problem 0.1115385
creates problem 0.0019231
NULL problem 0.1423077
real problem 0.0038462
arise problem 0.0173077
loom problem 0.0019231
control problem 0.0019231
remedy problem 0.0019231
consequences problem 0.0038462
sympathy problem 0.0019231
you problem 0.0019231
downs problem 0.0019231
difficult problem 0.0038462
tested problem 0.0019231
lystra problem 0.0019231
distressing problem 0.0019231
opposition problem 0.0019231
encounter problem 0.0038462
own problem 0.0019231
experiencing problem 0.0019231
affliction problem 0.0019231
them problem 0.0019231
unconquerable problem 0.0019231
fix problem 0.0019231
smooth problem 0.0019231
oppose problem 0.0019231
stage problem 0.0019231
all problem 0.0038462
their problem 0.0057692
disrupted problem 0.0019231
outlook problem 0.0019231
discouraging problem 0.0019231
stresses problem 0.0019231
quarters problem 0.0019231
comfort problem 0.0038462
with problem 0.0307692
differences problem 0.0038462
dangers problem 0.0057692
minimum problem 0.0019231
situation problem 0.0153846
endure problem 0.0057692
difficulties problem 0.0211538
resulting problem 0.0019231
incident problem 0.0019231
barrier problem 0.0019231
or problem 0.0019231
approaching problem 0.0019231
overcome problem 0.0019231
unfaithfulness problem 0.0019231
struggling problem 0.0019231
changes problem 0.0038462
challenges problem 0.0326923
action problem 0.0019231
threats problem 0.0019231
clash problem 0.0019231
beyond problem 0.0019231
suffering problem 0.0038462
such problem 0.0019231
erupt problem 0.0019231
anxiety problem 0.0019231
said problem 0.0019231
strained problem 0.0038462
issue problem 0.0019231
go problem 0.0019231
flesh problem 0.0019231
negative problem 0.0019231
weaknesses problem 0.0019231
individuals problem 0.0019231
disappointing problem 0.0019231
disputes problem 0.0076923
into problem 0.0019231
trouble problem 0.0019231
tribulations problem 0.0115385
face problem 0.0173077
pose problem 0.0038462
impact problem 0.0019231
marriage problem 0.0057692
trial problem 0.0269231
contending problem 0.0019231
misunderstandings problem 0.0019231
faced problem 0.0057692
distress problem 0.0096154
persevering problem 0.0019231
rift problem 0.0019231
smaller problem 0.0019231
more problem 0.0076923
entirely problem 0.0019231
trusted problem 0.0019231
prayer problem 0.0019231
economic problem 0.0019231
pressures problem 0.0115385
problem problem 0.0403846
nor problem 0.0038462
arose problem 0.0038462
weigh problem 0.0019231
see problem 0.0057692
absorbed problem 0.0019231
material problem 0.0019231
discrimination problem 0.0019231
our problem 0.0019231
disagreement problem 0.0038462
cope problem 0.0076923
some problem 0.0057692
difficulty problem 0.0038462
illustrated problem 0.0019231
obstacles problem 0.0019231
when problem 0.0019231
associated problem 0.0038462
facing problem 0.0057692
causes problem 0.0019231
situations problem 0.0076923
way problem 0.0096154
hardships problem 0.0019231
tests problem 0.0115385
anxieties problem 0.0057692
wrongs problem 0.0019231
may problem 0.0076923
conflict problem 0.0019231
during problem 0.0019231
dispute problem 0.0019231
dealing problem 0.0019231
frequency problem 0.0019231
personal problem 0.0038462
reaped problem 0.0019231
evil problem 0.0019231
circumstances problem 0.0115385
do problem 0.0115385
emotional problem 0.0019231
tribulation problem 0.0250000
neither problem 0.0019231
rehoboam problem 0.0019231
hungry problem 0.0019231
solution problem 0.0019231
trials problem 0.0826923
bitter problem 0.0019231
from problem 0.0019231
damage problem 0.0019231
concerns problem 0.0057692
triumph problem 0.0019231
disease problem 0.0019231
spiritually problem 0.0038462
challenge problem 0.0057692
gifts bribe 0.0416667
accepting bribe 0.0416667
justice bribe 0.0416667
would bribe 0.0416667
bribery bribe 0.0416667
“ bribe 0.0833333
boundary bribe 0.0416667
distort bribe 0.0416667
simply bribe 0.0416667
such bribe 0.0833333
NULL bribe 0.0833333
favoritism bribe 0.0416667
bribe bribe 0.0416667
requests bribe 0.0416667
between bribe 0.0416667
improper bribe 0.0416667
are bribe 0.0416667
corrupted bribe 0.0416667
gift bribe 0.1250000
officer police 0.0370370
posted police 0.0185185
very police 0.0185185
a police 0.0555556
unnoticed police 0.0185185
policeman police 0.0370370
worked police 0.0185185
right police 0.0185185
retorted police 0.0185185
NULL police 0.0925926
eye police 0.0185185
stood police 0.0185185
kgb police 0.1111111
officers police 0.0740741
prisoners police 0.0185185
police police 0.1481481
sure police 0.0185185
not police 0.0185185
out police 0.0185185
go police 0.0185185
secretly police 0.0185185
agent police 0.0185185
authorities police 0.0370370
differently police 0.0185185
guards police 0.0740741
man police 0.0185185
raids police 0.0185185
later copper 0.0454545
metal copper 0.0454545
shiny copper 0.0454545
pulling copper 0.0454545
horses copper 0.0454545
that copper 0.0909091
construction copper 0.0454545
include copper 0.0454545
copper copper 0.4090909
NULL copper 0.0909091
excellent copper 0.0454545
quality copper 0.0454545
clean conscience 0.0416667
permits conscience 0.0138889
ever conscience 0.0138889
an conscience 0.0138889
effective conscience 0.0138889
NULL conscience 0.0416667
bible conscience 0.0277778
consciences conscience 0.0138889
interact conscience 0.0138889
might conscience 0.0138889
trained conscience 0.0138889
come conscience 0.0138889
before conscience 0.0138889
was conscience 0.0138889
born conscience 0.0138889
bothering conscience 0.0138889
man conscience 0.0138889
restraint conscience 0.0138889
conscience conscience 0.5138889
educated conscience 0.0138889
where conscience 0.0138889
conclusions conscience 0.0138889
serve conscience 0.0277778
own conscience 0.0138889
broke conscience 0.0138889
unworthiness conscience 0.0138889
opposite conscience 0.0138889
becomes conscience 0.0138889
properly conscience 0.0138889
since conscience 0.0138889
displaced million 0.0312500
copies million 0.0312500
240,000,000 million 0.0312500
were million 0.0312500
million million 0.6250000
evangelizers million 0.0312500
refugees million 0.0312500
mark million 0.0312500
1,200,000 million 0.0312500
over million 0.0312500
inhabitants million 0.0312500
happy million 0.0312500
65,000,000 million 0.0312500
bustling busy 0.1250000
NULL busy 0.1250000
very busy 0.1250000
commitments busy 0.1250000
scurried busy 0.1250000
about busy 0.1250000
just busy 0.1250000
busy busy 0.1250000
margaret margaret 1.0000000
archaeologists dig 0.1428571
NULL dig 0.4285714
trenches dig 0.1428571
hidden dig 0.1428571
shards dig 0.1428571
27th 27th 1.0000000
over 2,800 0.2500000
there 2,800 0.2500000
are 2,800 0.2500000
2,800 2,800 0.2500000
godly help 0.0004268
aid help 0.0034144
publications help 0.0004268
motivates help 0.0004268
lamp help 0.0004268
provide help 0.0046948
willing help 0.0008536
guidance help 0.0042680
anna help 0.0004268
instilled help 0.0008536
accurate help 0.0008536
draws help 0.0004268
knowledge help 0.0012804
sorry help 0.0004268
in help 0.0034144
analyzing help 0.0004268
does help 0.0008536
invaluable help 0.0004268
preserve help 0.0004268
lessons help 0.0004268
preparing help 0.0004268
convey help 0.0004268
posture help 0.0004268
assisted help 0.0034144
exclude help 0.0004268
talents help 0.0004268
lowly help 0.0004268
enable help 0.0038412
revealed help 0.0004268
on help 0.0166453
encouraged help 0.0017072
teach help 0.0021340
intent help 0.0004268
search help 0.0004268
maintenance help 0.0004268
starts help 0.0004268
suggestions help 0.0008536
become help 0.0017072
effect help 0.0004268
signs help 0.0008536
conform help 0.0004268
educational help 0.0004268
more help 0.0008536
relief help 0.0008536
supported help 0.0004268
show help 0.0017072
136 help 0.0004268
place help 0.0004268
help help 0.2296201
equipped help 0.0004268
give help 0.0089629
training help 0.0004268
promoted help 0.0008536
principle help 0.0008536
has help 0.0012804
need help 0.0029876
depend help 0.0004268
valuable help 0.0008536
continues help 0.0004268
save help 0.0004268
examining help 0.0004268
motivated help 0.0008536
increase help 0.0008536
bring help 0.0034144
immigrants help 0.0004268
work help 0.0012804
strengthen help 0.0059752
encourages help 0.0012804
allowed help 0.0012804
strengthening help 0.0004268
respectfully help 0.0004268
comforts help 0.0008536
successfully help 0.0017072
sense help 0.0004268
distinguish help 0.0004268
boundaries help 0.0004268
macedonia help 0.0004268
moving help 0.0004268
sustains help 0.0008536
accepted help 0.0004268
positive help 0.0017072
contribute help 0.0004268
alleviate help 0.0012804
confirms help 0.0004268
controlling help 0.0004268
succeed help 0.0004268
have help 0.0008536
champion help 0.0004268
allowing help 0.0004268
practical help 0.0034144
analyze help 0.0008536
did help 0.0046948
interact help 0.0004268
principles help 0.0021340
helps help 0.0183525
gives help 0.0029876
fortified help 0.0008536
helping help 0.0196329
territories help 0.0004268
important help 0.0004268
shows help 0.0021340
accounts help 0.0004268
took help 0.0004268
recommend help 0.0004268
reliance help 0.0012804
philippians help 0.0004268
ministering help 0.0008536
prove help 0.0004268
encourage help 0.0106701
action help 0.0008536
interests help 0.0004268
replenish help 0.0004268
sustain help 0.0025608
hand help 0.0017072
train help 0.0012804
make help 0.0029876
spirit help 0.0034144
both help 0.0012804
develop help 0.0029876
fresh help 0.0004268
benefited help 0.0008536
comfort help 0.0059752
trained help 0.0004268
christian help 0.0008536
paula help 0.0004268
self help 0.0012804
available help 0.0008536
reach help 0.0012804
assistance help 0.0034144
provides help 0.0012804
impress help 0.0017072
can help 0.0349979
strengthens help 0.0004268
toward help 0.0012804
running help 0.0004268
helper help 0.0025608
draw help 0.0004268
molding help 0.0004268
perform help 0.0004268
protect help 0.0012804
helpful help 0.0017072
find help 0.0004268
ribeiro help 0.0012804
moreover help 0.0004268
empowered help 0.0012804
profitable help 0.0004268
do help 0.0055484
solving help 0.0004268
greatly help 0.0008536
colossian help 0.0004268
influence help 0.0008536
assist help 0.0106701
discernment help 0.0004268
sacrificing help 0.0004268
emphasize help 0.0004268
enables help 0.0004268
explains help 0.0004268
handle help 0.0004268
heartened help 0.0004268
way help 0.0081093
enabling help 0.0004268
blended help 0.0004268
offer help 0.0012804
sheds help 0.0004268
spiritual help 0.0025608
bearing help 0.0004268
refuge help 0.0008536
whom help 0.0004268
building help 0.0012804
serve help 0.0004268
certainly help 0.0012804
improve help 0.0017072
removes help 0.0004268
for help 0.0149381
invisible help 0.0004268
sincere help 0.0004268
benefit help 0.0059752
use help 0.0008536
impart help 0.0004268
solved help 0.0004268
equip help 0.0012804
lifted help 0.0004268
behalf help 0.0021340
affect help 0.0038412
encouragement help 0.0012804
readjust help 0.0004268
strength help 0.0034144
by help 0.0012804
supports help 0.0012804
subway help 0.0004268
value help 0.0004268
indications help 0.0004268
backing help 0.0008536
shaping help 0.0004268
instilling help 0.0004268
s help 0.0012804
fosters help 0.0004268
overcome help 0.0004268
motivate help 0.0008536
set help 0.0008536
also help 0.0042680
overseas help 0.0004268
with help 0.0012804
saving help 0.0004268
especially help 0.0004268
actually help 0.0008536
pleasant help 0.0004268
qualified help 0.0004268
protected help 0.0004268
framework help 0.0004268
empower help 0.0004268
plain help 0.0004268
produced help 0.0008536
to help 0.0486556
play help 0.0008536
source help 0.0017072
moved help 0.0008536
sharing help 0.0004268
move help 0.0017072
underscore help 0.0004268
fundamental help 0.0004268
helped help 0.0435339
arrangement help 0.0012804
deepened help 0.0008536
victory help 0.0034144
look help 0.0004268
needed help 0.0029876
apply help 0.0008536
keep help 0.0017072
triumph help 0.0004268
power help 0.0004268
homeless help 0.0004268
cultivated help 0.0004268
collect help 0.0004268
strengthened help 0.0012804
guided help 0.0034144
reminded help 0.0012804
surrounding help 0.0004268
’ help 0.0004268
supporting help 0.0017072
assisting help 0.0004268
qualify help 0.0004268
reason help 0.0008536
giving help 0.0025608
hoped help 0.0004268
hinder help 0.0008536
beneficial help 0.0008536
promote help 0.0008536
stage help 0.0004268
inspired help 0.0004268
intensity help 0.0004268
listen help 0.0008536
encouraging help 0.0008536
stimulate help 0.0004268
applying help 0.0004268
NULL help 0.1895006
heal help 0.0004268
making help 0.0017072
defeated help 0.0004268
interest help 0.0004268
pioneering help 0.0008536
wendy help 0.0004268
assure help 0.0008536
delivered help 0.0004268
deepen help 0.0004268
deal help 0.0012804
companions help 0.0004268
looks help 0.0004268
keeps help 0.0004268
let help 0.0034144
having help 0.0004268
remind help 0.0021340
prompted help 0.0004268
open help 0.0012804
misusing help 0.0004268
offers help 0.0008536
instill help 0.0008536
tension help 0.0004268
evaluate help 0.0004268
endure help 0.0017072
directed help 0.0004268
leave help 0.0004268
compassion help 0.0012804
dealings help 0.0008536
multiplying help 0.0004268
rewarded help 0.0004268
maintain help 0.0004268
our help 0.0008536
reduce help 0.0008536
out help 0.0021340
proving help 0.0004268
handling help 0.0004268
cope help 0.0021340
harvest help 0.0004268
willpower help 0.0004268
close help 0.0008536
absorbs help 0.0004268
keys help 0.0004268
built help 0.0008536
doctrinal help 0.0004268
servant help 0.0008536
pick help 0.0008536
countries help 0.0008536
conducted help 0.0004268
inborn help 0.0004268
wisely help 0.0004268
feb help 0.0004268
income help 0.0004268
through help 0.0004268
bless help 0.0008536
daniel help 0.0012804
beliefs help 0.0004268
responsible help 0.0004268
marthe help 0.0004268
enabled help 0.0021340
intentions help 0.0004268
gain help 0.0004268
lessen help 0.0004268
figurative help 0.0004268
confidence help 0.0004268
fills help 0.0008536
relieve help 0.0012804
boost help 0.0004268
acquaints help 0.0004268
determining help 0.0004268
cultivate help 0.0008536
transforms help 0.0004268
printed help 0.0004268
gently help 0.0004268
blessed help 0.0008536
attention help 0.0012804
underlies help 0.0008536
support help 0.0085361
gave help 0.0034144
understandably help 0.0004268
when help 0.0008536
pity help 0.0008536
relied help 0.0008536
illustrated help 0.0004268
build help 0.0042680
cares help 0.0004268
guide help 0.0029876
rescues help 0.0004268
half thirty 0.1666667
later thirty 0.1666667
thirty thirty 0.1666667
decades thirty 0.1666667
mirjana thirty 0.1666667
three thirty 0.1666667
psalm 13 0.0078740
accelerated 13 0.0078740
decrees 13 0.0078740
throughout 13 0.0078740
. 13 0.0393701
13 13 0.5433071
relate 13 0.0078740
trustworthy 13 0.0078740
difficulties 13 0.0078740
obligation 13 0.0078740
realize 13 0.0078740
preteen 13 0.0078740
teenager 13 0.0236220
remember 13 0.0078740
ordeal 13 0.0078740
NULL 13 0.1732283
own 13 0.0078740
customary 13 0.0157480
encounter 13 0.0078740
lamb 13 0.0078740
inspiration 13 0.0078740
random 13 0.0078740
similar 13 0.0078740
insignificance 13 0.0078740
teenagers 13 0.0078740
18 13 0.0078740
from 13 0.0157480
opens 13 0.0078740
understandable 13 0.0078740
habakkuk 13 0.0078740
536 536 1.0000000
scriptural need 0.0014993
do need 0.0044978
overly need 0.0014993
required need 0.0059970
should need 0.0179910
reconsider need 0.0014993
heavenly need 0.0014993
needed need 0.0764618
familiar need 0.0014993
key need 0.0014993
learn need 0.0014993
putting need 0.0029985
particular need 0.0014993
trials need 0.0014993
emphasis need 0.0014993
sustenance need 0.0014993
compelled need 0.0014993
tomorrow need 0.0014993
donations need 0.0014993
situations need 0.0014993
centered need 0.0014993
video need 0.0014993
associated need 0.0029985
grasping need 0.0014993
clarify need 0.0014993
instinctive need 0.0014993
persevere need 0.0014993
communicate need 0.0014993
takes need 0.0029985
role need 0.0014993
necessary need 0.0164918
printed need 0.0014993
physical need 0.0014993
right need 0.0089955
essential need 0.0029985
effectively need 0.0014993
see need 0.0089955
exercise need 0.0014993
infused need 0.0014993
challenging need 0.0014993
measures need 0.0014993
involving need 0.0014993
enough need 0.0059970
receiving need 0.0014993
contrary need 0.0014993
much need 0.0014993
carried need 0.0014993
lacked need 0.0014993
counsel need 0.0014993
self need 0.0014993
measured need 0.0014993
unnecessary need 0.0014993
material need 0.0029985
obligated need 0.0014993
sufficient need 0.0029985
need need 0.2743628
has need 0.0014993
without need 0.0029985
successful need 0.0014993
depend need 0.0014993
expenses need 0.0029985
provided need 0.0014993
actual need 0.0014993
time need 0.0089955
dependent need 0.0014993
relief need 0.0014993
mastery need 0.0014993
entreat need 0.0014993
stretch need 0.0014993
duties need 0.0014993
caution need 0.0014993
faced need 0.0014993
requests need 0.0014993
mutual need 0.0014993
transition need 0.0014993
detain need 0.0014993
obliged need 0.0014993
copying need 0.0014993
ask need 0.0014993
spirituality need 0.0014993
muster need 0.0014993
prepare need 0.0014993
decide need 0.0014993
gaining need 0.0014993
number need 0.0014993
supplies need 0.0014993
go need 0.0029985
means need 0.0029985
must need 0.0374813
employees need 0.0014993
oil need 0.0014993
judicial need 0.0014993
nothing need 0.0014993
christian need 0.0029985
state need 0.0014993
but need 0.0074963
is need 0.0269865
reasons need 0.0014993
mammal need 0.0014993
desire need 0.0014993
develop need 0.0029985
take need 0.0014993
requirement need 0.0044978
mindful need 0.0014993
youths need 0.0014993
spread need 0.0014993
importance need 0.0029985
serve need 0.0014993
abundantly need 0.0014993
careful need 0.0029985
earning need 0.0014993
had need 0.0194903
climbed need 0.0014993
necessities need 0.0149925
exert need 0.0014993
practical need 0.0014993
have need 0.0254873
families need 0.0029985
realistically need 0.0014993
peacemaking need 0.0014993
restrain need 0.0014993
efforts need 0.0014993
vital need 0.0044978
lamp need 0.0014993
spiritual need 0.0014993
provide need 0.0029985
be need 0.0149925
activities need 0.0014993
forced need 0.0014993
basic need 0.0059970
mainly need 0.0029985
easily need 0.0014993
schedule need 0.0014993
wait need 0.0029985
encouragement need 0.0014993
spain need 0.0014993
showing need 0.0029985
humbly need 0.0014993
consistently need 0.0014993
improve need 0.0029985
about need 0.0029985
patient need 0.0014993
individual need 0.0014993
include need 0.0014993
obligation need 0.0014993
needs need 0.0404798
rob need 0.0014993
effective need 0.0014993
observing need 0.0014993
really need 0.0014993
real need 0.0029985
NULL need 0.1349325
knowledge need 0.0014993
needing need 0.0014993
fiery need 0.0014993
involved need 0.0014993
one noemi 0.2000000
younger noemi 0.2000000
noemi noemi 0.2000000
was noemi 0.2000000
year noemi 0.2000000
2007 2007 1.0000000
introduced plato 0.1428571
men plato 0.1428571
​ plato 0.1428571
plato plato 0.2857143
— plato 0.1428571
false plato 0.1428571
i 1923 1.0000000
some 67,000 0.2000000
are 67,000 0.2000000
members 67,000 0.2000000
there 67,000 0.2000000
67,000 67,000 0.2000000
became tractor 0.2500000
familiar tractor 0.2500000
tractor tractor 0.2500000
a tractor 0.2500000
excuse excuse 0.0833333
fads excuse 0.0833333
but excuse 0.0833333
justification excuse 0.0833333
cover excuse 0.0833333
excuses excuse 0.0833333
no excuse 0.0833333
lame excuse 0.0833333
catering excuse 0.0833333
NULL excuse 0.0833333
an excuse 0.0833333
disgraceful excuse 0.0833333
galaxy galaxy 0.2857143
way galaxy 0.2857143
milky galaxy 0.1428571
alone galaxy 0.2857143
classmates classmates 1.0000000
liberated comot 0.0045977
root comot 0.0022989
chat comot 0.0022989
july comot 0.0022989
lives comot 0.0022989
refined comot 0.0022989
riches comot 0.0022989
debt comot 0.0022989
battle comot 0.0022989
separate comot 0.0068966
&#93; comot 0.0022989
solved comot 0.0022989
resign comot 0.0022989
anything comot 0.0068966
world comot 0.0022989
remedy comot 0.0022989
draws comot 0.0022989
NULL comot 0.2022989
stand comot 0.0045977
personality comot 0.0298851
doubt comot 0.0022989
had comot 0.0068966
released comot 0.0091954
allowing comot 0.0022989
fall comot 0.0022989
entice comot 0.0022989
india comot 0.0022989
eradicate comot 0.0045977
solve comot 0.0091954
reject comot 0.0068966
stay comot 0.0045977
swallow comot 0.0022989
removed comot 0.0068966
abortions comot 0.0022989
hate comot 0.0022989
all comot 0.0045977
usurped comot 0.0022989
sins comot 0.0114943
admit comot 0.0022989
fix comot 0.0022989
evicted comot 0.0022989
joint comot 0.0022989
wipe comot 0.0045977
disassociates comot 0.0022989
distracted comot 0.0045977
superficial comot 0.0022989
put comot 0.0114943
blotted comot 0.0022989
immense comot 0.0022989
permanently comot 0.0022989
fresh comot 0.0022989
flee comot 0.0045977
overcome comot 0.0068966
luigi comot 0.0022989
abortion comot 0.0022989
empire comot 0.0022989
avoid comot 0.0022989
adversely comot 0.0022989
alive comot 0.0045977
leave comot 0.0321839
lulling comot 0.0022989
however comot 0.0022989
abstain comot 0.0022989
repentance comot 0.0022989
trespasses comot 0.0022989
simply comot 0.0022989
broke comot 0.0022989
eliminate comot 0.0183908
restoration comot 0.0022989
looks comot 0.0022989
escape comot 0.0045977
resist comot 0.0022989
determination comot 0.0022989
inconveniences comot 0.0022989
get comot 0.0045977
enoch comot 0.0045977
bedridden comot 0.0022989
banished comot 0.0022989
cost comot 0.0022989
free comot 0.0114943
rid comot 0.0045977
impression comot 0.0022989
go comot 0.0022989
delivered comot 0.0022989
turn comot 0.0022989
departed comot 0.0022989
her comot 0.0022989
permanent comot 0.0022989
give comot 0.0091954
lose comot 0.0022989
loosening comot 0.0022989
delivery comot 0.0022989
erased comot 0.0022989
remove comot 0.0114943
holds comot 0.0022989
to comot 0.0252874
completely comot 0.0022989
leaving comot 0.0022989
apathy comot 0.0022989
comes comot 0.0022989
displaced comot 0.0022989
destroy comot 0.0045977
fled comot 0.0045977
distract comot 0.0068966
flow comot 0.0022989
behind comot 0.0022989
away comot 0.0482759
rejected comot 0.0022989
order comot 0.0022989
insist comot 0.0022989
close comot 0.0068966
erase comot 0.0022989
down comot 0.0045977
crush comot 0.0022989
out comot 0.0367816
avoiding comot 0.0022989
bled comot 0.0022989
slow comot 0.0022989
refine comot 0.0022989
mass comot 0.0022989
diverted comot 0.0022989
follow comot 0.0022989
left comot 0.0436782
weaken comot 0.0045977
darkness comot 0.0022989
soon comot 0.0022989
expelled comot 0.0114943
physically comot 0.0022989
extent comot 0.0022989
fortifies comot 0.0022989
tears comot 0.0022989
fleeing comot 0.0022989
lesser comot 0.0022989
osei comot 0.0022989
awake comot 0.0022989
him comot 0.0091954
off comot 0.0091954
may comot 0.0022989
attention comot 0.0022989
growth comot 0.0022989
stop comot 0.0022989
removing comot 0.0022989
risk comot 0.0022989
ended comot 0.0022989
rocked comot 0.0022989
commonly comot 0.0022989
longer comot 0.0022989
bring comot 0.0068966
perfection comot 0.0114943
full comot 0.0022989
withdrew comot 0.0022989
spiritually comot 0.0045977
turned comot 0.0045977
buying comot 0.0022989
neutrality comot 0.0022989
conquer comot 0.0022989
ribeiro comot 0.0022989
lost comot 0.0022989
resisted comot 0.0022989
undeserved comot 0.0022989
constantly comot 0.0022989
from comot 0.0160920
wool comot 0.0022989
fighting comot 0.0022989
gone comot 0.0137931
rib comot 0.0022989
testament testament 1.0000000
question clear 0.0273973
sons clear 0.0136986
evidence clear 0.0136986
limitations clear 0.0136986
- clear 0.0136986
play clear 0.0136986
obviously clear 0.0136986
language clear 0.0136986
NULL clear 0.1232877
unsavory clear 0.0136986
lesson clear 0.0136986
without clear 0.0136986
clearly clear 0.2602740
term clear 0.0136986
utterly clear 0.0136986
sobers clear 0.0136986
much clear 0.0136986
fail clear 0.0136986
truth clear 0.0136986
desired clear 0.0136986
original clear 0.0136986
means clear 0.0136986
must clear 0.0136986
stronger clear 0.0136986
undoubtedly clear 0.0136986
alternative clear 0.0136986
highlighted clear 0.0136986
allowing clear 0.0136986
obvious clear 0.0136986
doubt clear 0.0136986
literally clear 0.0136986
stolen clear 0.0136986
clear clear 0.1643836
included clear 0.0136986
increasingly clear 0.0136986
dresses blouse 1.0000000
1999 1999 1.0000000
kyoko kyoko 1.0000000
thailand thailand 0.5000000
mentioned thailand 0.1666667
above thailand 0.1666667
related thailand 0.1666667
dodger dodge 0.1666667
tack dodge 0.1666667
against dodge 0.1666667
coward dodge 0.1666667
draft dodge 0.1666667
flexible dodge 0.1666667
janette janette 0.5000000
married janette 0.5000000
process court 0.0200000
another court 0.0200000
are court 0.0200000
sanhedrin court 0.0200000
cases court 0.0200000
systems court 0.0200000
characteristics court 0.0200000
court court 0.3000000
supreme court 0.0400000
thousands court 0.0200000
brought court 0.0200000
due court 0.0200000
your court 0.0200000
; court 0.0200000
face court 0.0200000
victories court 0.0200000
magnified court 0.0200000
but court 0.0600000
before court 0.0400000
attitude court 0.0200000
fleshly court 0.0200000
trial court 0.0600000
legal court 0.0600000
courts court 0.0600000
NULL court 0.0200000
fight court 0.0200000
worthwhile save 0.0054348
worth save 0.0054348
; save 0.0054348
put save 0.0054348
also save 0.0163043
nothing save 0.0054348
rescue save 0.0163043
granted save 0.0054348
everlasting save 0.0054348
coins save 0.0054348
require save 0.0054348
lifesaving save 0.0054348
deliverance save 0.0108696
survive save 0.0326087
symbolically save 0.0054348
known save 0.0108696
milan save 0.0054348
displeasing save 0.0054348
survival save 0.0271739
saves save 0.0163043
safe save 0.0108696
defending save 0.0054348
ransom save 0.0108696
climbing save 0.0054348
freed save 0.0054348
judges save 0.0054348
saved save 0.0271739
delivered save 0.0271739
rescued save 0.0108696
babylon save 0.0054348
protect save 0.0108696
get save 0.0054348
keep save 0.0163043
ensure save 0.0054348
save save 0.0489130
working save 0.0217391
enabled save 0.0054348
free save 0.0054348
responsibility save 0.0054348
clearly save 0.0054348
aside save 0.0054348
great save 0.0054348
preserve save 0.0054348
into save 0.0054348
acts save 0.0108696
childbearing save 0.0054348
infancy save 0.0054348
liberated save 0.0054348
through save 0.0108696
affect save 0.0054348
bringing save 0.0054348
moves save 0.0054348
‘ save 0.0054348
future save 0.0054348
NULL save 0.0706522
perish save 0.0054348
miraculously save 0.0054348
for save 0.0489130
lamb save 0.0054348
which save 0.0108696
end save 0.0054348
preserved save 0.0108696
salvation save 0.1467391
kept save 0.0054348
savior save 0.0054348
own save 0.0434783
indeed save 0.0054348
saving save 0.0271739
out save 0.0271739
marked save 0.0054348
deliver save 0.0054348
effort save 0.0108696
preservation save 0.0054348
conserve save 0.0054348
protected save 0.0108696
2001 2001 1.0000000
all wayuu 0.1666667
do wayuu 0.1666667
wayuu wayuu 0.1666667
can wayuu 0.1666667
they wayuu 0.1666667
brothers wayuu 0.1666667
yoke load 0.1923077
weight load 0.0384615
kindly load 0.0384615
immense load 0.0384615
burdensome load 0.0769231
right load 0.0384615
upon load 0.0384615
burden load 0.1153846
relationships load 0.0384615
NULL load 0.1153846
load load 0.1153846
taskmaster load 0.0384615
suitcases load 0.0384615
responsibility load 0.0769231
philippines basketball 1.0000000
shemaiah shemaiah 0.4000000
through shemaiah 0.2000000
delivered shemaiah 0.2000000
message shemaiah 0.2000000
jack jack 0.5000000
wife jack 0.5000000
leukemia leukemia 1.0000000
europe europe 0.7647059
NULL europe 0.0588235
trip europe 0.0588235
european europe 0.1176471
asunción asunción 1.0000000
someone koro 0.1428571
incurring koro 0.2857143
kill koro 0.1428571
— koro 0.1428571
bloodguilt koro 0.1428571
​ koro 0.1428571
spending break 0.0500000
NULL break 0.0500000
speech break 0.0500000
sun break 0.0500000
starts break 0.0500000
down break 0.1000000
injured break 0.0500000
soft break 0.0500000
and break 0.1500000
survived break 0.0500000
breaks break 0.0500000
put break 0.0500000
new break 0.0500000
morning break 0.0500000
break break 0.0500000
shone break 0.0500000
vase break 0.0500000
golden golden 0.8333333
NULL golden 0.1666667
most gal 0.1428571
beneficial gal 0.1428571
abounds gal 0.1428571
NULL gal 0.2857143
fits gal 0.1428571
readjust gal 0.1428571
because squeeze 0.5000000
frustrated squeeze 0.5000000
who followers 0.2500000
subjects followers 0.2500000
those followers 0.2500000
listened followers 0.2500000
behind remaining 0.5000000
99 remaining 0.5000000
close franz 0.0555556
too franz 0.0555556
with franz 0.0555556
commented franz 0.0555556
NULL franz 0.1666667
franz franz 0.5555556
us franz 0.0555556
ahaz ahaz 0.5000000
reign ahaz 0.5000000
vain zero 0.2500000
are zero 0.2500000
service zero 0.2500000
pointless zero 0.2500000
funeral burial 1.0000000
thursday thursday 0.5000000
evenings thursday 0.5000000
16 108 1.0000000
manasseh manasseh 0.2500000
repentant manasseh 0.1250000
have manasseh 0.1250000
credentials manasseh 0.1250000
about manasseh 0.1250000
firstborn manasseh 0.1250000
josiah manasseh 0.1250000
always tent 0.1250000
cloths tent 0.1250000
tentmaker tent 0.1250000
designed tent 0.1250000
tent tent 0.5000000
self too 0.0029851
reduce too 0.0119403
actually too 0.0029851
drunkards too 0.0029851
fragile too 0.0029851
nearing too 0.0029851
some too 0.0059701
much too 0.0119403
rainstorm too 0.0029851
down too 0.0059701
even too 0.0089552
are too 0.0119403
relatively too 0.0029851
devoting too 0.0029851
involve too 0.0029851
stalks too 0.0029851
been too 0.0059701
terrorizing too 0.0029851
nicodemus too 0.0029851
restrict too 0.0029851
pitched too 0.0029851
waver too 0.0029851
knew too 0.0029851
overseer too 0.0029851
beneath too 0.0029851
disadvantaged too 0.0029851
m too 0.0029851
promotes too 0.0029851
fewer too 0.0059701
show too 0.0059701
money too 0.0029851
overdrink too 0.0029851
was too 0.0089552
can too 0.0029851
confidant too 0.0029851
toward too 0.0029851
need too 0.0119403
meager too 0.0029851
has too 0.0089552
submit too 0.0029851
presence too 0.0029851
constantly too 0.0029851
feeling too 0.0029851
who too 0.0029851
kids too 0.0029851
spiritually too 0.0059701
weak too 0.0029851
climates too 0.0029851
association too 0.0029851
foreigners too 0.0029851
neither too 0.0029851
long too 0.0029851
extra too 0.0029851
torment too 0.0029851
blesses too 0.0029851
attained too 0.0029851
directly too 0.0029851
overly too 0.0089552
lessening too 0.0029851
welcomed too 0.0029851
were too 0.0119403
trend too 0.0029851
gave too 0.0029851
righteous too 0.0029851
pervasive too 0.0029851
drunkenness too 0.0029851
suffered too 0.0029851
obstacles too 0.0029851
sometime too 0.0029851
begins too 0.0029851
inferior too 0.0029851
outback too 0.0059701
drinking too 0.0029851
dwell too 0.0029851
greater too 0.0328358
generally too 0.0029851
granted too 0.0029851
thoughts too 0.0029851
rare too 0.0059701
reserved too 0.0029851
wind too 0.0029851
enriched too 0.0029851
recently too 0.0029851
slight too 0.0029851
unduly too 0.0029851
deteriorated too 0.0029851
too too 0.0477612
sparing too 0.0029851
inner too 0.0029851
firm too 0.0029851
you too 0.0059701
mom too 0.0029851
theft too 0.0029851
enduring too 0.0029851
mount too 0.0029851
customary too 0.0029851
major too 0.0029851
consideration too 0.0029851
NULL too 0.2567164
flattery too 0.0029851
proof too 0.0029851
extremely too 0.0029851
caring too 0.0029851
spain too 0.0029851
inclined too 0.0059701
